tree
version=v4
num_class=1
num_tree_per_iteration=1
label_index=0
max_feature_idx=16
objective=binary sigmoid:1
feature_names=StkIndx STInt dtdlevel dtdtrend liqnonfinlevel liqnonfintrend ni2talevel ni2tatrend sizelevel sizetrend m2b sigma liqfinlevel lqfintrend DTDmedianFin DTDmedianNonFin dummyfin/SOE
feature_infos=[-0.46605693843195262:0.53714505832085335] [-1.2621069481282301:2.4784678473921922] [-1.1230255005545295:122.51469853250738] [-50.117325894944692:15.030145603608643] [-3.9077132346416228:4.7029922587445689] [-2.5399134839828506:2.6548951695434773] [-1.3718206778662885:0.2435438488950723] [-0.7314270463259569:0.68625847995081268] [-6.4554293135948857:6.9313127433460302] [-1.9644005129906419:2.0913707536180755] [0.1401237487182776:110.61797886618518] [0.0093648691636499005:1.199963377212198] [-9.2992491441828395:0] [-3.2431249520210761:3.3481773469862399] [0.63194208766202209:5.0432459501811779] [1.6360250519055408:5.3751757062707766] [0:1]
tree_sizes=3401 3475 3481 3493 3475 3491 3497 3494 3511 3508 3496 3499 3525 3515 3515 3515 3511 3533 3508 3525 3521 3512 3502 3520 3539 3497 3497 3519 3524 3515 3504 3518 3500 3505 3524 3517 3532 3527 3525 3502 3496 3485 3496 3508 3532 3497 3508 3515 3512 3509 3506 3501 3511 3503 3492 3524 3499 3529 3514 3518 3507 3496 3519 3501 3504 3518 3503 3465 3498 3489 3497 3513 3501 3497 3504 3500 3515 3488 3514 3516 3503 3503 3531 3498 3475 3513 3483 3478 3490 3510 3518 3496 3488 3489 3508 3484 3474 3523 3484 3494 3506 3523 3495 3507 3526 3509 3496 3501 3518 3509 3493 3515 3505 3496 3512 3495 3508 3496 3513 3531 3498 3497 3512 3509 3490 3517 3507 3512 3508 3506 3508 3511 3505 3511 3501 3478 3483 3505 3476 3519 3511 3487 3497 3507 3493 3464 3505 3504 3501 3488 3506 3494 3466 3483 3478 3519 3502 3498 3501 3505 3477 3488 3484 3504 3498 3496 3504 3494 3498 3493 3504 3476 3511 3505 3485 3494 3491 3504 3541 3490 3496 3497 3473 3501 3489 3477 3517 3482 3497 3494 3499 3487 3482 3471 3497 3511 3505 3486 3521 3496

Tree=0
num_leaves=31
num_cat=0
split_feature=8 8 1 4 1 6 8 10 8 8 12 6 4 1 3 3 13 9 13 9 8 15 6 3 10 8 9 7 4 6
split_gain=432.585 169.174 49.7849 45.4396 39.6934 27.5121 26.0948 25.3914 23.4893 22.203 20.8886 20.3012 16.0109 15.9078 15.9021 13.0944 12.7722 11.9549 13.0988 15.8376 11.8123 11.0923 10.6234 10.3229 10.2694 11.9919 11.8297 11.7029 10.0941 9.26529
threshold=-0.14367338535744886 -2.4013707765397019 -0.25358599080919919 0.055395270114976809 -0.024063852640518645 -0.00073939220828619988 3.5187132253330913 3.7498039607537126 -3.5128994267624263 0.74079891523720731 -3.8348221461212293 0.00023556642537865002 1.4464468990766057 -0.78975965775066981 1.1627145178856162 1.7607950387336697 -0.45107495634548028 0.80571151799287577 0.00062310586461770013 -0.010501470861952598 -1.4284443509934281 3.0054302523422471 -0.14568032145804308 0.70470201890747919 1.1610109191627476 0.93333591766815371 -0.75399305190528543 0.0027065082644780005 -0.011518049712524148 0.0041207448335327515
decision_type=10 8 2 8 2 8 10 10 10 10 8 10 10 2 10 10 8 10 8 8 10 10 8 10 10 10 10 8 8 10
left_child=1 3 9 8 7 14 24 15 21 29 -7 12 17 -10 20 -3 -12 18 19 -5 -6 -1 -20 -9 26 -26 -4 -28 -27 -2
right_child=2 4 6 11 5 10 -8 23 13 -11 16 -13 -14 -15 -16 -17 -18 -19 22 -21 -22 -23 -24 -25 25 28 27 -29 -30 -31
leaf_value=-1.7107765743603309 -1.8487077874401676 -1.8446460576088819 -1.8148724553020144 -1.7463767426757937 -1.8122117631200561 -1.862922145763376 -1.8654593433643787 -1.8009586730935492 -1.8293327021474017 -1.8653591545911485 -1.8684920302220873 -1.8300814185821277 -1.8293720849858712 -1.7815752966858751 -1.8675065847175969 -1.8757451111836085 -1.8338082956392159 -1.7633687815085954 -1.7643846099170781 -1.8200065430528805 -1.827492605482312 -1.7680167236610804 -1.8122429326881375 -1.8514268325546721 -1.8369434322013798 -1.8244528104352093 -1.8499624216054482 -1.8636799332056972 -1.850878144239406 -1.8636814397723944
leaf_weight=11.795861274003981 365.43578226864338 1106.8056633397937 21.350508905947208 18.047667749226093 218.34139218181372 69.949457354843616 253.72897600382566 46.239776194095612 27.01252231746912 1226.4156966581941 27.2484395429492 178.47138107568026 88.704876780509949 49.188741512596607 19.109295263886452 34.915749371051788 1025.6501377746463 15.924412719905375 12.03177849948406 12.267695724964144 300.55854526162148 29.961487635970116 319.78579913824797 12.975447401404379 333.70491544157267 38.926342204213142 850.48159785568714 190.26724234968424 504.50898668915033 144.02746615558863
leaf_count=100 3098 9383 181 153 1851 593 2151 392 229 10397 231 1513 752 417 162 296 8695 135 102 104 2548 254 2711 110 2829 330 7210 1613 4277 1221
internal_value=-1.8439 -1.83144 -1.85539 -1.81052 -1.83702 -1.83201 -1.85038 -1.84394 -1.78199 -1.86171 -1.83646 -1.81574 -1.81025 -1.7985 -1.82271 -1.8456 -1.83471 -1.80577 -1.80763 -1.77617 -1.82106 -1.75185 -1.81051 -1.81202 -1.84841 -1.8444 -1.85171 -1.85247 -1.84899 -1.85294
internal_weight=7553.83 3624.99 3928.85 763.192 2861.79 1660.86 2192.97 1200.94 117.959 1735.88 1122.85 645.234 466.762 76.2013 538.009 1141.72 1052.9 378.057 362.133 30.3154 518.9 41.7573 331.818 59.2152 1939.24 877.14 1062.1 1040.75 543.435 509.463
internal_count=64038 30731 33307 6470 24261 14080 18591 10181 1000 14716 9519 5470 3957 646 4561 9679 8926 3205 3070 257 4399 354 2813 502 16440 7436 9004 8823 4607 4319
is_linear=0
shrinkage=1


Tree=1
num_leaves=31
num_cat=0
split_feature=11 11 8 8 11 1 11 4 8 8 1 14 11 13 7 8 4 7 3 1 0 3 8 5 7 14 4 13 8 8
split_gain=468.397 156.124 106.271 44.2005 43.9288 32.0155 31.8132 25.34 21.896 20.3565 18.2583 17.0341 16.5144 15.6221 16.4074 15.1076 14.2635 13.614 15.8033 13.4123 13.4021 24.4117 15.8429 15.0026 13.2212 13.0376 12.8759 13.0515 11.4334 10.5517
threshold=0.1942764796053815 0.37283668879512866 0.56096119553965007 -1.2341098015497145 0.65113417472844326 0.04020395123694296 0.045026137453318807 -1.0859559250651452 -3.4117116443138307 -1.7875048916604273 1.6800863562013717 2.4074006017388982 0.12179651714614577 0.00062310586461770013 0.0011590651883002002 3.5187132253330913 1.4319470784814821 0.0091269503947070015 0.23143728842999964 0.87167242606620754 0.22689386261917263 0.2714960269567977 -2.4386801902860733 -0.050082370019477497 0.00011934821889350002 3.3567153820466391 2.3492829930700219 -0.35974340696745627 -2.854110974153572 -2.3285178533736324
decision_type=10 10 10 10 10 2 8 10 10 8 2 10 8 10 10 10 8 10 10 2 10 10 8 10 8 8 10 8 8 10
left_child=2 3 6 8 7 -4 -1 9 17 13 12 19 -8 14 24 -7 -5 18 -2 -10 22 -22 23 -9 -3 -13 27 -14 -6 -21
right_child=1 4 5 16 28 15 10 20 11 -11 -12 25 26 -15 -16 -17 -18 -19 -20 29 21 -23 -24 -25 -26 -27 -28 -29 -30 -31
leaf_value=-0.036440976258472882 0.021659899709644218 0.091720241017199652 -0.020883031407533288 0.0099672213415969435 0.10125114553964028 -0.0074033114325143924 -0.0066775915965745563 0.060435420597428791 0.012357223441296684 0.024739229087540171 0.014944026881883399 0.083707270053498095 -0.025111875690523391 0.026341169712102909 0.12083846368318173 -0.021793843664670551 -0.0024557442711168912 0.081678625880497902 0.083047287369469147 0.0077742819090065255 0.03597338832146408 0.11174663702984607 0.015418027490587112 0.023842370789508651 0.034611321741924488 0.018182727194162532 -0.021483411833654945 0.0034614213878208506 0.054204981235800434 0.036962764929300042
leaf_weight=63.06768286973238 52.580834768712521 22.67454718798399 1339.6481295749545 551.66803648322821 37.912256866693497 1072.14524102211 976.06277284771204 51.407177232205868 519.18488828092813 29.623957082629204 178.26650092750788 16.922785528004169 41.154215842485428 14.204396463930605 20.659707054495811 219.76549188047647 397.56651426106691 19.287847429513931 13.095067888498304 42.481388673186302 49.415288783609867 13.542311429977415 142.31604141741991 61.541019678115845 18.324994333088398 13.767776608467104 57.571107499301434 1383.0338016077876 19.585727788507938 114.1932280138135
leaf_count=538 434 187 11521 4675 310 9131 8282 424 4351 250 1502 141 349 118 170 1893 3369 158 108 353 411 113 1196 508 152 115 486 11674 163 956
internal_value=-0.000278442 0.019008 -0.00831743 0.0120395 0.044216 -0.0154672 -0.00134672 0.0386509 0.0207647 0.0598884 -0.000507096 0.0178809 -0.00162777 0.0736138 0.084504 -0.00985127 0.00476413 0.0447463 0.0338999 0.0162265 0.0316109 0.0522724 0.026515 0.0404973 0.0661951 0.054313 0.00169864 0.00263575 0.0852257 0.0290485
internal_weight=7552.67 2221.96 5330.71 1740.75 481.207 2631.56 2699.16 423.709 791.514 105.488 2636.09 706.55 2457.82 75.8636 61.6592 1291.91 949.235 84.9638 65.6759 675.86 318.222 62.9576 255.264 112.948 40.9995 30.6906 1481.76 1424.19 57.498 156.675
internal_count=64038 18662 45376 14660 4002 22545 22831 3529 6616 877 22293 5916 20791 627 509 11024 8044 700 542 5660 2652 524 2128 932 339 256 12509 12023 473 1309
is_linear=0
shrinkage=0.05


Tree=2
num_leaves=31
num_cat=0
split_feature=11 11 8 8 8 1 4 11 4 2 5 11 8 11 1 8 0 8 2 3 9 3 4 6 2 8 2 8 8 0
split_gain=420.655 167.07 62.835 45.1406 29.3589 28.9022 27.6676 27.4785 22.4483 22.0303 19.0185 17.4383 15.2306 18.4483 14.5626 14.3922 12.2174 12.0352 10.8256 17.1443 10.7558 16.081 18.3063 11.2053 16.5916 9.58667 9.18611 9.36307 12.1839 9.12372
threshold=0.17945678448190563 0.32701199339612014 0.74079891523720731 -2.1922364430563221 -1.377174791016633 0.04020395123694296 0.21524754619487915 0.045026137453318807 1.4319470784814821 0.44120699191288398 -0.13380088367522983 0.65113417472844326 -0.081676867654073129 0.44783101817921339 -1.08846549487954 3.5187132253330913 0.14956679948015453 -3.3123140058150478 3.4409932506438099 0.71965691948811927 0.36904770490488553 -0.091792387671214878 0.21524754619487915 -0.012028045961616647 1.2193283296570707 -0.10296219263330279 0.81688769269783934 1.4301278065217147 0.21435964530863358 0.26157599245454849
decision_type=8 10 8 8 8 2 10 10 8 10 10 10 8 10 2 8 8 10 10 10 10 8 8 10 8 10 10 8 10 10
left_child=2 4 7 6 17 -4 11 -1 -6 -9 -8 14 13 20 -3 -7 -10 -2 19 29 21 22 -5 -23 -25 -18 -14 28 -28 -11
right_child=1 3 5 12 8 15 10 9 16 18 -12 -13 26 -15 -16 -17 25 -19 -20 -21 -22 23 -24 24 -26 -27 27 -29 -30 -31
leaf_value=-0.036314077484487908 0.030279313706964968 0.026707139249752033 -0.021155049394929751 -0.030420886654572578 0.009829018098108747 -0.0072643169394016665 0.055126764386759897 0.013351496748875168 -0.0085768153589637838 0.0050233953026408819 0.020917563250630065 0.091286405338796076 -0.026928215696829017 0.050959937039997384 0.061875295099561724 -0.021717912745245472 0.009667976750466439 0.012730698942472191 -0.0079269957397641085 -0.014892398789251035 -0.0048386190550585 0.023835134076615534 0.023412465940692205 0.029601820953874959 0.09726640063346903 -0.0072736321541189671 -0.016138900965484326 -0.015389644235200759 0.043903725735245938 -0.011524036971671594
leaf_weight=63.503136694431305 113.24958487600088 39.249955393373966 1181.4999731257558 19.812614515423775 704.19712094962597 919.07176044583321 62.911554284393787 189.20997006446123 400.37280340492725 633.17028826475143 114.7058208361268 36.887603275477886 19.295346178114414 65.884430631995201 117.72786936163902 211.95122770220041 248.9690263196826 711.69892815500498 1063.1437207013369 167.50479323416948 34.677652917802334 35.955897554755211 77.82008495926857 18.227931946516037 18.011390559375286 125.64144307374954 11.932292766869066 19.977487698197365 28.942689694464207 95.920660018920898
leaf_count=556 916 313 10324 164 5935 7870 506 1592 3397 5368 931 282 162 539 931 1855 2092 5905 9047 1425 287 297 644 151 149 1075 100 169 243 813
internal_value=-0.000272084 0.0141587 -0.0099229 0.0351458 0.00758219 -0.015686 0.0472902 -0.00389913 0.00336727 -0.00294124 0.0330344 0.0603513 0.0222758 0.02795 0.053082 -0.00997289 -0.00250427 0.0151398 -0.00451428 -0.000467632 0.0205371 0.0257186 0.0124881 0.0436109 0.063232 0.00398589 0.00313274 0.0126646 0.026376 0.00284638
internal_weight=7551.13 3026.15 4524.98 722.021 2304.13 2312.52 371.483 2212.45 1479.18 2148.95 177.617 193.865 350.538 270.39 156.978 1131.02 774.983 824.949 1959.74 896.596 204.506 169.828 97.6327 72.1952 36.2393 374.61 80.1478 60.8525 40.875 729.091
internal_count=64038 25188 38850 5868 19320 20049 2963 18801 12499 18245 1437 1526 2905 2231 1244 9725 6564 6821 16653 7606 1692 1405 808 597 300 3167 674 512 343 6181
is_linear=0
shrinkage=0.05


Tree=3
num_leaves=31
num_cat=0
split_feature=11 11 8 8 11 1 11 2 7 11 0 8 8 14 1 10 8 8 7 0 0 2 2 3 7 0 9 0 7 10
split_gain=378.375 144.698 57.9887 37.818 29.2703 27.0315 25.6405 19.7938 16.415 15.5753 16.0415 13.3831 13.006 11.8838 11.2221 12.6826 10.5914 10.0633 10.013 10.411 10.007 10.4262 9.86199 15.621 9.81562 9.48663 16.1365 9.84146 9.8082 9.60095
threshold=0.17945678448190563 0.37283668879512866 0.74079891523720731 -1.377174791016633 0.65113417472844326 0.04020395123694296 0.045026137453318807 0.44120699191288398 -0.082210166706558938 0.31041754465056715 -0.15068081851493201 3.5187132253330913 -1.377174791016633 1.8651602318946918 -1.1461921485652899 1.2262678858366682 0.53749614604204154 -3.4117116443138307 -0.0021452658192977494 0.16201162025243329 0.17677973224526841 -0.093786978986228842 3.4409932506438099 0.71965691948811927 0.0010733653001410502 0.27305517096326443 -0.13271051386249524 0.36783746650460336 0.005362659716415751 2.6202727727947868
decision_type=8 10 8 8 10 2 10 10 8 10 8 8 8 10 2 10 10 10 10 10 10 10 10 10 10 8 8 10 8 10
left_child=2 3 6 9 8 -4 -1 -8 -3 17 -11 -7 -10 14 24 -16 25 -2 19 -18 21 -6 23 -9 -12 28 -27 29 -5 -28
right_child=1 4 5 16 20 11 7 22 12 10 13 -13 -14 -15 15 -17 18 -19 -20 -21 -22 -23 -24 -25 -26 26 27 -29 -30 -31
leaf_value=-0.035464171860627877 0.028444530340580861 0.079235433322272369 -0.020422203125108604 0.0073228770112249543 0.10853928550703969 -0.0069387998254890728 0.012558932602923793 0.0026977510352189944 0.036015332821451522 -0.014037148160442338 0.029398948838024172 -0.02097477718367962 0.015696660241440352 0.078707427255984827 0.024718561064157651 0.055960553116611071 -0.024516817716479778 0.010743974424593549 0.0025857975707422177 0.0026235924346533828 0.041242049656076224 0.0591058521860107 -0.0075754296947261827 -0.014306406532848823 -0.027806386560301218 0.042571755439909577 0.010009640297520581 -0.016709205287969282 -0.003691619717826636 0.053694012219058521
leaf_weight=61.817029289901257 91.186756514012814 18.456600725650787 1163.1782529875636 644.17925517261028 20.800139173865318 914.20544993877411 191.04431834071875 730.60336409509182 323.98229452967644 20.288671270012856 15.360938243567945 208.57518887519836 104.05244223028421 13.089295640587805 98.465900912880898 48.476725406944752 88.671963609755039 672.44880358874798 262.19303512573242 58.743003837764263 21.316868796944618 21.894107438623905 1057.0189968720078 165.69468158483505 14.650583259761332 43.713749304413795 135.07622534781694 31.437299348413944 294.52495477348566 13.869158573448656
leaf_count=556 721 144 10324 5404 153 7870 1592 6181 2532 165 124 1855 853 103 790 390 761 5530 2233 503 158 162 9047 1425 118 365 1126 263 2474 116
internal_value=-0.000265267 0.0133045 -0.00949945 0.00843373 0.0376 -0.0150803 -0.00371677 -0.00280157 0.0330668 0.016176 0.0282238 -0.00954622 0.031076 0.0327355 0.0293349 0.0350254 0.00363808 0.0128576 -0.00327596 -0.0137017 0.0692201 0.0831892 -0.0043039 -0.000445733 0.00147329 0.00607362 0.0153168 0.00871183 0.003867 0.0140773
internal_weight=7549.02 3056.88 4492.14 2546.38 510.502 2285.96 2206.18 2144.36 446.491 973.968 210.332 1122.78 428.035 190.043 176.954 146.943 1572.41 763.636 409.608 147.415 64.0111 42.6942 1953.32 896.298 30.0115 1162.8 224.096 180.383 938.704 148.945
internal_count=64038 25188 38850 21186 4002 20049 18801 18245 3529 7941 1690 9725 3385 1525 1422 1180 13245 6251 3497 1264 473 315 16653 7606 242 9748 1870 1505 7878 1242
is_linear=0
shrinkage=0.05


Tree=4
num_leaves=31
num_cat=0
split_feature=8 8 2 2 2 1 7 9 1 2 1 7 1 8 2 4 8 2 2 5 6 15 2 3 0 9 9 0 15 8
split_gain=295.916 103.622 48.0488 40.0113 32.457 21.8593 21.0437 19.8563 18.2943 18.0835 18.0376 17.2848 16.7004 20.1321 14.7806 14.6072 17.4798 13.4045 12.9175 16.2326 14.0075 12.9033 12.682 11.5101 11.0905 10.8973 10.0232 11.4918 10.5276 9.37622
threshold=-0.14367338535744886 -2.1922364430563221 4.9389228439383102 0.85202056058926789 5.3249564145544719 -0.024063852640518645 0.0023606608807155501 -0.15950600508313642 -0.25358599080919919 2.6152365195757192 -0.75771604776243795 0.0047628425104025004 0.56126876512823298 -3.3123140058150478 1.1349071534747808 0.21524754619487915 -3.1496644544632884 70.530316355390951 1.8245918676052884 -0.13678134243007722 0.0013068453008230503 2.4040150020052189 0.15298682553719864 1.7607950387336697 0.10254078871802226 -0.15950600508313642 0.36904770490488553 0.094158901141245865 5.2913483491289792 3.5187132253330913
decision_type=10 8 10 8 10 2 10 8 2 10 2 10 2 10 10 8 10 10 8 10 8 10 10 10 10 10 10 8 8 10
left_child=1 3 8 6 5 23 15 14 -2 12 -4 -8 13 25 -7 16 -1 -6 20 -20 -14 -16 24 -3 -13 -5 28 -28 -15 -12
right_child=2 4 10 9 17 7 11 -9 -10 -11 29 22 18 26 21 -17 -18 -19 19 -21 -22 -23 -24 -25 -26 -27 27 -29 -30 -31
leaf_value=0.073988696185326067 -0.011086825349464542 0.001353952834916926 -0.025129091484656821 0.055021593786622414 -0.0081304480139450519 0.035739984709866272 0.09509352845174053 0.0069645512977848812 -0.002184100406725684 0.0040290968577934216 -0.010836461045504816 0.10325548565812129 0.059703456141716932 -0.0032297525456279927 -0.0054039365607567889 0.018268481353798025 0.020764338435584576 -0.048329164116587935 0.035265383941478039 -0.0075518014471564797 0.013154099402869554 0.02018189000208372 0.032197920970268301 -0.040000668875524448 0.044839724571927551 0.02118445120576852 0.068009211433069178 0.0065816784117126549 0.025950563365745478 -0.023790577805313684
leaf_weight=31.750964120030403 963.73771093040705 932.55295779556036 490.30329472571611 37.213550835847855 261.82347263395786 109.31055144965649 22.359510324895382 1114.323839969933 1438.1424628645182 195.32181629538536 748.15167199075222 14.695725396275519 64.469402924180031 156.49271236360073 65.308120787143707 121.58222138136625 30.00272910296917 22.521874070167542 70.175411932170391 32.335077419877052 21.567819528281689 200.74148759245872 58.960026271641254 17.134846024215221 18.172582060098648 65.984516970813274 13.409146301448343 17.616548135876659 38.516914136707783 171.75356347113848
leaf_count=232 8489 7850 4388 285 2249 883 171 9228 12356 1620 6524 106 502 1262 539 941 229 205 554 259 171 1649 445 151 134 507 106 140 313 1550
internal_value=-0.000257906 0.00974572 -0.0100575 0.023419 0.00467228 0.00653577 0.0388212 0.0103149 -0.00575626 0.0169929 -0.0173835 0.0556706 0.0218832 0.0150877 0.020261 0.0283268 0.0481299 -0.0113144 0.0337492 0.0217595 0.0480345 0.0139012 0.0460714 0.000607808 0.070958 0.0333862 0.00673344 0.0331303 0.00253374 -0.0132551
internal_weight=7546.43 3734.34 3812.09 1010.63 2723.72 2439.37 297.524 1489.68 2401.88 713.103 1410.21 114.188 517.781 329.233 375.36 183.336 61.7537 284.345 188.548 102.51 86.0372 266.05 91.8283 949.688 32.8683 103.198 226.035 31.0257 195.01 919.905
internal_count=64038 30731 33307 7977 22754 20300 2258 12299 20845 5719 12462 856 4099 2613 3071 1402 461 2454 1486 813 673 2188 685 8001 240 792 1821 246 1575 8074
is_linear=0
shrinkage=0.05


Tree=5
num_leaves=31
num_cat=0
split_feature=11 8 11 11 11 8 4 1 8 11 9 3 5 5 8 12 4 8 1 4 8 15 6 11 11 8 11 1 7 10
split_gain=309.918 133.798 40.0008 34.8319 33.8598 25.6603 20.3274 20.2172 14.7656 14.5515 14.0967 18.1036 16.4182 12.58 12.0244 11.7855 11.7661 12.5302 11.6801 11.5871 11.352 11.1802 12.0607 11.7113 10.9089 10.8195 10.6496 10.4423 11.1098 10.2807
threshold=0.31041754465056715 -0.14367338535744886 0.65113417472844326 0.17211057556878986 0.12819757511250926 -0.64618680525059469 0.22355732076824517 -0.26755114581972467 1.7017934866311542 0.043810225636960902 -0.15950600508313642 0.11107408523576232 -0.23731118656298014 -0.65996231001251315 -1.7875048916604273 -2.2115579525453994 0.9559833273327133 0.76304465386477927 -0.42102739679028484 0.24194297172990661 -1.6321198104578374 4.7953433554844915 0.00018281973503700001 0.19569317950058093 0.33610930871550343 -2.7007568196067839 0.13396314421777367 -0.52271619793014612 0.023153071801498653 4.2135426327667203
decision_type=10 10 10 10 8 8 10 2 10 10 8 8 8 10 10 10 10 10 2 8 10 8 10 8 10 10 8 2 8 8
left_child=1 4 5 7 9 6 14 8 19 -1 11 -6 -13 -8 15 27 -5 -18 25 -3 -16 22 -14 -23 -7 -11 -12 28 -2 -29
right_child=2 3 -4 16 10 24 13 -9 -10 18 26 12 21 -15 20 -17 17 -19 -20 -21 -22 23 -24 -25 -26 -27 -28 29 -30 -31
leaf_value=-0.032756163760921948 0.014859400797803608 0.0035922865311589901 0.064539608672970109 0.0066584961914970464 0.0093051138487715082 -0.014558143523066515 0.052817882992243742 -0.008489616111640166 -0.022404950280896167 0.030376540997165587 0.027555660428988077 -0.025604041840413556 0.03724566363384748 0.017966375856947277 -0.0169266705829649 0.086086620552207435 0.0028970139522494229 -0.018388885424053498 0.0033181908078851879 -0.014462930691647538 0.030591327161317235 0.089956109433595027 -0.0030917354279389971 0.033729968427339718 0.014909670349321447 -0.011168519779970899 0.0041651348908039098 0.053802513462939419 0.062010218081598303 0.016548638313242391
leaf_weight=43.50552961230278 56.452073074877262 103.40806312114 68.608498267829418 359.60124140977859 506.37560530006886 44.889293774962425 28.11967209726572 1667.7368235811591 618.80361241102219 16.406363368034363 50.274171032011509 12.251838006079195 62.736176781356335 326.95311226695776 15.51756329834461 15.410177588462828 148.07021466642618 129.6946440115571 366.44168779999018 631.66400431841612 66.143971107900143 16.181104376912117 26.299075022339821 21.656104311347008 104.56984785944223 349.85966412723064 1517.7118360102177 128.02447864413261 16.043436475098133 21.650975108146667
leaf_count=409 422 928 472 3066 4143 378 215 14574 5654 138 424 101 511 2544 122 112 1259 1121 3099 5649 529 132 217 173 862 3010 12520 935 120 160
internal_value=0.000190958 -0.00352256 0.0278584 -0.00993406 0.00432424 0.0248034 0.028958 -0.0121746 -0.0167139 -0.00466134 0.00747526 0.0136942 0.0296691 0.0207264 0.0381134 0.0438025 0.00068787 -0.00704185 -0.00299318 -0.011923 0.0215618 0.0350067 0.0253309 0.0577751 0.00605916 -0.00930757 0.0049151 0.0408696 0.025294 0.0484136
internal_weight=7541.06 6648.68 892.383 3658.98 2989.7 823.775 674.315 3021.61 1353.88 776.213 2213.49 645.5 139.124 355.073 319.243 237.581 637.366 277.765 732.708 735.072 81.6615 126.872 89.0353 37.8372 149.459 366.266 1567.99 222.171 72.4955 149.675
internal_count=63999 57128 6871 32251 24877 6399 5159 26805 12231 6656 18221 5277 1134 2759 2400 1749 5446 2380 6247 6577 651 1033 728 305 1240 3148 12944 1637 542 1095
is_linear=0
shrinkage=0.05


Tree=6
num_leaves=31
num_cat=0
split_feature=11 11 8 8 11 2 2 14 8 4 12 4 11 8 4 8 2 8 8 2 11 9 9 7 15 9 15 3 8 10
split_gain=277.481 92.022 70.6097 31.8376 27.1413 23.1918 22.9561 18.1982 14.8164 19.5682 16.7148 12.8935 12.4439 10.8786 10.7621 10.2788 11.2758 10.2445 9.95745 9.89479 9.6947 12.5999 15.1275 10.4295 9.61374 16.3083 9.36543 9.26814 9.22728 13.3559
threshold=0.1942764796053815 0.35829839635578903 1.0000000180025095e-35 -0.66775830263955394 0.76597869605018354 6.0913922342015061 22.563267972278194 2.4074006017388982 -1.7875048916604273 -0.026073598893719897 -2.2115579525453994 1.7681111410882229 0.28517680560629238 -3.4117116443138307 0.11923006505077548 -1.554798538280004 0.71364921407441473 2.9469931985144675 -1.6321198104578374 -0.093786978986228842 0.17211057556878986 0.037428401901150661 -0.25762624782945642 0.00059693430063905014 2.8497587777965125 0.68376180663669539 3.2230864131963082 -0.3028272299131331 -1.6585376498366038 0.813202905806927
decision_type=10 10 10 10 10 10 10 10 8 10 8 10 10 10 8 10 8 10 10 10 10 10 10 8 8 10 10 8 10 8
left_child=2 3 6 7 8 20 11 13 9 10 -3 15 -9 -2 17 28 -17 -7 -10 -6 -4 22 -22 -24 -5 -26 -20 -11 -1 -30
right_child=1 4 5 24 19 14 -8 12 18 27 -12 -13 -14 -15 -16 16 -18 -19 26 -21 21 -23 23 -25 25 -27 -28 -29 29 -31
leaf_value=0.0056490319729272306 0.030791902720691901 0.0096977489493469803 -0.0094628973870718863 -0.00745953498261827 0.098211201366712395 0.0089692193988058656 -0.036844388357660594 0.027267526751563999 -0.01438217853938702 0.039184280063481333 0.053448467725077831 -0.011842000606628527 0.081981865139532081 0.011082578147084871 -0.020775052926532291 0.027731841820676912 -0.0010944163348377178 -0.018489012076015107 0.014944340413956612 0.046368667140750483 -0.0086454587916761413 -0.011487041049333464 0.048579644417973356 0.004427079798368201 0.0024181821200670171 0.045019769888214517 0.044102328912513415 0.017109460980419402 0.0032736401759102538 0.051851574664746783
leaf_weight=667.60873365402222 75.752932280302048 25.752829618752003 2046.3827616795897 256.42488171160221 18.714860215783119 64.882005654275417 39.925717934966087 34.826931767165661 22.420134589076042 69.785302847623825 143.35059755295515 168.272256039083 14.811415441334246 923.69594411551952 696.76152448356152 34.944372795522213 1162.1089254841208 71.297403372824192 129.69997289776802 18.11082512140274 39.768513083457947 84.359607346355915 34.789604105055332 21.728330038487911 409.50384251028299 23.768475763499737 34.963000290095806 149.22182081639767 29.387207619845867 27.287711761891842
leaf_count=5508 561 184 18242 2166 120 584 377 273 174 515 998 1430 109 7432 6320 291 9847 658 1031 121 345 729 299 188 3441 199 274 1107 248 228
internal_value=0.000176229 0.0144273 -0.00627938 0.00855823 0.0311016 -0.0111448 0.000711883 0.014044 0.0284374 0.0340089 0.0467857 0.00142946 0.0435935 0.0125764 -0.0182624 0.00259179 -0.00025292 -0.00540667 0.016879 0.0727151 -0.00848274 0.0026206 0.0149807 0.0316052 0.000213856 0.00475522 0.0211355 0.0241435 0.00729335 0.0266628
internal_weight=7540.31 2350.8 5189.5 1738.78 612.019 3059.97 2129.53 1049.09 575.194 388.111 169.103 2089.61 49.6383 999.449 832.941 1921.34 1197.05 136.179 187.083 36.8257 2227.03 180.646 96.2864 56.5179 689.697 433.272 164.663 219.007 724.284 56.6749
internal_count=63999 18705 45294 14181 4524 27365 17929 8375 4283 2804 1182 17552 382 7993 7562 16122 10138 1242 1479 241 19803 1561 832 487 5806 3640 1305 1622 5984 476
is_linear=0
shrinkage=0.05


Tree=7
num_leaves=31
num_cat=0
split_feature=11 11 8 8 4 2 2 14 11 1 8 1 14 4 1 10 4 1 15 4 1 7 15 5 9 3 4 0 4 8
split_gain=248.903 80.0366 64.5449 28.4473 22.6953 21.5573 21.3021 15.0186 14.4181 13.7986 12.7369 11.9378 11.0814 11.1592 12.2659 13.5175 11.1711 10.6789 10.1784 10.0464 10.2432 10.0448 9.85841 10.4359 9.761 27.5253 15.5466 9.73442 10.3992 13.8732
threshold=0.1942764796053815 0.37283668879512866 1.0000000180025095e-35 -0.66775830263955394 0.205819906050942 6.0913922342015061 22.563267972278194 2.4074006017388982 0.76597869605018354 -0.42102739679028484 -1.7875048916604273 -0.52271619793014612 1.9270209721148277 1.4319470784814821 -0.9350093087868685 0.78125657053018516 -0.42479779542267365 -0.26755114581972467 3.1076501020535043 0.11923006505077548 -0.31729197810577764 -0.034907475590356292 3.1633579363164732 -0.10395885639280408 -0.17022823317242494 0.23874000272817242 -0.011518049712524148 0.097935572100606216 0.68507578256949853 2.0763591601815299
decision_type=10 10 10 10 10 10 10 10 10 2 8 2 10 10 2 8 10 2 8 8 2 10 8 10 8 8 10 8 10 10
left_child=2 3 6 7 8 17 9 12 10 -1 11 -3 13 14 15 16 -2 -4 -15 -7 -21 -17 23 -6 25 -11 -27 -5 29 -29
right_child=1 4 5 27 22 19 -8 -9 -10 24 -12 -13 -14 18 -16 21 -18 -19 -20 20 -22 -23 -24 -25 -26 26 -28 28 -30 -31
leaf_value=-0.0035642837928049551 -0.020019160534704414 0.023687983739841947 -0.012180220133149747 -0.0055533329958640043 0.026439427103057262 -0.0051613830636923382 -0.036025176917020237 0.039404713330486035 0.072046955686112024 0.004386615352947979 0.016363175954146932 0.050663531417678709 -0.017184307283740152 -0.0094255306406822777 0.019318365307979642 0.033368584927331434 0.031492570995551916 -0.0051466545107523853 0.011799430522552952 -0.026256311091814578 -0.014035345252932686 -0.011734466294306157 0.032131898565118895 0.0017343328652894481 0.0027580267617960692 0.078937829962892017 0.022038640403799041 0.011479175586510246 -0.0011050759791444804 0.065466716601801575
leaf_weight=847.69902274757624 12.933318130671976 59.252251125872135 932.97450719028711 336.94138604402542 76.114283874630928 135.62610582262278 38.82029490172863 53.014055073261261 31.122155889868736 153.400424875319 62.385483756661415 133.23902989923954 31.278938867151737 92.56754606962204 605.16437584161758 14.100447468459604 56.523501001298428 1280.0703721791506 144.90062379091978 337.85672008991241 348.13717583566904 99.12098291516304 102.30171094834805 97.50663448870182 1042.1286700293422 21.791930243372917 26.730857416987419 144.37308762967587 208.10749042779207 12.96839666366577
leaf_count=7215 103 411 8538 2853 566 1242 377 395 192 1270 485 897 248 742 4754 111 448 11265 1160 3175 3145 791 752 741 8676 173 218 1201 1745 110
internal_value=0.000162668 0.0135636 -0.00599634 0.00845104 0.0300499 -0.0106796 0.000674232 0.0134355 0.0399198 0.00135533 0.0359968 0.04236 0.0121325 0.0130268 0.0158906 0.0045355 0.0219007 -0.00811186 0.00352572 -0.0175959 -0.0200543 -0.00611739 0.0198196 0.0125649 0.00470756 0.0147691 0.0475925 0.00057683 0.0062288 0.0159289
internal_weight=7539.15 2373.92 5165.24 1811.99 561.922 3034.66 2130.57 1109.6 285.999 2091.75 254.877 192.491 1056.59 1025.31 787.843 182.678 69.4568 2213.04 237.468 821.62 685.994 113.221 275.923 173.621 1244.05 201.923 48.5228 702.39 365.449 157.341
internal_count=63999 18705 45294 14661 4044 27365 17929 8752 1985 17552 1793 1308 8357 8109 6207 1453 551 19803 1902 7562 6320 902 2059 1307 10337 1661 391 5909 3056 1311
is_linear=0
shrinkage=0.05


Tree=8
num_leaves=31
num_cat=0
split_feature=11 11 8 8 1 2 2 0 2 9 15 11 11 12 8 9 6 9 11 3 3 8 8 3 6 1 4 14 13 8
split_gain=224.589 89.4076 40.1106 27.8081 22.2354 19.9705 19.4341 15.1657 12.9715 15.5402 12.0103 11.103 10.0521 13.1048 9.97357 9.90729 15.8488 9.89074 9.46209 9.39258 9.16677 8.74234 11.1397 10.6119 8.00427 7.97025 8.62336 7.94263 13.9932 7.67066
threshold=0.17945678448190563 0.35829839635578903 1.0000000180025095e-35 -0.6259521728212466 -0.29620379144476844 22.563267972278194 0.15298682553719864 0.19591648016611338 2.9792975199078211 0.17629299455962241 3.1076501020535043 0.76597869605018354 0.31041754465056715 -4.6217527274690893 2.6850128184671616 -0.21537147294717143 0.0029030479212679506 -0.090517908754116638 0.47800066426280646 -0.049475002434456648 -0.72290325359869578 -3.4117116443138307 -2.4386801902860733 -0.021376847351654498 -0.025517101645590599 -0.82473273991064977 0.076845676535719012 3.3115347819124805 -0.095982973903659632 -3.2277699262511024
decision_type=8 10 10 10 2 10 10 10 10 8 10 10 10 10 10 8 8 10 10 8 10 10 10 10 10 2 8 10 10 8
left_child=2 3 5 12 14 7 11 8 15 -10 18 -3 29 -14 -4 16 19 -6 -8 -1 -12 -22 23 -23 -24 -9 -27 -17 -29 -2
right_child=1 6 4 -5 17 -7 10 25 9 -11 20 -13 13 -15 -16 27 -18 -19 -20 -21 21 22 24 -25 -26 26 -28 28 -30 -31
leaf_value=0.0027286735627292278 0.020180685336799543 0.035790968890321066 -0.013221362563989276 -0.00078748215332776969 -0.01378405829774545 -0.038627068827647666 0.0083422433411879608 -0.018810595908706748 -0.0051520544671852112 0.015867012197257974 0.062033430008819647 0.071148036731921591 0.015898699844487059 0.057076634290453433 -0.023645117881651911 0.0028037417450268057 0.06842764020659213 -0.0045798342903094948 0.028842496562995923 0.043433592710111601 0.0071203515507362539 0.02713401918928017 0.0026540140645066423 0.075321410036039427 0.034904225384715042 0.035843193699706545 -0.0056541050386113567 0.047759283273409864 0.00048297735960692567 0.007243164115752228
leaf_weight=50.922153912484646 126.06176282465458 155.36799903959036 942.38715255260468 939.72538398951292 386.19432076066732 33.926322489976883 184.07316979020834 128.43885657191277 535.78629867732525 105.20320250838995 21.251171097159386 25.906089946627617 208.86302674561739 21.291118867695332 303.34581667929888 343.03203156590462 16.546359799802303 1195.0656516551971 81.080364853143692 19.637174293398857 41.057376980781555 21.037276312708855 31.220167778432369 25.005850404500961 50.136649511754513 13.305392459034918 211.87498883157969 28.850028596818447 34.21448478102684 1256.7877298146486
leaf_count=423 940 1080 8764 7965 3437 342 1377 1108 4601 902 151 153 1590 152 2887 2857 134 10673 569 160 279 145 229 174 367 111 1777 244 289 10119
internal_value=0.000150126 0.010229 -0.00724056 0.0060496 -0.0107637 -0.000695544 0.0270003 0.000169403 0.00298812 -0.00170227 0.0214832 0.0408439 0.0100328 0.019708 -0.0157596 0.00908399 0.0243852 -0.0068278 0.0146109 0.0140571 0.0310886 0.0271848 0.033651 0.0533044 0.0225284 -0.00887131 -0.00320212 0.00580196 0.0221104 0.00842256
internal_weight=7537.6 3188.87 4348.73 2552.73 2826.99 1521.74 636.136 1487.81 1134.19 640.99 454.862 181.274 1613 230.154 1245.73 493.202 87.1057 1581.26 265.154 70.5593 189.708 168.457 127.4 46.0431 81.3568 353.619 225.18 406.097 63.0645 1382.85
internal_count=63999 25290 38709 20766 25761 12948 4524 12606 9610 5503 3291 1233 12801 1742 11651 4107 717 14110 1946 583 1345 1194 915 319 596 2996 1888 3390 533 11059
is_linear=0
shrinkage=0.05


Tree=9
num_leaves=31
num_cat=0
split_feature=11 11 8 8 11 8 11 5 0 15 13 14 11 5 4 8 14 4 3 3 7 10 6 0 12 14 0 6 15 3
split_gain=203.119 68.0785 53.4975 22.3175 16.6143 15.1979 15.148 13.425 12.7647 12.7615 10.9383 10.8717 11.6161 10.6592 9.82142 11.6434 8.67387 9.66877 8.48569 12.8508 11.6063 8.43836 8.43342 7.9451 7.88595 8.00746 7.85283 9.00845 9.04986 7.71742
threshold=0.17945678448190563 0.35829839635578903 1.0000000180025095e-35 -0.6259521728212466 0.76597869605018354 2.7354871203696551 0.043810225636960902 -0.078156183650388636 0.19591648016611338 3.6222665916010164 -0.016371733197566195 2.4074006017388982 0.26730504946654793 -0.13101600372901448 0.9559833273327133 1.7597169822939198 1.9499401650619979 1.4319470784814821 -0.51505264055132838 -1.0928856964356954 -0.0023695665374906996 0.88231062719210795 0.0013068453008230503 0.16125461658921567 -3.8662263018168681 4.4059016449358293 -0.23704715216495986 -0.10048907657097485 4.6786917004670023 0.22385021287835308
decision_type=10 10 10 10 10 10 8 10 10 10 10 10 10 8 10 10 10 10 10 8 10 10 10 10 8 8 8 8 8 8
left_child=2 3 6 11 7 -4 -1 10 13 -9 22 16 29 21 -5 -16 17 -2 19 -19 -21 -8 26 -18 25 -15 -3 -28 -29 -13
right_child=1 4 5 14 -6 -7 8 9 -10 -11 -12 12 -14 24 15 -17 23 18 -20 20 -22 -23 -24 -25 -26 -27 27 28 -30 -31
leaf_value=-0.029173826477185978 0.013084751121096208 -0.0019272297706606299 -0.0083520069545601882 0.0051214954434055807 0.055918861596079741 -0.016899213434427591 0.0054348354353993128 0.010365563895068618 -0.0063441512906807209 0.041563007860965964 0.0019951086483890358 0.0019993554172989063 0.062342805632786415 -0.017313673236132674 -0.0023002524668314286 -0.028607578714452922 -0.037044121223266009 -0.0095141067283093256 -0.0038612706379633414 0.0018770958954918062 0.049418214754763524 -0.018495647924495474 0.05808631182860418 0.013822677847678603 0.0057866469119503463 0.027530259672100755 0.058314827506969369 0.024683404066424868 0.052726737474183105 0.047616130302108151
leaf_weight=42.443331301212311 873.9537044018507 18.038853138685226 2184.6682134568691 475.74187055975199 41.193567454814911 682.58019655942917 60.648244470357895 231.29166858643293 448.17392339557409 38.192253805696964 32.086078099906445 29.38619751483202 20.236589699983597 66.464067243039608 321.86618202924728 48.38198284059763 18.556314602494243 32.677226960659027 182.60648435354233 21.475885301828384 31.917689338326454 93.831438653171062 29.516387194395065 13.093198299407957 1214.6149048507214 11.708300016820429 29.263822875916958 193.89125075936317 33.781169578433037 13.545626647770403
leaf_count=431 6813 130 19906 3990 241 6420 509 1671 3779 268 228 224 137 564 2732 425 149 264 1459 171 254 796 208 104 10146 100 197 1353 228 102
internal_value=0.000138684 0.0110279 -0.0060495 0.00662754 0.025192 -0.0103868 0.000367806 0.0231036 0.00102931 0.014787 0.0297623 0.0109063 0.0311129 0.00331265 0.000368852 -0.00573795 0.00981936 0.0105346 0.00223927 0.0151821 0.0302963 -0.00910061 0.0326883 -0.0160009 0.00479595 -0.0105972 0.029962 0.0322009 0.0288444 0.0163921
internal_weight=7535.83 2730.69 4805.13 2083.44 647.255 2867.25 1937.88 606.061 1895.44 269.484 336.578 1237.45 63.1684 1447.27 845.99 370.248 1174.28 1142.63 268.677 86.0708 53.3936 154.48 304.491 31.6495 1292.79 78.1724 274.975 256.936 227.672 42.9318
internal_count=63999 21348 42651 16824 4524 26326 16325 4283 15894 1939 2344 9677 463 12115 7147 3157 9214 8961 2148 689 425 1305 2116 253 10810 664 1908 1778 1581 326
is_linear=0
shrinkage=0.05


Tree=10
num_leaves=31
num_cat=0
split_feature=11 11 8 11 8 1 4 3 8 4 8 9 4 9 10 4 3 4 10 3 12 1 14 9 7 4 10 9 12 10
split_gain=196.658 72.0276 36.5272 21.9486 19.1937 16.8471 16.6797 13.0732 12.0821 11.9257 11.8022 10.0245 10.5684 11.1536 11.5273 12.0834 10.4359 10.2936 10.1316 10.0864 9.81319 9.5771 9.49298 9.37342 10.1732 12.0551 9.3565 9.13551 10.9021 9.70469
threshold=0.17945678448190563 0.31041754465056715 0.86107856266534555 0.042451072441990506 -1.377174791016633 0.03296053031912731 0.22355732076824517 inf 4.8291955639642801 0.076845676535719012 -1.4037361109829283 0.60898335720978947 1.4319470784814821 0.40207968831549462 3.8946154939444968 -0.3081808710642559 -0.41132536400350234 1.6752893133777265 1.4909546593229994 -0.15938015237337871 -1.6027633816345761 -1.1461921485652899 1.8789463611761754 0.19833332905585752 1.9842511720600634e-05 1.7681111410882229 1.3879825160609951 -0.17400241986768181 -3.5304180296439291 0.59563549864368603
decision_type=8 10 8 10 8 2 10 8 8 8 8 10 8 10 8 10 10 8 10 10 10 2 10 10 8 10 10 10 10 10
left_child=2 4 3 -1 -2 9 10 23 20 -4 21 12 13 14 15 19 -13 -14 26 -6 -7 -3 -12 24 25 -5 -17 28 -26 -29
right_child=1 6 5 7 11 8 -8 -9 -10 -11 22 16 17 -15 -16 18 -18 -19 -20 -21 -22 -23 -24 -25 27 -27 -28 29 -30 -31
leaf_value=-0.036880122468834035 0.010336841244254682 0.012326956796379383 -0.0043229157418885212 -0.0065457253571058888 0.010176096040081045 -0.0070031146827106887 0.014229359296237443 0.011061102649976827 -0.031352582959867613 -0.019169039283660105 0.018250668590900878 -0.018903082177985444 -0.02246239589243812 -0.016030474579916434 0.030309186338170244 0.0050741880225013873 0.029587337297129437 -0.0023774871581411301 -0.0088790296966345574 0.064540268594556 0.037235090331400572 0.034993013014897455 -0.026546856484932088 0.0046582066127068902 0.0054253490438609039 -0.026570636428714035 0.042087366742030008 -0.029479950079726643 0.046650365285360637 -0.0018292551006674391
leaf_weight=46.663021102547646 804.9717666208744 54.999631978571415 161.17676006257534 854.11946099996567 20.449368193745613 962.34358289837837 512.59338222444057 170.78819330781698 51.168202131986618 841.52656263113022 83.277997702360153 13.997822798788546 70.544600412249565 60.461175002157688 46.869935154914856 353.36868831515312 53.521035268902779 666.45164030790329 141.04205299168825 14.640363618731497 12.70134014636278 305.29778804630041 13.783202879130839 311.14313201606274 137.65604341775179 82.408364772796631 17.941090792417526 33.452553555369377 18.152000971138477 617.2961296364665
leaf_count=480 6256 373 1539 7400 168 8712 3800 1401 488 8117 640 116 600 500 387 2896 442 5596 1172 119 115 1990 106 2699 1186 727 148 285 153 5383
internal_value=-0.000292426 0.0090223 -0.00729746 -0.00294262 0.00413862 -0.0121734 0.0204228 -0.00223088 -0.00766968 -0.0167826 0.0273642 0.000719566 -0.0001932 0.00442931 0.00651075 0.00447321 0.0195344 -0.0043 0.00252919 0.0328583 -0.00642685 0.031533 0.0118892 -0.00333597 -0.00476295 -0.00830779 0.00686261 -0.000646876 0.0102282 -0.00325067
internal_weight=7534.81 3234.21 4300.6 2271.68 2264.26 2028.92 969.952 2225.02 1026.21 1002.7 457.359 1459.29 1391.77 654.773 594.311 547.442 67.5189 736.996 512.352 35.0897 975.045 360.297 97.0612 2054.23 1743.08 936.528 371.31 806.557 155.808 650.749
internal_count=63994 25309 38685 19714 18400 18971 6909 19234 9315 9656 3109 12144 11586 5390 4890 4503 558 6196 4216 287 8827 2363 746 17833 15134 8127 3044 7007 1339 5668
is_linear=0
shrinkage=0.05


Tree=11
num_leaves=31
num_cat=0
split_feature=11 11 2 8 8 1 2 11 2 4 8 2 9 10 0 6 15 8 4 15 1 5 9 9 0 12 12 4 1 10
split_gain=177.345 63.5858 33.5842 19.633 17.1459 16.9094 15.2595 14.8714 14.1139 11.3492 10.4673 10.379 10.12 10.0318 10.7595 10.422 12.9531 9.78652 11.1481 9.91365 12.4276 9.62463 9.13937 8.89637 8.77518 10.1163 10.1016 8.55061 10.4853 9.2465
threshold=0.17945678448190563 0.31041754465056715 3.3702931010308177 2.8967366916502599 -1.377174791016633 -0.1011932432446281 0.78221846716942345 0.76597869605018354 0.44120699191288398 0.22355732076824517 1.8197796508180331 22.563267972278194 0.20691187665594107 8.038851197187844 0.23727202892823962 -0.013319973204538449 3.3421492688958687 -1.9939682535096206 0.10948052370719251 2.5570120027850787 -0.77918546710333214 -0.062045162530746843 -0.50111535039918798 0.60898335720978947 0.17917334170119897 -2.9317199874137305 -2.1009057327823109 1.4319470784814821 -1.1498640212189195 0.61008289219737077
decision_type=8 10 10 8 8 2 10 10 8 10 10 10 10 10 8 8 8 8 10 10 2 10 10 10 10 10 10 8 2 10
left_child=2 4 3 6 -2 10 -1 9 -6 13 -4 12 -7 14 17 -16 -17 18 19 20 -3 -14 -19 27 25 -8 -27 28 -10 -30
right_child=1 7 5 -5 8 11 24 -9 23 -11 -12 -13 21 -15 15 16 -18 22 -20 -21 -22 -23 -24 -25 -26 26 -28 -29 29 -31
leaf_value=0.0095696362203468791 0.0097479298475667154 0.0037775877512654962 -0.011199312714880359 -0.020873047902538081 0.030416504470272006 -0.0076875773711714531 -0.0019490454478409303 0.048530142060931682 -0.013505721089732636 0.012801074488119769 -0.020386084413222188 -0.04446880891015341 0.017907176546039513 0.063777087140963973 0.01828514509842254 0.079935793750744943 0.02790057747559975 -0.018624037195829734 0.065326390345617949 0.011901139170456179 0.04713859539498394 -0.0043070691085465521 0.014329582386213045 0.017959714202649954 -0.0088448506835386263 0.021952800602267376 -0.010689963961589938 -0.0047443120773746584 0.029683090071108371 0.0039359526039728426
leaf_weight=336.62496607005596 810.7695630043745 23.049559772014618 944.88122990727425 119.48631168156862 38.841435916721821 1008.9949356913567 687.60645195096731 41.239519700407982 81.813880905508995 509.65957687795162 461.50605414062738 17.454549767076969 81.002974763512611 15.155744910240172 36.844313904643059 23.689082771539688 24.154145009815693 26.893483720719814 15.775758281350134 111.19902423024178 58.37206169962883 122.49611478298903 96.671251028776169 64.84501463919878 372.75888542085886 92.19664491713047 31.901254236698151 717.39588867127895 37.378291822969913 519.76436047255993
leaf_count=2846 6256 155 8688 1128 316 9104 6001 231 682 3752 4555 186 723 101 242 158 165 202 105 709 368 1097 721 529 3285 795 277 6053 299 4265
internal_value=-0.000281618 0.00851587 -0.006974 -0.00135738 0.0039176 -0.0104692 0.000175635 0.0191415 0.000679971 0.0178541 -0.014214 -0.00618723 -0.00563614 0.0238182 0.0223647 0.0382727 0.0536653 0.0183064 0.024917 0.0216075 0.0348636 0.00453533 0.00715733 -0.000132731 -0.00249414 0.000422291 0.0135615 -0.000997701 0.00320885 0.00566331
internal_weight=7530.42 3253.51 4276.91 1640.57 2270.81 2636.34 1521.09 982.704 1460.04 941.464 1406.39 1229.95 1212.49 431.804 416.649 84.6875 47.8432 331.961 208.396 192.621 81.4216 203.499 123.565 1421.2 1184.46 811.704 124.098 1356.35 638.957 557.143
internal_count=63994 25309 38685 14332 18400 24353 13204 6909 12144 6678 13243 11110 10924 2926 2825 565 323 2260 1337 1232 523 1820 923 11828 10358 7073 1072 11299 5246 4564
is_linear=0
shrinkage=0.05


Tree=12
num_leaves=31
num_cat=0
split_feature=11 11 8 11 2 1 8 11 2 8 5 4 0 4 8 6 9 11 13 11 1 10 6 15 15 6 11 9 13 11
split_gain=159.947 56.2016 32.0594 23.5056 19.8221 17.7726 15.321 12.8482 12.4481 12.0176 9.98752 9.95622 12.3764 9.89213 9.84744 9.75273 11.2003 9.62764 11.4868 9.12812 8.93653 9.5911 8.53201 8.49862 10.8073 9.50825 8.46219 7.92932 9.05782 9.13147
threshold=0.17945678448190563 0.31041754465056715 0.58246500618322783 0.043810225636960902 0.44120699191288398 0.022727442595897304 -1.377174791016633 0.76597869605018354 0.44120699191288398 4.8291955639642801 -0.43255923061373286 0.62984670079145866 0.17515690795120553 0.22355732076824517 4.1929546902442345 -0.0019665556925099995 0.0021752687421238504 0.31819658341080903 -0.010728827117982148 0.13396314421777367 -1.124903313125394 5.109321765791015 0.00023556642537865002 3.0964329666214927 2.4687399706092115 0.0032398351579894505 0.077961498914557115 0.60898335720978947 -0.17481584367712538 0.21792016242235504
decision_type=8 10 8 10 10 2 8 10 8 8 8 8 10 10 10 8 10 10 10 10 2 8 10 10 10 8 10 10 8 8
left_child=2 6 3 -1 15 11 -2 13 -8 -7 -6 12 -4 17 -14 -5 19 -3 20 -17 21 -19 -21 24 -12 -26 -18 28 29 -10
right_child=1 7 5 4 10 9 8 -9 27 -11 23 -13 14 -15 -16 16 26 18 -20 22 -22 -23 -24 -25 25 -27 -28 -29 -30 -31
leaf_value=-0.037411056729903261 0.0091966679312120905 0.051875705692322464 -0.014080215573105693 0.051420323849035832 -0.02538531371407406 -0.0053333210829302402 0.028263455311523102 0.044922662780536325 0.00031334470327307244 -0.030427530271760685 -0.0015064658728003734 -0.019345742126070702 0.011708164381612422 0.012054253006579661 -0.035988963537379147 0.044264969648859058 -0.032786265200473112 -0.007448084824448243 -0.0029557872065554451 -0.023820474231747067 0.026747532186251949 0.038757167652129464 0.032412375239120939 -0.0055779618833185296 0.0015635416673500124 0.025501740713972959 0.0066900058711776332 0.016839575183405835 -0.00033381423712946855 -0.054822377544353984
leaf_weight=46.037715218961239 816.25457956641912 25.855733305215836 350.85002920776606 15.886264279484747 48.168931484222412 1093.5316507816315 39.687554948031902 42.295117065310478 14.578725084662439 49.886695474386215 639.29945608973503 641.85868033766747 87.933795370161533 514.05708187073469 12.339850470423697 35.516516618430614 15.694161981344221 41.208290725946426 46.602530963718891 12.842948138713838 309.11277097463608 15.4390502423048 14.207708001136778 923.19095042347908 88.428640469908714 78.134825386106968 100.55290461331606 65.678278788924217 1325.2812666594982 15.48695672303438
leaf_count=493 6256 186 3431 126 423 9965 316 231 123 491 5522 6309 862 3752 125 287 129 286 323 101 2029 102 110 8060 759 678 814 529 11046 130
internal_value=-0.000271039 0.00804125 -0.00666306 -0.00209376 -0.00126922 -0.010786 0.00371005 0.0179571 0.000644097 -0.00642817 -0.00292848 -0.015345 -0.00965278 0.0167594 0.00583847 0.0138764 0.0105409 0.0222788 0.0204231 0.0275978 0.0234018 0.00514501 0.00571448 -0.00230286 0.00144907 0.0127929 0.00136043 -0.000127279 -0.00094947 -0.0280873
internal_weight=7525.9 3271.54 4254.36 2017.96 1971.92 2236.4 2276.97 994.571 1460.71 1143.42 1777.22 1092.98 451.124 952.275 100.274 194.701 178.814 438.218 412.363 62.5672 365.76 56.6473 27.0507 1729.05 805.863 166.563 116.247 1421.03 1355.35 30.0657
internal_count=63994 25309 38685 17502 17009 21183 18400 6909 12144 10456 15442 10727 4418 6678 987 1567 1441 2926 2740 498 2417 388 211 15019 6959 1437 943 11828 11299 253
is_linear=0
shrinkage=0.05


Tree=13
num_leaves=31
num_cat=0
split_feature=8 2 2 2 8 14 2 1 8 1 8 1 1 5 15 8 15 7 4 3 0 7 0 3 2 3 5 4 3 6
split_gain=135.586 45.1309 29.1103 22.8411 19.8445 17.2086 14.7413 11.9209 12.3585 10.5702 10.2332 13.0105 10.2249 9.80336 9.41916 8.6844 8.60187 8.56241 10.0629 19.1475 8.68347 16.1401 9.55729 11.2993 8.21351 9.42901 10.6389 7.97886 7.71328 12.232
threshold=-0.14367338535744886 0.38989744828008321 3.3489727849931539 6.0402276457006243 -1.4284443509934281 3.0622717434141453 22.563267972278194 0.56126876512823298 -3.2277699262511024 0.049213081408963057 0.56096119553965007 -0.020612693643664647 -0.70197581698766798 -0.28502237031094685 3.2308807127299803 -0.12438080300775003 2.0381076603693074 -5.4903549450359577e-06 0.22355732076824517 0.71965691948811927 0.057872918552871001 0.0028968959736657006 0.28113201921346492 0.26270557885954032 2.5511037725405745 0.067440300002440265 0.0057019327759781505 0.87909989020808277 0.0067624943141588005 -0.014712213449973298
decision_type=10 8 10 10 8 8 10 2 10 2 10 2 2 8 10 10 8 10 10 10 10 10 10 10 10 10 10 10 10 10
left_child=1 13 4 10 7 -6 9 8 -3 -4 15 -12 -5 14 -1 -2 27 28 19 20 21 -19 23 -22 -20 -26 -27 -13 -7 -30
right_child=3 2 6 12 5 17 -8 -9 -10 -11 11 16 -14 -15 -16 -17 -18 18 24 -21 22 -23 -24 -25 25 26 -28 -29 29 -31
leaf_value=0.070794053213798794 -0.028857678063351624 0.018903398742789457 -0.0064117207661358953 -0.02183290375301869 -0.010126597108522312 0.0045331587705170172 -0.035450637655527903 0.016634975139690051 0.0041127150860680159 0.0049814199684640693 -0.011780882270083632 -0.0014125393949001349 -0.010350398227416669 0.020971947998339013 0.019552389267729748 0.00059423277837173836 -0.0042861141596417431 0.075104598837825817 -0.00021834236719239263 -0.021505257140060244 0.0046389433688419366 0.0095236024333251335 0.060442789492789167 0.049549575144155922 0.002019233150965982 0.061758288062268678 0.012175589541324444 0.047566478038174341 0.019196360382900828 -0.015901490796425593
leaf_weight=20.611171215772629 25.860521264374256 180.61482936143875 526.35396041721106 304.53883342444897 218.84004399180412 468.3040829077363 34.260837689042091 590.66690310835838 647.67900791764259 331.98385035991669 832.6448545306921 17.791133694350719 533.53653571754694 285.00725703686476 15.876138761639593 778.93567375093699 1074.7561308965087 22.452930241823196 217.33844870328903 23.225622318685055 68.700742691755295 16.115826711058617 12.580809146165846 17.591596826910973 46.335185579955578 19.596578098833561 24.152829118072987 15.611032471060751 31.441278658807278 117.95389164984226
leaf_count=132 221 1239 4529 3068 1828 3768 373 4286 4972 2775 8026 156 5060 1934 103 6768 9632 182 1736 195 548 128 100 143 377 163 200 131 250 971
internal_value=-0.000260868 0.00614346 0.0045474 -0.00729784 0.00711558 0.00266454 -0.00328888 0.011208 0.00733792 -0.00200514 -0.00509244 -0.0070581 -0.0145229 0.024096 0.0484981 -0.000352146 -0.00350951 0.00524259 0.0103432 0.0204839 0.0275795 0.0477018 0.0197301 0.0137944 0.00504332 0.0177376 0.0343851 0.0214786 0.00137739 -0.0085149
internal_weight=7521.36 3937.68 3616.19 3583.67 2723.59 1304.63 892.599 1418.96 828.294 858.338 2745.6 1940.8 838.075 321.495 36.4873 804.796 1108.16 1085.79 468.091 160.668 137.442 38.5688 98.8731 86.2923 307.423 90.0846 43.7494 33.4022 617.699 149.395
internal_count=63994 30932 28763 33062 21086 10589 7677 10497 6211 7304 24934 17945 8128 2169 235 6989 9919 8761 3772 1296 1101 310 791 691 2476 740 363 287 4989 1221
is_linear=0
shrinkage=0.05


Tree=14
num_leaves=31
num_cat=0
split_feature=11 2 8 8 1 2 1 14 6 2 1 4 2 8 7 1 8 5 4 2 11 11 7 13 8 6 4 8 2 11
split_gain=132.848 39.2344 32.9955 17.5248 14.5127 13.7727 13.4019 12.7783 12.1321 16.3338 10.7196 10.5414 13.3733 13.8894 11.9205 12.8005 10.3686 10.0776 13.2638 10.0302 9.93428 9.18541 8.96074 8.93248 8.45894 8.41404 12.1852 8.32502 10.9378 8.26522
threshold=0.1942764796053815 3.3702931010308177 -1.9640455860150858 2.8967366916502599 -0.1011932432446281 0.15298682553719864 0.52908470099478067 2.6651991654426221 -0.00073939220828619988 0.63315641481261509 1.6800863562013717 0.9486835163902535 3.2553988464430588 -0.39756162391712774 0.0013322695424708502 0.56126876512823298 1.8197796508180331 -0.13981542198434097 -0.35898875598128882 6.6012197685623368 0.23964185929685089 0.76597869605018354 0.005362659716415751 -0.86691727498132776 -2.2265227705130157 0.0070220122273061507 0.56228889807393501 -3.2277699262511024 1.1349071534747808 0.042451072441990506
decision_type=10 10 10 10 2 8 2 8 10 10 2 10 10 10 8 2 10 8 8 10 10 10 8 8 8 10 8 10 10 8
left_child=1 3 6 5 16 -1 8 -8 9 -2 23 12 13 17 25 -16 29 -4 -19 -6 22 -9 -20 -7 -12 26 -14 28 -11 -3
right_child=2 4 11 -5 19 10 7 21 -10 27 24 -13 14 -15 15 -17 -18 18 20 -21 -22 -23 -24 -25 -26 -27 -28 -29 -30 -31
leaf_value=0.029952142558886171 0.027965463967655969 -0.036254811436176634 0.02544590577811294 -0.018273437012130796 -0.0023740736727923201 -0.035756844044645082 0.060941564459758457 0.019810385855940756 -0.0014726173788667223 -0.002125405500639584 0.048479989519355587 -0.00040464740565358055 0.016549158249343856 -0.0024258129666005629 -0.029416445495044647 0.036076433056532561 -0.018824685179484466 -0.025672635856158529 0.0054680492554680269 -0.01211430811885018 0.015644317614455675 0.059203897079088907 -0.026293805214533367 -0.00063414334463357883 0.0077469685471584131 0.00994881657362723 0.075117684680661267 0.0024059394468098818 0.034162003406832717 -0.0088192139119888224
leaf_weight=39.986050732433796 168.56122269481421 28.277351178228855 98.177379280328751 126.35892464965582 913.88873947411776 18.279199317097664 21.856913097202778 336.61937173455954 134.18659532815218 32.761993184685707 13.43990722298622 619.70208597928286 13.988433144986631 303.07538491487503 15.651895843446257 14.255937173962591 447.35614348202944 27.845830120146275 113.43649805337191 371.85473941266537 267.97300201654434 15.477930769324301 27.611196644604206 1871.6395805478096 246.74968253821135 15.377954386174677 24.321146883070465 191.77315557003021 56.716140687465668 939.91552787274122
leaf_count=316 1066 310 731 1222 8196 160 140 2259 961 216 101 5028 113 2483 130 114 4588 205 888 3514 1984 83 216 16066 2031 126 197 1406 386 8758
internal_value=-0.00025106 -0.00494225 0.00916699 -0.000167804 -0.00903651 0.000876813 0.0164543 0.0238449 0.0117219 0.0156581 0.000336092 0.00463808 0.00802849 0.00612641 0.0270986 0.00180154 -0.0125293 0.0109708 0.00771781 -0.00519108 0.009991 0.0215421 -0.000749584 -0.000973848 0.009851 0.0411909 0.0537319 0.00828191 0.0208755 -0.00962051
internal_weight=7517.12 5017.75 2499.37 2316.45 2701.29 2190.09 957.953 373.954 583.999 449.813 2150.11 1541.42 921.715 838.119 83.5954 29.9078 1415.55 535.044 436.867 1285.74 409.021 352.097 141.048 1889.92 260.19 53.6875 38.3096 281.251 89.4781 968.193
internal_count=63994 45262 18732 19896 25366 18674 6517 2482 4035 3074 18358 12215 7187 6507 680 244 13656 4024 3293 11710 3088 2342 1104 16226 2132 436 310 2008 602 9068
is_linear=0
shrinkage=0.05


Tree=15
num_leaves=31
num_cat=0
split_feature=11 2 11 4 2 7 9 3 2 1 5 5 11 5 5 1 11 1 7 7 10 13 1 14 14 7 7 15 7 4
split_gain=115.665 26.2908 25.3307 18.1455 11.9789 10.9232 9.52263 12.065 11.1929 9.29361 9.30083 11.022 14.5067 10.399 9.89125 9.41155 16.8693 9.56136 10.52 16.0614 9.18927 8.98709 10.8006 8.67861 10.9135 9.72639 14.4811 8.33092 8.2321 7.73962
threshold=0.1942764796053815 5.2433217111561268 0.46200630578098117 1.4319470784814821 0.78221846716942345 -0.082210166706558938 0.20691187665594107 -1.87462729410464 22.563267972278194 -1.1122022454218559 -0.10629444385210389 0.063848588872319215 0.15237892924795793 0.17770375122237878 -0.087871259964654086 -0.8052898732365128 0.11917198598708316 -0.26755114581972467 0.00014795471467115003 0.00066245531500975011 3.37945228306228 0.52529868782001288 0.51393571818882255 2.3956404210080069 3.83001801706 -0.00016403931973384998 0.00083834064764760007 3.8624637044314443 0.014506875453316902 1.8080707360711272
decision_type=10 10 10 10 10 8 8 10 10 2 10 10 8 10 10 2 10 2 10 10 10 10 2 10 10 8 10 10 8 10
left_child=1 4 3 5 -1 -2 8 -8 -3 28 21 12 15 -13 -14 16 -12 18 -17 -20 -15 -11 -23 -7 25 -25 -27 -4 -6 -5
right_child=2 6 27 29 9 23 7 -9 -10 10 11 13 14 20 -16 17 -18 -19 19 -21 -22 22 -24 24 -26 26 -28 -29 -30 -31
leaf_value=0.0027515962535962207 0.036631201420093878 -0.011415132342759121 0.019272335050186058 -0.010069802683968768 -0.010329751251718302 0.0075236279163456632 0.040514468129209599 -0.0039869733939175761 -0.041433554956646766 -0.0069608984044272314 -0.0019863500229367593 -0.0132196471989941 0.050207494618552839 0.0067130265099613028 0.011648720951417106 -0.032790651929511465 0.056564434099685618 0.0010889184280253028 0.05338773598217364 -0.015207508034100684 -0.039944811173730332 0.037770393406676379 -0.0092175107320041846 0.059251594815730418 -0.0068977116253287722 -0.011673430411946999 0.048377145864947187 0.048106162971064848 0.018558938266243497 0.0028856874986847784
leaf_weight=823.8936148583889 34.876065701246262 1178.9839435145259 277.49068856984377 184.03096699714661 647.22101341933012 1591.1637044101954 16.949510343372822 150.19239243119955 31.893211178481579 977.23351231962442 33.809804700314999 220.62559232860804 18.036251589655876 151.01133044064045 213.62327481806278 49.88560439646244 19.33815848082304 334.46441280096769 10.881495542824267 39.55069675296545 11.345765106379984 25.225780822336674 23.738049402832985 24.138998329639435 21.618635766208172 19.593176275491714 20.588974975049496 27.537169799208641 25.63692282140255 308.57514139264822
leaf_count=6809 244 11429 1718 1475 5967 12033 162 1419 361 8661 326 1975 154 1338 1830 474 177 2999 103 373 100 227 207 170 158 143 145 162 228 2471
internal_value=-0.000389092 -0.00478272 0.00837071 0.00650219 -0.00254825 0.00893547 -0.0106616 0.000525825 -0.0122058 -0.00410681 -0.00248778 0.000700659 0.00434773 -0.00615185 0.0146508 -0.000543955 0.0193177 -0.00297185 -0.0165106 -0.000407064 0.0034525 -0.00591352 0.0149903 0.00835953 0.0238361 0.0341659 0.0190959 0.0218754 -0.00922905 -0.00195431
internal_weight=7513.15 5003.54 2509.61 2204.59 3625.52 1711.98 1378.02 167.142 1210.88 2801.63 2128.77 1102.57 719.59 382.983 231.66 487.93 53.148 434.782 100.318 50.4322 162.357 1026.2 48.9638 1677.1 85.9398 64.3211 40.1822 305.028 672.858 492.606
internal_count=64038 45319 18719 16839 31948 12893 13371 1581 11790 25139 18944 9849 6436 3413 1984 4452 503 3949 950 476 1438 9095 434 12649 616 458 288 1880 6195 3946
is_linear=0
shrinkage=0.05


Tree=16
num_leaves=31
num_cat=0
split_feature=11 8 8 2 15 4 1 4 1 4 13 7 7 0 3 0 0 7 4 8 6 1 10 2 7 1 15 4 2 3
split_gain=104.194 31.574 28.6006 15.2903 14.9628 14.1103 13.3644 12.3472 12.2206 11.884 10.7854 10.6834 10.1915 10.9091 9.73828 10.8032 11.4098 9.60634 9.48527 8.81922 8.62891 12.638 9.96461 8.61619 9.073 11.3432 10.0869 8.52929 8.52381 8.27931
threshold=0.1942764796053815 0.76304465386477927 -2.4013707765397019 22.563267972278194 4.750902924162677 0.96316032116980088 0.49023909740228405 2.3492829930700219 0.79945893054482609 0.90240338339332615 0.52529868782001288 -0.082210166706558938 -0.0088674010558402478 0.17917334170119897 0.8459113078794207 0.12004205313273476 0.056933146241279951 0.00042961123698345005 0.26641572555359588 5.0713053769822709 -0.0017804018070166499 0.21567130837350312 0.70084077287925517 0.38989744828008321 0.0012901761287059503 -0.73375858356334678 2.8241323722226808 -0.2833790270448453 0.15298682553719864 -0.0067697102968717485
decision_type=10 10 10 10 10 10 2 10 2 10 10 8 8 8 8 10 10 10 8 10 8 2 10 8 10 2 8 8 8 10
left_child=1 3 4 7 23 8 18 10 9 11 27 -4 13 -8 15 16 -12 -6 -3 -14 21 -7 -22 24 25 -2 -27 -1 -29 -30
right_child=2 6 5 -5 17 20 12 -9 -10 -11 14 -13 19 -15 -16 -17 -18 -19 -20 -21 22 -23 -24 -25 -26 26 -28 28 29 -31
leaf_value=0.015328772738023598 -0.013709747421203801 -0.0044657202523555265 0.046815705601444636 -0.033927291950217257 0.064922400686644496 -0.0055606250656811728 0.052195831186432319 -0.0205868824662521 0.014808621995458704 0.038569190044104543 0.022057384557835232 0.0019531038397924149 -0.0046243923196735729 -0.0088600109511563756 -0.017150755619667207 0.0061676208269250462 0.0889076531100777 0.01513879312289588 -0.015023259978937912 -0.031287926995014335 0.016326822449773567 0.011169367070623902 -0.012692670506369512 0.011324335801091295 0.037199143126449549 0.057322812523249736 0.013141152618231122 0.025281611487909431 0.00095355057228631909 -0.0048025038914428775
leaf_weight=81.058901995420456 26.525426357984543 275.42656780034304 13.538014329969881 35.085048161447048 25.263231694698334 218.13176158070564 16.008844286203384 76.055693097412586 421.21950346231461 24.092690162360668 13.737658128142359 671.04522216320038 860.20412117242813 13.473336592316629 13.571666665375231 23.449602104723454 11.922125212848185 15.719417959451674 934.8608068972826 32.172238938510418 34.463895387947559 233.95070537179708 208.81234183907509 488.42603984475136 76.245493248105049 17.675306648015976 48.003750368952751 30.167477838695049 1495.0064374655485 1073.1610575690866
leaf_count=684 168 2751 97 412 169 1768 147 681 3113 188 116 5170 7954 124 119 202 102 107 9428 330 266 1837 1705 3289 449 105 288 230 12653 9386
internal_value=-0.000372598 -0.00456281 0.00790675 -0.00112306 0.016516 0.00461512 -0.00916585 -0.000714651 0.00806387 0.00405495 -0.000163464 0.00284029 -0.00463011 0.0242934 0.0203387 0.0306991 0.0531176 0.0458273 -0.0126207 -0.00558567 -0.000988796 0.00309707 -0.0085816 0.0146873 0.0244383 0.0138862 0.0250312 -0.000643086 -0.00114135 -0.00145173
internal_weight=7508.47 4985.36 2523.11 2853.22 697.859 1825.25 2132.15 2818.13 1129.9 708.676 2742.07 684.583 921.859 29.4822 62.6811 49.1094 25.6598 40.9826 1210.29 892.376 695.359 452.082 243.276 656.876 168.45 92.2045 65.6791 2679.39 2598.33 2568.17
internal_count=64038 45319 18719 24585 4575 14144 20734 24173 8568 5455 23492 5267 8555 271 539 420 218 276 12179 8284 5576 3605 1971 4299 1010 561 393 22953 22269 22039
is_linear=0
shrinkage=0.05


Tree=17
num_leaves=31
num_cat=0
split_feature=11 8 8 9 2 15 1 1 12 8 10 9 7 8 7 15 6 5 8 1 11 8 9 9 5 1 2 5 3 8
split_gain=93.8601 28.8329 25.3518 16.0423 17.6749 12.8361 12.3177 10.4815 12.7223 9.2619 9.14824 9.24372 9.09563 8.64501 8.00387 7.63248 9.81651 11.5895 9.04805 8.4049 8.33588 10.1068 9.43843 9.33206 8.77893 9.99752 9.01264 10.976 8.1852 7.62719
threshold=0.1942764796053815 0.76304465386477927 -2.4013707765397019 0.90022675668875862 22.563267972278194 4.750902924162677 0.49023909740228405 0.51247098210294839 -1.7750410460807047 4.8291955639642801 0.96426729835156311 -0.46957922732038887 -0.0088674010558402478 4.6287858174280485 0.00042961123698345005 3.2397126102834282 -0.021009703037022497 -0.038065882253833193 -2.9089201840613064 2.3404214875180323 0.14380063598160306 0.62444569586237186 0.17942098097211132 -0.014767099831009099 -0.43255923061373286 0.03296053031912731 3.4867133055113553 -0.020238600277221297 0.69049601183110088 -0.6259521728212466
decision_type=10 10 10 10 10 10 2 2 10 10 8 10 8 10 10 10 8 10 10 2 10 8 8 10 8 2 10 10 10 10
left_child=1 3 5 4 15 -2 -3 10 29 12 11 -4 -8 -14 -7 16 -1 19 -19 -18 22 23 -17 24 -22 28 27 -27 -26 -9
right_child=2 6 7 -5 -6 14 9 8 -10 -11 -12 -13 13 -15 -16 20 17 18 -20 -21 21 -23 -24 -25 25 26 -28 -29 -30 -31
leaf_value=-0.024723629075118013 0.013826436512032464 -0.012111227865110284 -0.0070294699244381892 0.053627143833771568 -0.037312673412855393 0.059206867609362439 0.023959508315795949 0.011237723038643982 0.05564750498786715 -0.027378176520595716 -0.0038301598220700744 0.01122208707346406 -0.0048452094696746243 0.040014450525408717 0.014241005498482409 -0.0099259400917609993 -0.00083627402432724955 0.050410506611745259 0.0082611275979718925 0.035048064229190011 -0.032019914199473927 0.044572218553620535 0.0058688733322292659 -0.0089155450129478203 -0.0015146840632556747 0.016012345988656924 0.0015660084410653097 0.069783480675031109 0.038682534981530285 0.0021277916534462138
leaf_weight=35.741884104907513 662.63613379001617 1198.4822307005525 93.418862469494343 13.342862844467161 33.716160409152508 26.288835927844048 29.530671641230583 532.53102470934391 13.811653859913347 41.911553874611855 517.51827006787062 269.50796370208263 836.31138927489519 10.879452660679815 15.870864689350126 591.90738765150309 1301.5285899043083 13.234040804207323 335.94319067895412 16.525024980306625 13.610440932214258 13.263895325362681 112.57042567431927 162.46930956095457 132.01775784045458 20.149758286774158 22.752435408532619 17.940122857689857 14.007932938635347 404.11481390893459
leaf_count=296 4299 12179 733 106 408 169 266 3828 101 438 4114 2094 7744 107 107 5303 11026 102 2850 131 118 121 984 1391 1121 164 196 146 122 3274
internal_value=-0.000356836 -0.00435207 0.00747047 -0.00106942 -0.00132663 0.0155285 -0.00877221 0.00436859 0.00800971 -0.00441601 0.000437937 0.00652406 -0.0033183 -0.00426913 0.0422796 -0.000893872 0.00120347 0.00175929 0.00985862 -0.000386376 -0.00413885 0.00166323 -0.00740204 0.000177019 0.00687728 0.00943644 0.0264651 0.0413383 0.00234135 0.00730725
internal_weight=7503.53 4967.84 2535.7 2850.72 2837.38 704.796 2117.12 1830.9 950.457 918.633 880.445 362.927 876.722 847.191 42.1597 2803.66 1702.97 1667.23 349.177 1318.05 1100.69 396.212 704.478 382.948 220.478 206.868 60.8423 38.0899 146.026 936.646
internal_count=64038 45319 18719 24585 24479 4575 20734 14144 7203 8555 6941 2827 8117 7851 276 24071 14405 14109 2952 11157 9666 3379 6287 3258 1867 1749 506 310 1243 7102
is_linear=0
shrinkage=0.05


Tree=18
num_leaves=31
num_cat=0
split_feature=11 8 8 9 2 4 1 15 4 6 13 4 10 1 8 8 0 2 3 4 8 0 3 0 8 6 2 1 12 2
split_gain=84.5856 26.3068 22.4957 13.9468 16.5004 12.6692 11.5265 11.0697 11.0384 10.2522 9.79907 9.37239 9.06066 9.00438 9.12245 12.9128 8.9927 8.30023 8.05318 11.6091 7.98117 7.95173 7.90114 7.8177 7.74099 7.60735 7.51709 7.45782 12.1624 7.87467
threshold=0.1942764796053815 0.76304465386477927 -2.4013707765397019 0.90022675668875862 22.563267972278194 1.4319470784814821 -1.1122022454218559 4.750902924162677 2.3492829930700219 -0.0017804018070166499 0.52529868782001288 0.62984670079145866 1.0627700117106536 0.6716255935160067 -0.66775830263955394 -0.76578145322712021 0.22247023546753406 3.5112577733653283 -0.49353849399614674 0.9559833273327133 5.0713053769822709 0.2965160369513527 -1.3182638246902896 0.20097466781915449 -0.12438080300775003 0.0091641876452818512 0.38989744828008321 0.44828343773704149 -4.2767367390416622 0.78221846716942345
decision_type=10 10 10 10 10 10 2 10 10 8 10 10 8 2 10 10 10 10 8 10 10 10 10 10 10 10 8 2 8 8
left_child=1 3 7 4 8 13 11 26 10 21 27 12 -3 -4 15 -15 -12 -14 19 23 -8 22 -7 -16 -20 -26 -2 -1 -29 -30
right_child=2 6 5 -5 -6 9 20 -9 -10 -11 16 -13 17 14 18 -17 -18 -19 24 -21 -22 -23 -24 -25 25 -27 -28 28 29 -31
leaf_value=-0.0031397738061429009 0.022028773487181574 -0.018662032941099568 0.002875949350050774 0.049034198398795886 -0.03657472681637549 0.021097612697458829 -0.005792284969455574 0.039126071895512524 -0.019938072108113693 -0.015597807137488316 0.028707058205576272 -0.024895362839208967 0.022071654259067985 0.013972618211761137 0.012701962308991337 0.060796661770279231 -0.018370060483800455 -0.0073128243778643343 -0.016292859830568239 -0.012324967167142925 -0.025109579934318033 0.025325401150908668 -0.0044988793105777821 0.051818941887156959 0.010137047696748282 -0.030875939861401858 0.0098998981542116598 -0.027135906839271796 0.023301880888433619 0.0022180487850497321
leaf_weight=1492.871376760304 172.04112390428782 148.33961250633001 789.7879991158843 13.849226646125315 32.70256046205759 34.551283746957779 1590.3409286364913 43.243026912212372 73.760322049260139 122.98232688754797 50.123741365969181 166.0558495670557 30.588001511991024 354.3870207592845 28.017902784049511 15.362182818353174 12.717866703867911 112.13021625578403 63.019951872527599 22.792980372905731 55.330801419913769 31.441393293440342 236.60585101693869 23.474452927708626 101.09158529341221 12.730388484895228 496.16879042983055 34.323088154196739 46.159057661890984 1091.8026199638844
leaf_count=13086 1010 1538 6105 106 408 281 15352 276 673 1019 422 1760 305 2478 223 114 111 1187 486 186 592 247 1908 183 810 104 3289 298 359 9122
internal_value=-0.000341697 -0.004151 0.00706116 -0.00101947 -0.00126403 0.00413664 -0.00839279 0.0146093 -0.000851881 -0.00342473 -0.000335823 -0.0154167 -0.0100089 0.00641782 0.0109233 0.015918 0.0191796 -0.00101501 0.00356916 0.0173841 -0.00644177 0.00152266 -0.00123733 0.0305347 -0.00223402 0.00554996 0.0130227 -0.000795977 0.00218878 0.00307327
internal_weight=7498.79 4951.1 2547.7 2848.31 2834.46 1836.25 2102.79 711.453 2801.76 425.581 2728 457.114 291.058 1410.66 620.876 369.749 62.8416 142.718 251.127 74.2853 1645.67 302.599 271.157 51.4924 176.842 113.822 668.21 2665.16 1172.28 1137.96
internal_count=64038 45319 18719 24585 24479 14144 20734 4575 24071 3455 23398 4790 3030 10689 4584 2592 533 1492 1992 592 15944 2436 2189 406 1400 914 4299 22865 9779 9481
is_linear=0
shrinkage=0.05


Tree=19
num_leaves=31
num_cat=0
split_feature=11 8 8 4 11 4 1 15 4 7 10 8 2 13 3 1 7 11 15 3 5 10 4 4 10 8 8 3 7 4
split_gain=76.2179 24.0779 19.9967 13.0055 12.9043 11.3795 10.4445 9.58395 9.10214 8.5385 8.21907 11.3256 9.13936 8.58413 8.90308 8.04521 7.96806 8.37061 9.24949 11.8767 7.53135 7.31923 8.13746 7.25509 7.17208 7.11505 11.8153 8.26043 11.1572 8.85406
threshold=0.1942764796053815 0.47157659419380077 -2.4013707765397019 2.3492829930700219 0.043810225636960902 1.4319470784814821 0.04020395123694296 4.750902924162677 0.796640862188705 -0.082210166706558938 0.59563549864368603 -2.7007568196067839 0.15298682553719864 -0.56061554511426459 -0.22097122807402877 0.6716255935160067 -0.0017954472476339499 0.057428967724583509 3.0287020159920384 -1.9629278907876748 0.13126958307663128 0.73487457789262023 0.43186076796616152 0.21524754619487915 0.70084077287925517 -0.66775830263955394 -0.76578145322712021 -0.68115318195656072 0.015506345551199601 0.97058489790057167
decision_type=10 10 10 10 8 10 2 10 8 8 8 8 8 8 10 2 10 8 10 10 10 8 10 10 8 10 10 8 10 10
left_child=1 3 7 4 -1 9 8 -2 16 -4 20 21 -13 -14 -15 -11 -3 -18 -19 -20 -6 22 -12 -9 -10 26 -17 29 -29 -27
right_child=2 6 5 -5 10 -7 -8 23 24 15 11 12 13 14 -16 25 17 18 19 -21 -22 -23 -24 -25 -26 27 -28 28 -30 -31
leaf_value=-0.028897954297264852 0.012274157076431346 -0.018237338291975238 0.033704366071376272 -0.021918067153843257 -0.014902626351325188 -0.0032644378672348666 -0.0043746248797649923 0.059278139230833304 -0.034643493301602893 0.0021419662711297267 0.016994765502765852 0.031231244334008965 -0.021169072921570383 0.003748454957831221 -0.0027384721780922931 0.012330198693094803 -0.015958010332667361 -0.01396372812945563 0.053116179690491296 0.0028238302038545594 0.018264309625922511 0.0083138160581942479 0.067367089995779214 0.018464086607525725 -0.013730825401642215 0.033520518499887735 0.056464183636230729 -0.0055263924687593488 0.034591615793739351 -0.010908425386632149
leaf_weight=38.080250754952431 673.35573026537895 112.12032251805067 27.407645605504513 69.655811667442322 135.44685545563698 424.53573682904243 1218.1314641609788 19.334652617573738 44.260881423950195 776.38498706370592 21.748402148485184 23.710168987512589 46.770072244107723 1052.070724889636 1063.732154071331 348.90412835776806 100.24744269996881 82.920016370713711 12.345812894403933 238.83183830976486 19.591733776032925 86.547416590154171 12.699198901653288 24.924983710050583 556.19990473985672 38.354860350489616 15.853936627507208 174.74638599902391 19.238832160830498 15.84686693549156
leaf_count=463 4299 1155 188 646 1140 3455 11400 113 458 5999 171 178 414 8841 9257 2424 1070 851 126 2438 162 662 102 163 5785 297 113 1387 150 131
internal_value=-0.000327159 -0.0039581 0.00667552 -0.000607821 -1.41624e-05 0.00391615 -0.00759877 0.0137556 -0.0110231 0.00606787 0.000432532 0.00118135 0.000357254 1.87553e-05 0.000487115 0.00552268 -0.00635395 -0.00328642 0.000515749 0.00529579 -0.0107114 0.0160722 0.0355647 0.0362935 -0.0152723 0.00980485 0.0142484 0.00327413 -0.00154762 0.0205309
internal_weight=7494 4935.11 2558.89 2570.05 2500.4 1841.27 2365.06 717.615 1146.93 1416.74 2462.32 2307.28 2186.28 2162.57 2115.8 1389.33 546.465 434.345 334.098 251.178 155.039 120.995 34.4476 44.2596 600.461 612.945 364.758 248.187 193.985 54.2017
internal_count=64038 45319 18719 22036 21390 14144 23283 4575 11883 10689 20927 19625 18690 18512 18098 10501 5640 4485 3415 2564 1302 935 273 276 6243 4502 2537 1965 1537 428
is_linear=0
shrinkage=0.05


Tree=20
num_leaves=31
num_cat=0
split_feature=11 11 1 1 4 2 3 2 11 1 3 5 5 1 15 2 3 2 4 0 15 13 12 7 9 14 7 0 7 3
split_gain=67.049 35.8153 18.7536 13.5738 9.96692 9.62595 9.06282 8.30361 8.09936 8.07634 9.27029 8.17058 9.12719 8.35429 8.06855 7.80501 8.89341 7.71263 11.0483 7.68229 7.69195 7.64728 7.89908 7.55129 7.31536 10.3062 7.15877 6.68385 6.56305 9.90755
threshold=0.11917198598708316 0.37283668879512866 -0.42102739679028484 0.92384110857679136 0.68507578256949853 2.8921660256832458 1.7607950387336697 5.0134177727584781 0.043810225636960902 -0.85593362502755677 0.42280684042419253 -0.16030265172826577 0.043995982185735603 -0.018606205854795995 2.4627881469537738 22.563267972278194 1.5135557859486297 0.63315641481261509 0.69903119528661806 0.047533455687165306 2.5724791394797237 0.14821426770465027 -3.6586696855464722 -2.1311549721012617e-05 -0.026853860414384395 2.8012268756021457 -0.0037358528012217999 0.26396263029753986 6.2909355116318679e-05 -0.021376847351654498
decision_type=8 10 2 2 10 10 10 10 10 2 8 10 10 2 8 10 10 8 10 10 8 10 8 8 10 8 8 10 10 10
left_child=2 3 4 6 8 -6 17 21 -1 10 -3 -11 13 -13 -15 16 -4 18 -2 20 -14 22 -5 24 -10 -26 -7 -16 29 -25
right_child=1 9 15 7 5 26 -8 -9 23 11 -12 12 19 14 27 -17 -18 -19 -20 -21 -22 -23 -24 28 25 -27 -28 -29 -30 -31
leaf_value=-0.02413902038533729 0.0060299545485856757 -0.0053211909954927541 -0.0032780500673951865 -0.026173373500521353 0.020102433413589582 -0.0014686108749578436 -0.025656535479963702 -0.014141808587101234 -0.020185234097961378 0.02327211863061289 0.028128597686892749 0.029157047723102826 0.025766798664030602 -0.02509738997167146 -0.003205039228093664 -0.03818951099654086 0.012737345105240591 4.1354890066950357e-05 0.043616460935568341 0.028252737897653975 -0.022547831067935051 0.035492649148225648 0.0083264899814121784 0.027924472751503338 -0.043641260591947492 -0.00079211433378395698 -0.022989636270349341 0.030966271128070228 -0.0053029775835222118 -0.0061214367386358088
leaf_weight=71.709171496331692 195.19110346585512 88.032145589590073 1339.0964642912149 16.940006323158741 15.605989165604113 44.677300967276096 32.988159827888012 42.722181417047977 153.03615296632051 268.83608628064394 27.086326740682125 23.287548266351223 15.495349645614622 31.756967231631279 62.29244189709425 15.260346598923205 92.682357877492905 3089.7302606627345 21.727418303489685 90.104456976056099 17.588942781090736 25.360565707087517 806.11275210231543 41.18743322044611 15.529643520712851 145.6241293400526 286.01799233257771 18.577943161129951 324.5857761874795 44.40817940980196
leaf_count=808 1409 561 12420 138 150 454 296 383 1528 1620 165 146 105 216 397 203 879 25757 159 572 114 198 6373 386 154 1459 2941 114 3242 427
internal_value=0.000100657 0.00355502 -0.00640118 0.00188399 -0.0111902 -0.0182712 0.000421028 0.00736662 -0.00810988 0.014549 0.00254924 0.0171655 0.0108296 0.00189544 -0.00374134 -0.00262044 -0.00224134 0.000681186 0.00979477 0.0206867 8.0795e-05 0.00844969 0.00761642 -0.00652308 -0.0123561 -0.00492129 -0.0200821 0.00464496 -0.00205513 0.010261
internal_weight=7463.25 4873.83 2589.42 4230.77 1142.38 346.301 3339.64 891.136 796.08 643.058 115.118 527.94 259.104 135.915 112.627 1447.04 1431.78 3306.65 216.919 123.189 33.0843 848.413 823.053 724.371 314.19 161.154 330.695 80.8704 410.181 85.5956
internal_count=63774 38723 25051 34713 11549 3545 27621 7092 8004 4010 726 3284 1664 873 727 13502 13299 27325 1568 791 219 6709 6511 7196 3141 1613 3395 511 4055 813
is_linear=0
shrinkage=0.05


Tree=21
num_leaves=31
num_cat=0
split_feature=8 1 1 8 8 3 8 2 7 7 2 10 3 8 2 12 15 7 8 4 4 1 13 1 8 14 1 7 3 4
split_gain=52.7614 22.1022 19.4586 14.9883 13.8071 11.8061 11.3135 11.5204 11.1214 10.7152 9.69596 9.9923 8.61283 8.56316 8.88003 8.26061 11.9011 9.46743 9.24109 10.8783 7.72986 7.50942 7.50937 7.33097 7.08516 8.3014 8.23364 7.2242 6.70746 8.13713
threshold=-0.14367338535744886 -0.42102739679028484 -0.54266068655150013 -1.4284443509934281 3.1812106567587022 1.5707258018085619 2.0763591601815299 1.0162688583124788 -0.082210166706558938 0.0051447029215658507 1.8934414992490616 0.60263692499801391 0.10329425366975976 -3.3123140058150478 1.7538695838406655 -3.3554956663317963 3.8906533543564525 0.0091269503947070015 -1.6817744982223115 -0.040876850098889042 2.4005654751527596 -1.2039990617625946 -0.56061554511426459 -0.50100600005458773 -0.040642462833319647 3.4524105037272315 0.65948634239335158 8.2795421631854968e-05 0.23143728842999964 0.81844858052097313
decision_type=10 2 2 8 10 10 10 10 8 8 8 8 8 10 8 8 8 10 10 10 10 2 8 2 10 10 2 10 10 8
left_child=2 6 5 10 24 8 7 -2 -1 -6 28 -12 -11 14 -10 -13 17 18 -17 -20 -15 -9 -5 -23 26 -26 27 -3 -4 -30
right_child=1 4 3 22 9 -7 -8 21 13 12 11 15 -14 20 -16 16 -18 -19 19 -21 -22 23 -24 -25 25 -27 -28 -29 29 -31
leaf_value=0.035511167659381518 0.01325052238205065 0.023792015224383317 0.011628549915012207 -0.023111772329844196 -0.014133745041427309 -0.027882661455993968 -0.01634763437372137 -0.025329446728365707 0.00054628143750925443 -0.013933657983124759 -0.012935395547976188 -0.019152959804777641 0.045802617833670761 -0.00143273764920407 0.025084000717393598 -0.00030964475132859404 0.017009225820547657 -0.024245034655382042 0.059963228296926907 0.010068411704480005 -0.02211027468132102 -0.0055051084471456485 0.0033197684432675436 -0.025834240425845596 0.001580602845062874 -0.021815332434905774 -0.025371003762169986 -0.022296242630082633 0.011999384654053841 0.034587441348008847
leaf_weight=21.489282332360744 69.117452554404736 21.421097487211227 541.28610805422068 27.420990593731403 271.83161827176809 39.582868009805679 411.91287638992071 58.077326126396656 93.13453009724617 10.532939106225966 64.528941594064236 26.908829942345619 14.127139724791052 1041.5265752151608 61.033823415637016 179.87738030403852 254.14318709820509 30.64310148358345 14.609196625649927 43.308526247739792 47.247806750237942 750.13754857331514 1342.0156120806932 47.133374385535717 1710.7090309858322 38.774322263896465 55.124149069190025 14.098622828721998 79.724873542785645 79.757718630135059
leaf_count=143 608 183 3509 248 2710 382 4452 589 574 103 498 231 135 8521 422 1320 1917 222 108 334 403 7396 10823 462 15442 378 466 122 526 547
internal_value=9.3607e-05 -0.00441208 0.0040172 0.00645146 -0.00125754 -0.000993556 -0.00945561 -0.00638473 -0.000151797 -0.0112708 0.0102646 0.00567753 0.0202878 -0.000768375 0.0102605 0.00786332 0.00925444 0.00191262 0.00528339 0.0226539 -0.00233005 -0.00797138 0.00279052 -0.00670693 0.000355859 0.00106207 -0.0132745 0.00549849 0.0142838 0.0232957
internal_weight=7461.24 3473 3988.24 2684.22 2136.62 1304.01 1336.38 924.466 1264.43 296.492 1314.79 614.019 24.6601 1242.94 154.168 549.49 522.581 268.438 237.795 57.9177 1088.77 855.348 1369.44 797.271 1840.13 1749.48 90.6439 35.5197 700.769 159.483
internal_count=63774 33046 30728 20283 19539 10445 13507 9055 10063 2948 9212 4630 238 9920 996 4132 3901 1984 1762 442 8924 8447 11071 7858 16591 15820 771 305 4582 1073
is_linear=0
shrinkage=0.05


Tree=22
num_leaves=31
num_cat=0
split_feature=11 11 8 1 7 1 4 7 2 9 11 1 8 10 10 11 2 2 2 14 13 14 15 13 2 14 10 11 2 7
split_gain=56.3112 30.1322 15.9997 17.3724 10.6755 10.0436 10.0034 9.9788 9.74175 9.37788 9.03522 9.15355 8.78075 8.59469 10.6097 9.16281 8.89561 9.95342 7.91566 7.90777 8.59438 9.4869 7.8636 7.57389 7.92854 6.93607 7.21138 8.6548 11.852 6.55309
threshold=0.11917198598708316 0.31041754465056715 3.3062477462695852 -0.44994088582788161 -0.0035960546248663496 0.92384110857679136 0.71324914270999973 -0.06088978071241704 2.8921660256832458 -0.51952580446941055 0.76597869605018354 0.5389766857939029 -2.7007568196067839 0.56763742138492679 0.6570369775342686 0.47800066426280646 0.71364921407441473 1.2471550745234363 22.563267972278194 1.8651602318946918 -0.095982973903659632 3.3736002872586894 2.0381076603693074 -0.042081579526124194 -0.36783482638900084 3.0780711756173154 0.78386770939011463 0.18477133776026883 1.7993616276725666 -0.0037358528012217999
decision_type=8 10 10 2 8 2 10 8 8 10 10 2 8 8 8 10 10 10 10 8 10 10 10 8 8 10 10 8 10 8
left_child=2 5 3 6 -4 12 -1 9 -8 -3 13 -12 -2 15 16 22 -15 -18 -5 -14 -21 25 -9 -16 -25 26 -22 28 -28 -10
right_child=1 7 4 18 -6 -7 8 10 29 -11 11 -13 19 14 23 -17 17 -19 -20 20 21 -23 -24 24 -26 -27 27 -29 -30 -31
leaf_value=-0.0060369795919996087 0.0083714623242363128 0.0043561768084194553 -0.047754435675445746 -6.2897064769009184e-05 -0.013494264773252902 0.0061167448111243026 0.025715257670728648 0.018444667037767246 -6.9969837438974659e-05 0.046785613242303667 0.010479173667654697 0.054765771306803115 -0.01673374558238817 0.046077464469441241 0.034198025331495838 0.018668316791622324 -0.014030451079896117 0.038678552060624434 -0.037170919631552189 -0.0013473790657552356 0.00098746981608684712 -0.011715486851228203 -0.022121137597444163 -0.019086692333689557 0.008527831997060668 0.05017750769451676 0.073387954760457619 0.0035809007483113653 0.017301969502813892 -0.022127940318674145
leaf_weight=668.62956284731627 275.06105500459671 20.551705107092857 24.471889264881611 1245.5522383674979 320.88054243475199 811.76393318921328 12.702484153211115 14.861278489232062 39.127447947859764 35.549677021801472 25.195815116167068 21.730825662612915 77.587688572704792 36.093934684991837 27.608051158487797 29.530564650893211 18.911623731255531 17.014873661100864 14.538893319666384 2473.944845713675 74.025331363081932 41.934654504060745 60.91073977202177 26.968532934784889 718.64251259714365 12.895441070199011 15.233912236988543 31.273293785750866 24.678807899355888 241.44665607064962
leaf_count=6709 1990 126 260 11416 3427 6496 120 97 398 211 123 109 663 222 171 174 126 116 201 21074 606 352 407 165 4792 107 131 249 216 2520
internal_value=8.68749e-05 0.00323403 -0.00590989 -0.00435377 -0.015922 0.00117814 -0.00941392 0.0107241 -0.0171129 0.0312424 0.0095701 0.0309874 -0.000146424 0.00851276 0.0101909 -0.00495731 0.0285459 0.0109327 -0.000491048 -0.000997915 -0.000541328 0.00942724 -0.0141649 0.00848125 0.00752902 0.0150349 0.0119141 0.0232765 0.0387089 -0.0190518
internal_weight=7459.32 4891.97 2567.35 2222 345.352 3838.4 961.906 1053.57 293.277 56.1014 997.469 46.9266 3026.64 950.542 845.24 105.303 72.0204 35.9265 1260.09 2751.57 2673.99 200.041 75.772 773.219 745.611 158.107 145.211 71.186 39.9127 280.574
internal_count=63774 38723 25051 21364 3687 31884 9747 6839 3038 337 6502 232 25388 6270 5592 678 464 242 11617 23398 22735 1661 504 5128 4957 1309 1202 596 347 2918
is_linear=0
shrinkage=0.05


Tree=23
num_leaves=31
num_cat=0
split_feature=11 11 1 1 4 2 11 2 2 4 7 6 9 14 2 1 10 4 5 5 1 15 6 13 12 6 10 7 9 9
split_gain=50.9386 27.2742 14.5764 10.546 8.73777 8.07956 7.46517 7.29768 7.06368 9.24159 6.94964 14.119 6.90453 9.85424 6.83542 6.62407 7.89602 7.08657 6.8394 7.90424 7.43668 7.24163 6.72374 6.58537 7.04705 6.57042 6.41619 7.65644 7.19433 6.99854
threshold=0.11917198598708316 0.37283668879512866 -0.42102739679028484 0.92384110857679136 0.68507578256949853 2.8921660256832458 0.043810225636960902 5.0134177727584781 0.63315641481261509 0.69903119528661806 -2.1311549721012617e-05 0.0053885938685187011 -0.026853860414384395 2.8012268756021457 22.563267972278194 -0.85593362502755677 0.87487965310238369 -0.61170779887553861 -0.16030265172826577 0.043995982185735603 -0.018606205854795995 2.4627881469537738 0.0013068453008230503 0.14821426770465027 -3.6586696855464722 -0.0056197546214659493 0.8715581673470425 0.00023022985338995002 0.23760844253673655 0.059655624532960354
decision_type=8 10 2 2 10 10 10 10 8 10 8 10 10 8 10 2 8 10 10 10 2 8 10 10 8 10 8 10 10 10
left_child=2 3 4 8 6 -6 -1 23 9 -2 12 26 -8 -14 -4 16 -3 -18 22 20 -20 -22 25 24 -5 -17 27 -12 29 -28
right_child=1 15 14 7 5 -7 10 -9 -10 -11 11 -13 13 -15 -16 18 17 -19 19 -21 21 -23 -24 -25 -26 -27 28 -29 -30 -31
leaf_value=-0.022723218746536974 0.0054970784051357061 -0.015651381361092048 -0.0019738714934221862 -0.025536338967459656 0.017980363390403972 -0.018433734041467625 -0.018919343124349522 -0.013834866661755841 -0.00030656554937392527 0.039279500820829642 0.0062769584569891948 -0.022041607624599779 -0.042697228930487691 8.8911680764400245e-05 -0.036731826554878499 0.021574159214141794 0.02923270358073396 -0.0019468999788186056 0.02619303206450074 0.018169519738642441 -0.02483863573461223 0.003339052901395564 0.045040918866108691 0.032089023706809598 0.0072783266624125535 -2.333997105665901e-05 0.015446240724935051 -0.014325520581747587 0.048633486041668395 -0.0076422169775157527
leaf_weight=69.127210900187492 198.51490647345781 41.83018633723259 1425.6134296432137 16.695549830794334 15.99794580042362 318.62898860871792 148.74928813427687 42.472802400588989 3122.9761842116714 22.543364763259888 95.757701084017754 67.714818395674229 14.848629802465437 143.61583224684 14.286542914807795 208.20134349167347 32.057329080998898 42.230227284133434 23.895032539963722 126.15321753919125 31.581189833581448 82.020291820168495 25.148662313818932 26.179422184824944 816.6621543392539 42.383545368909836 94.121391944587231 85.23409291356802 11.411171689629553 50.394838333129883
leaf_count=808 1419 269 13299 138 150 3395 1528 383 26043 159 910 713 154 1459 203 1224 184 273 146 791 216 511 149 198 6373 247 963 841 113 515
internal_value=8.05748e-05 0.00306446 -0.00564262 0.001599 -0.00993273 -0.0166928 -0.0070362 0.00639689 0.000304826 0.00894219 -0.00551284 -0.00120811 -0.0111827 -0.00392029 -0.00231874 0.0125571 0.00172415 0.011508 0.0148892 0.00913129 0.000838711 -0.00449434 0.0203947 0.00739661 0.00662092 0.0179212 0.00297906 -0.00342532 0.0104129 0.00739497
internal_weight=7457.05 4901.55 2555.5 4246.04 1115.6 334.627 780.975 902.01 3344.03 221.058 711.848 404.634 307.214 158.464 1439.9 655.501 116.118 74.2876 539.383 263.65 137.497 113.601 275.734 859.537 833.358 250.585 336.919 180.992 155.927 144.516
internal_count=63774 38723 25051 34713 11549 3545 8004 7092 27621 1578 7196 4055 3141 1613 13502 4010 726 457 3284 1664 873 727 1620 6709 6511 1471 3342 1751 1591 1478
is_linear=0
shrinkage=0.05


Tree=24
num_leaves=31
num_cat=0
split_feature=11 11 8 1 3 7 3 15 7 0 3 1 5 13 10 10 1 13 6 8 2 0 6 6 0 7 5 6 2 13
split_gain=46.0885 24.5764 14.8188 14.7309 10.6565 10.3012 9.62429 15.0588 8.47384 8.42472 7.80889 7.71584 11.0369 9.07524 8.30381 10.7247 7.59389 8.44606 7.86311 10.1454 11.8953 7.20052 7.38258 8.01101 7.22532 8.9473 7.42687 6.93508 6.94722 6.86083
threshold=0.11917198598708316 0.31041754465056715 3.3062477462695852 -0.44994088582788161 1.7607950387336697 -0.0035960546248663496 0.22385021287835308 2.5724791394797237 -0.06088978071241704 -0.17572317644199878 0.27976756317313384 -0.58224869062587781 -0.19275429061249519 0.00062310586461770013 0.53374813550519129 0.68464370944129527 1.0761335317519196 0.011877343931087901 -1.0000000180025095e-35 -2.8058462039727377 1.6096400249832359 0.35954200019361943 -0.00098099203570909993 -0.0074858051160705992 0.067052767435175117 0.0096259406623945519 -0.14612451365879478 0.014481013107434102 22.563267972278194 -0.25468137602276458
decision_type=8 10 10 2 10 8 10 8 8 10 10 2 10 10 8 10 2 10 10 8 8 10 10 10 10 10 10 10 10 8
left_child=2 4 3 -1 6 -4 16 10 -3 -9 -8 14 13 -13 -10 -16 18 -18 -2 20 -20 24 23 -23 25 -11 29 28 -5 -26
right_child=1 8 5 27 -6 -7 7 9 11 21 -12 12 -14 -15 15 -17 17 -19 19 -21 -22 22 -24 -25 26 -27 -28 -29 -30 -31
leaf_value=-0.0085969341268188233 0.0013849177202697256 0.028299343793818616 -0.047089673547975539 -0.00067959499575959105 -0.025826759533554445 -0.012739213179735294 0.025982107285758494 0.041738316769644665 -0.026824698229987343 0.0038926429297589369 -0.014874389155013937 0.020383184563165097 0.005677480437961094 -0.0085113285272493747 0.025707403933007095 -0.0015099090241515768 0.0043311755035464984 0.040791399437374309 0.05389845186221115 -0.0053844244523034695 -0.00017039626545912705 -0.011434393507907609 -0.022767748625933022 0.041905683322001515 -0.011273305459541347 -0.031258322496380608 0.007678817096250224 0.018652205961831179 -0.038061764901370629 0.023241404141246008
leaf_weight=947.62754544615746 1243.1134054735303 57.469248659908772 23.44433057308197 1198.2910170778632 36.550009593367577 316.04683447629213 13.053287558257578 18.030249148607254 24.296655371785164 176.33471194654703 112.40678530186415 306.80218529701233 420.83143482357264 29.815775625407696 45.247511461377144 180.88830795139074 456.00542023032904 16.45708816498518 15.758076027035711 1064.2059667333961 28.697283416986465 17.037500105798248 38.618725255131721 11.994923852384089 15.855185844004152 20.174481205642223 404.3110585808754 46.290480360388756 12.558854173868893 156.68351955711842
leaf_count=9747 10089 337 260 10994 334 3427 109 153 161 1485 958 1887 2774 183 283 1214 3583 125 112 9154 218 141 339 102 130 166 3391 436 187 1295
internal_value=7.48195e-05 0.00290463 -0.00538696 -0.00388959 0.00104279 -0.0151114 0.00130064 0.00555767 0.00962477 0.00792088 -0.0106235 0.00855995 0.0110755 0.0178239 0.000951637 0.003936 -0.000183318 0.00560118 -0.0013454 -0.00440684 0.0189954 0.00719587 -0.00844656 0.0106034 0.00856423 0.000283893 0.011385 -0.000341207 -0.00106732 0.0200697
internal_weight=7454.9 4910.64 2544.26 2204.77 3845.29 339.491 3808.74 984.5 1065.35 859.04 125.46 1007.88 757.449 336.618 250.432 226.136 2824.24 472.463 2351.77 1108.66 44.4554 841.01 67.6511 29.0324 773.359 196.509 576.85 1257.14 1210.85 172.539
internal_count=63774 38723 25051 21364 31884 3687 31550 8269 6839 7202 1067 6502 4844 2070 1658 1497 23281 3708 19573 9484 330 7049 582 243 6467 1651 4816 11617 11181 1425
is_linear=0
shrinkage=0.05


Tree=25
num_leaves=31
num_cat=0
split_feature=8 2 2 1 8 5 15 9 9 6 0 0 9 10 0 5 15 3 10 5 6 0 9 13 12 2 10 2 2 8
split_gain=41.5342 18.2117 12.0347 11.6796 10.3968 11.7503 17.2087 13.8747 9.45581 17.8915 11.1231 10.2609 8.64745 8.33949 12.1805 7.7217 8.47001 7.61118 7.57406 9.77955 10.4789 11.873 8.53633 7.39764 7.44402 8.63463 8.08692 9.62984 7.69632 8.65697
threshold=-0.6259521728212466 5.8843004369149945 3.1411414940844096 0.64993546051833706 -3.5128994267624263 -0.25649309107497625 3.2808529458558788 -0.12368451338080588 -0.17746512810747322 -0.043263302062145341 0.056933146241279951 0.13567630403961067 -0.09594888720111909 1.0255444008392949 0.042937219506829612 -0.20235251786957834 4.8886565592184192 -1.1160049987106442 1.2086846380785008 -0.081786011335793191 -0.0062975067866191487 0.2677128854202262 -0.40102844202302296 1.191994423079185 -3.8348221461212293 3.7861629234622836 0.8066031232459302 2.8050122010675911 0.38989744828008321 0.86107856266534555
decision_type=10 10 8 2 10 10 10 8 8 10 8 8 10 10 8 8 8 8 10 10 10 10 8 10 8 8 10 10 8 10
left_child=2 23 3 4 5 -1 7 -7 9 11 -10 -4 15 14 -11 -3 -17 -15 22 20 21 -20 -5 24 25 26 -2 -28 29 -26
right_child=1 12 8 18 -6 6 -8 -9 10 13 -12 -13 -14 17 -16 16 -18 -19 19 -21 -22 -23 -24 -25 28 -27 27 -29 -30 -31
leaf_value=-0.0022511442668148394 -0.031241792874964033 0.010760093663110403 0.01460629763334393 0.020327814066294102 0.0017045764119288328 0.08341945190930096 0.008097372652514187 0.026359133024464139 -0.011077402773174767 0.031947229398677772 0.001035240040183905 0.056253270021137183 -0.0070787232081864554 -0.039760228588879981 -0.0029009526067522457 -0.027834834514263773 -0.0032741065274901164 -0.0019649211393603129 0.012259848054462421 0.0080707226870542683 0.061310598991202059 0.060172316269728521 0.0053249890713943458 0.034302664364867771 0.032517078109305847 0.0022893354559314536 0.012810322047235282 -0.040249072742686513 -0.0016473103891745658 -0.012676910032055427
leaf_weight=62.647288784384727 67.592630982398987 20.125917669385672 33.970454879105091 118.54698406904936 1135.5439392700791 17.503911092877388 62.725212752819061 27.222080491483212 250.04374449700117 38.771989788860083 783.22275882586837 26.193548664450645 681.76107136160135 19.097568821161985 70.980956092476845 143.15258367732167 46.506853833794594 44.032897263765335 63.114911258220673 93.844200372695923 21.662103481590748 16.261555477976799 473.55847637355328 14.172617867588995 33.684757776558399 66.176967725157738 28.602663323283195 12.198263920843599 3007.4192597866058 15.458913274109362
leaf_count=374 626 205 232 759 8462 102 384 166 2135 303 6351 176 7101 168 587 1493 496 357 399 642 151 103 3355 129 254 648 266 119 27484 133
internal_value=-0.000127099 -0.00348085 0.00400335 0.0063315 0.00343143 0.0149596 0.0249939 0.0486902 0.000155999 0.00925372 -0.00189594 0.0327381 -0.0098103 0.00108108 0.00940973 -0.0186874 -0.0218122 -0.0133984 0.0111428 0.0196928 0.0304873 0.0220755 0.00832874 -0.00174203 -0.00190013 -0.0119423 -0.0206311 -0.00305286 -0.00132659 0.0183006
internal_weight=7495.8 4136.85 3358.94 2092.63 1305.64 170.098 107.451 44.726 1266.31 233.047 1033.27 60.164 891.546 172.883 109.753 209.785 189.659 63.1305 786.988 194.883 101.039 79.3765 592.105 3245.31 3231.13 174.571 108.394 40.8009 3056.56 49.1437
internal_count=64160 38954 25206 14897 9488 1026 652 268 10309 1823 8486 408 9295 1415 890 2194 1989 525 5409 1295 653 502 4114 29659 29530 1659 1011 385 27871 387
is_linear=0
shrinkage=0.05


Tree=26
num_leaves=31
num_cat=0
split_feature=11 8 2 2 9 8 1 9 7 8 10 11 11 13 9 14 4 10 3 2 8 11 11 6 6 5 9 8 10 8
split_gain=41.6913 20.0103 12.7973 10.1131 9.0825 9.19726 8.67209 8.91236 8.54418 7.74935 8.02891 7.74854 8.1765 7.53242 9.66202 8.41535 7.53061 10.5083 10.476 10.0602 9.23166 8.0612 7.98825 7.27467 7.02684 7.11679 6.89743 6.88569 6.77891 6.7366
threshold=0.13008110224120922 -1.377174791016633 5.8843004369149945 0.084113098643384662 -0.09594888720111909 -1.9304464143630105 0.56126876512823298 -1.171147748876155 -0.0069696931533505995 -3.5128994267624263 8.038851197187844 0.11677374296561747 0.10998007717428841 -0.048262958251950344 -0.13271051386249524 4.296721162092898 0.055395270114976809 1.1610109191627476 0.5632648643054905 3.0492092818410801 -2.1922364430563221 0.518576992544314 0.2092719678540049 0.0061940227808897508 -0.0015022445276024498 -0.32217679935102622 -0.40102844202302296 5.4316200221324342 2.9286330065367769 -2.7507093774844198
decision_type=10 10 10 8 8 10 2 10 8 10 10 10 8 8 10 8 10 8 8 10 10 10 10 10 10 8 10 10 10 8
left_child=2 6 13 -3 8 -6 7 -2 -4 24 28 12 -7 14 -1 -16 -8 19 20 21 29 22 -18 26 25 -9 -24 -15 -11 -19
right_child=1 3 4 -5 5 11 16 9 -10 10 -12 -13 -14 27 15 -17 17 18 -20 -21 -22 -23 23 -25 -26 -27 -28 -29 -30 -31
leaf_value=-0.026788163253547881 0.034513586478295069 0.024436371730248003 0.019352694954744117 -0.00014482268042280246 0.029265735875502182 -0.0076453626985947768 0.017863717770538547 -0.0077654082746587529 -0.021197734753624367 0.0022636946737208102 0.03454574576619901 0.017064975870255222 -0.038512476771204784 -0.00106543165469646 -0.0094448752423864878 0.012660549211464842 0.021585655361464954 0.019134228850031527 -0.0099633687250015243 -0.032038381987005732 0.013812557489180463 0.029485517537194868 0.01027478206801136 0.02711007376258126 -0.0082516797870398478 0.022624301692262351 -0.012339921908275282 -0.038923205109374928 -0.014903325826911874 0.059714107533634223
leaf_weight=64.007186621427536 24.031195282936096 42.59231598675251 13.914642311632631 2376.5679687708616 17.411765772849321 616.50685825943947 286.24946776032448 22.860593169927597 195.55114791542292 751.776915833354 18.181731350719929 30.529478304088116 22.22788168489933 2090.1126441434026 227.37400467693806 53.11080926656723 40.059789948165417 16.914542622864246 25.594591245055199 20.4050208106637 65.555562540888786 28.551153466105461 46.279214799404144 18.132908895611763 31.361161895096302 122.48895384371281 124.20970697700977 12.08036947250366 62.268686547875404 25.868460312485695
leaf_count=591 153 309 147 20047 167 6568 1776 135 2085 5492 124 298 221 19172 2102 500 300 103 179 160 452 163 298 123 204 715 827 136 444 169
internal_value=-0.000122701 0.0032247 -0.00427832 0.00028796 -0.00939011 -0.00660998 0.00732943 0.00442047 -0.018504 0.0037037 0.0016845 -0.00754334 -0.00871953 -0.00240604 -0.00925926 -0.00525913 0.0116355 0.00730376 0.0188067 0.00175471 0.0256035 0.00443535 0.00130781 -0.00299883 0.0132133 0.0178446 -0.00620116 -0.00128298 0.00095054 0.0436706
internal_weight=7492.78 4149.95 3342.83 2419.16 896.142 686.676 1730.79 1032.97 209.466 1008.94 832.227 669.264 638.735 2446.69 344.492 280.485 697.82 411.571 133.933 277.638 108.339 257.233 228.682 188.622 176.711 145.35 170.489 2102.19 814.046 42.783
internal_count=64160 32173 31987 20356 9486 7254 11817 7267 2232 7114 6060 7087 6789 22501 3193 2602 4550 2774 903 1871 724 1711 1548 1248 1054 850 1125 19308 5936 272
is_linear=0
shrinkage=0.05


Tree=27
num_leaves=31
num_cat=0
split_feature=11 11 2 6 0 0 6 11 15 9 15 10 6 5 4 9 5 15 10 2 2 0 13 9 15 14 11 10 4 15
split_gain=37.6694 15.0669 11.7256 8.09971 9.34244 11.1851 12.836 11.0577 11.3076 8.36079 7.97155 11.2931 11.5958 9.95313 7.6798 7.48006 13.4305 8.78402 7.50303 9.61904 11.7546 9.38335 7.02324 9.1816 7.95696 7.57135 6.95696 6.80339 7.22257 6.98218
threshold=0.13008110224120922 0.35829839635578903 5.6851396414534383 -0.051047747034920245 0.36353579609615966 0.21626806875788093 -0.025517101645590599 0.65113417472844326 2.4687399706092115 0.80571151799287577 2.6306391644022304 0.98861387201536066 0.0093436834176449015 0.067533899513557066 0.6572029518294753 -0.10422860379813784 -0.29311778059902188 4.8525796876575251 0.62388120396025981 2.1174115347922231 1.8245918676052884 0.23113424014873768 -0.048262958251950344 -0.13271051386249524 2.4510301922094677 4.296721162092898 0.053311005400724455 1.0627700117106536 1.7681111410882229 3.0287020159920384
decision_type=10 10 10 8 10 8 8 10 10 10 8 10 8 10 10 10 8 10 8 8 10 10 8 10 10 8 8 10 10 10
left_child=2 10 22 -3 5 7 -7 9 -9 -5 11 12 -2 -13 -8 16 -12 -18 19 20 21 -17 23 -1 26 -25 -24 -26 29 -29
right_child=1 3 -4 4 -6 6 14 8 -10 -11 15 13 -14 -15 -16 18 17 -19 -20 -21 -22 -23 24 25 27 -27 -28 28 -30 -31
leaf_value=-0.026307767325457324 0.0018864596542332143 0.019223485342398764 -0.0087538467990474194 -0.00075382080480970075 -0.023979417842834125 -0.011409108874551918 0.037980831175182896 -0.0052118662185082591 0.041308227192626473 0.030264708641042467 -0.0089811062264481666 -0.0038453469775165624 0.047676893843905097 -0.021871144932461187 0.0046898923714571925 -0.023935340040755749 0.0072315582690538954 0.031984134296101634 0.0016388458312532304 -0.032726442643160693 0.040602167258102055 0.022128020856049826 -0.014053799153872568 -0.0090134053293489131 -0.0066501821100571068 0.012051998147314828 0.0037528320012961847 -0.01045873844533465 -0.029475296851260414 0.0059254913009380945
leaf_weight=61.752397775650024 273.77957785129547 166.82819037884474 956.46716520190239 350.518694460392 23.778637081384659 23.465701088309288 71.49434457719326 20.247372701764107 36.81129364669323 23.159642271697521 129.15815524756908 270.84840472787619 14.561125844717024 106.76593390852213 22.863591879606247 40.294916555285454 896.24179722368717 37.335114724934101 1583.9379654824734 36.86931761354208 13.577677614986895 15.236020818352698 58.851676568388939 222.48251768946648 747.14098908007145 52.773342795670033 807.1993208527565 81.24916534870863 18.277580797672272 325.63316932320595
leaf_count=581 2174 995 10158 2218 143 138 406 103 185 149 1005 2297 117 921 141 298 7138 297 12923 302 109 114 584 2069 6890 491 7072 801 176 3165
internal_value=-0.000118278 0.003056 -0.00407945 0.00952898 0.00670318 0.00803319 0.0216843 0.00429908 0.0248005 0.00116863 0.00165642 -0.00325232 0.00419886 -0.00894193 0.0299142 0.00284401 0.00613076 0.00822145 0.00077707 -0.012103 -0.00110039 -0.0112969 -0.00219725 -0.00888367 -0.00109176 -0.00497465 0.0025428 -0.00377684 0.00127255 0.00265377
internal_weight=7489.6 4157.77 3331.83 739.167 572.339 548.561 117.824 430.737 57.0587 373.678 3418.61 665.955 288.341 377.614 94.3579 2752.65 1062.74 933.577 1689.92 105.978 69.1086 55.5309 2375.36 337.008 2038.35 275.256 866.051 1172.3 425.16 406.882
