tree
version=v4
num_class=1
num_tree_per_iteration=1
label_index=0
max_feature_idx=16
objective=binary sigmoid:1
feature_names=StkIndx STInt dtdlevel dtdtrend liqnonfinlevel liqnonfintrend ni2talevel ni2tatrend sizelevel sizetrend m2b sigma liqfinlevel lqfintrend DTDmedianFin DTDmedianNonFin dummyfin/SOE
feature_infos=[0.067965013074865605:0.34387427347812788] [1.1064314973638349:2.4784678473921922] none none [-2.2287747776343916:4.7029922587445689] [-2.5399134839828506:2.6548951695434773] [-0.29912764003673092:0.2435438488950723] [-0.21958783555995301:0.18705947707717621] [-6.4554293135948857:6.4410389917475124] [-1.9644005129906419:2.0913707536180755] [0.1401237487182776:66.103554400942357] [0.0190746353203116:1.199963377212198] [-9.2992491441828395:-0.10962478855492649] [-3.2431249520210761:3.3481773469862399] none none none
tree_sizes=3385 3510 3511 3515 3513 3507 3535 3521 3492 3509 3537 3520 3513 3518 3492 3498 3503 3500 3463 3505 3497 3508 3502 3504 3506 3503 3489 3501 3513 3479 3508 3509 3515 3540 3503 3497 3517 3480 3481 3484 3494 3496 3511 3536 3516 3500 3499 3513 3507 3491 3503 3515 3499 3517 3494 3483 3489 3505 3510 3490 3482 3465 3477 3512 3482 3487 3508 3509 3504 3491 3499 3507 3489 3486 3500 3497 3516 3492 3472 3499 3495 3496 3463 3473 3494 3498 3504 3490 3511 3506 3479 3489 3483 3497 3484 3491 3496 3497 3511 3482 3491 3504 3493 3507 3531 3521 3525 3489 3486 3506 3520 3511 3509 3508 3525 3514 3498 3513 3541 3499 3491 3498 3501 3503 3471 3471 3488 3457 3480 3480 3500 3499 3522 3497 3509 3541 3507 3509 3513 3519 3480 3504 3498 3495 3488 3495 3506 3492 3494 3490 3502 3531 3522 3507 3514 3491 3474 3498 3497 3494 3526 3515 3524 3522 3518 3493 3503 3502 3501 3501 3516 3517 3509 3515 3515 3494 3504 3528 3517 3525 3506 3494 3483 3480 3518 3504 3492 3481 3507 3497 3497 3474 3506 3512 3503 3477 3522 3463 3525 3504

Tree=0
num_leaves=31
num_cat=0
split_feature=5 9 11 0 10 11 10 10 7 9 0 8 9 12 10 10 10 11 10 10 10 5 11 8 8 7 8 9 1 9
split_gain=20.0878 11.9363 14.0841 13.769 13.8461 20.1213 8.5718 8.01055 7.87274 7.74022 9.57656 13.0788 12.9938 18.4462 10.9008 7.54333 7.5298 6.66111 6.30144 9.23887 6.9832 6.16907 6.16852 9.7975 6.14869 6.6148 6.03131 6.58001 12.148 10.2767
threshold=-0.20678447589292168 -0.061220954478295946 0.50965116331194216 0.22133582493051804 0.67768839993887875 0.27355534048905344 1.1053663386427248 0.78825197174346961 -0.0010264980796233496 -0.014734396609340649 0.15241968746743514 0.20758985514012712 0.4424453990941361 -1.9869406753786902 3.8254275691465085 0.73426864217288046 0.62660086808696036 0.048963746749858851 0.87620868530371643 0.90795140459339885 0.97043226158710449 -0.034032658287755889 0.10368013873527997 -0.95185682035423369 0.28926933206940175 -0.0044867199961700988 -2.1914127640732759 0.49701997537338366 2.2065887520004961 0.47668588916329252
decision_type=8 8 10 8 10 10 10 10 10 8 10 10 10 10 10 8 10 10 8 8 8 8 10 10 10 8 10 10 2 10
left_child=-1 3 9 4 5 22 -6 -5 -8 21 11 -11 -12 14 15 -14 -4 -13 -17 -20 -21 -3 -2 -24 -19 -26 -22 28 29 -28
right_child=1 2 16 7 6 -7 8 -9 -10 10 12 17 13 -15 -16 18 -18 24 19 20 26 -23 23 -25 25 -27 27 -29 -30 -31
leaf_value=-2.9396918733414918 -2.8694104666576261 -2.8707712754911889 -2.8150458458814942 -2.9063991155433957 -2.9067511439635401 -2.9254942699984081 -2.9043397897191161 -2.93769156519296 -2.8410711276019138 -2.9119777916239555 -2.9181291071038493 -2.9126496555439951 -2.8427302393115905 -2.827776963261555 -2.9530779606337356 -2.9316424149839921 -2.8884495268426829 -2.8593317910731986 -2.8387464135544316 -2.945244725874522 -2.9343830187513511 -2.9258376540891535 -2.8532109693800365 -2.7702528097143118 -2.843481152256643 -2.899785050790439 -2.9176245578842077 -2.90602084956988 -2.8298423328817255 -2.8565612909407165
leaf_weight=63.922190308570862 8.8455018699169177 5.2779790163040161 4.9847579598426845 109.12710317969322 74.038316756486893 8.747761517763136 8.9921123981475848 25.168140679597855 10.849179089069365 1186.3235242664814 896.03467836976051 92.706724017858505 4.8870176076889029 7.6237474679946891 12.070933490991591 20.672084480524063 11.679972082376478 10.360477328300474 5.5223298966884604 9.8717755675315839 12.852856308221815 139.91531410813332 8.0147088766098005 6.4019930660724631 5.3268491923809052 251.82801732420921 19.841291487216953 88.259537994861603 8.8455018699169141 10.55595803260803
leaf_count=1308 181 108 102 2233 1515 179 184 515 222 24275 18335 1897 100 156 247 423 239 212 113 202 263 2863 164 131 109 5153 406 1806 181 216
internal_value=-2.91195 -2.91137 -2.91232 -2.90113 -2.88925 -2.86085 -2.89893 -2.91226 -2.86974 -2.9126 -2.91198 -2.90944 -2.91555 -2.90406 -2.90707 -2.90401 -2.86649 -2.9011 -2.9057 -2.90226 -2.9046 -2.92384 -2.83654 -2.81637 -2.8971 -2.89862 -2.90174 -2.89845 -2.88141 -2.89642
internal_weight=3129.55 3065.63 2805.44 260.185 125.89 32.01 93.8796 134.295 19.8413 2788.78 2643.58 1546.55 1097.04 201.003 193.379 181.308 16.6647 360.222 176.421 155.749 150.227 145.193 23.2622 14.4167 267.515 257.155 140.355 127.502 39.2428 30.3972
internal_count=64038 62730 57406 5324 2576 655 1921 2748 406 57065 54094 31646 22448 4113 3957 3710 341 7371 3610 3187 3074 2971 476 295 5474 5262 2872 2609 803 622
is_linear=0
shrinkage=1


Tree=1
num_leaves=31
num_cat=0
split_feature=5 9 11 0 7 11 8 12 9 1 9 1 12 13 12 0 7 8 11 11 5 5 5 4 11 0 9 9 12 8
split_gain=18.5505 10.6011 12.1432 11.9824 9.0967 9.65613 7.23148 9.35054 7.91503 6.48361 9.20237 8.98527 7.08576 8.9381 12.2191 6.39519 9.99442 6.24827 5.24693 7.02037 11.8065 5.55355 8.15188 8.61096 5.12629 5.00999 8.54376 9.91233 5.67661 5.66087
threshold=-0.20678447589292168 -0.061220954478295946 0.50965116331194216 0.22133582493051804 0.0016263240045463502 0.15453062610429544 -0.43703429878467032 -1.5453293437551074 0.90953554351427968 1.728844009470879 0.067285155729310556 1.5791600204212803 -4.3205698754584807 -0.13374046146458204 -2.3410606732101171 0.15899152610897746 -0.0054898314842376991 -1.1242139343555406 0.084497496765586613 0.090498617357599218 -0.099730637750867476 0.10256979796797906 0.14550602899189838 0.47579677969575923 0.087266804098944412 0.15241968746743514 0.4424453990941361 0.45358674791945802 -1.5453293437551074 -0.099300736932589437
decision_type=8 8 10 8 8 8 8 10 10 2 10 2 8 8 8 10 8 10 8 8 10 10 8 8 10 8 10 10 10 10
left_child=-1 3 6 4 15 -6 7 18 9 10 -8 -12 -11 14 -14 -2 -17 -18 -3 20 24 -21 -23 -24 -20 -15 28 -28 -27 -29
right_child=1 2 -4 -5 5 -7 8 -9 -10 12 11 -13 13 25 -16 16 17 -19 19 21 -22 22 23 -25 -26 26 27 29 -30 -31
leaf_value=-0.026200074376027047 0.0061337931071354622 -0.01920396134258252 0.042107484233681651 0.00049487238957060704 0.087901119844028736 0.02760150499547644 0.0045902706523072876 0.053784327839761198 0.063802233311860759 0.037857732868120629 0.044367673088403545 -0.018257213512145053 -0.0041537027820419611 0.0049509796654332817 0.099586905477436358 0.09922212683694788 -0.012407503884976991 0.042774015934577941 0.019158110292194858 -0.0045439803294403383 -0.033362359043899149 0.061110476454147661 0.058813167379439479 -0.017079557438319563 0.087150382842488425 -0.00373104491679242 0.061598651369145288 0.036450478721514877 -0.046355055923590766 0.0016997995668631726
leaf_weight=62.395945206284523 69.602972947061062 53.718871891498566 17.376294199377298 134.36550942435861 9.2332752980291826 23.631015624850988 532.20173284783959 7.0405368953943244 5.1488489545881739 12.145447120070456 27.289132513105869 7.2491750977933398 6.1763876713812351 287.74759404361248 5.2522032186388952 4.9352051243185997 8.6733566001057678 12.556742057204245 4.8703096471726912 764.02229454368353 5.1686747148632994 7.9069712832570076 4.9315436817705631 15.437773000448948 6.4350371286273003 915.68380715325475 8.7448677979409677 13.453677743673323 7.8784511089324942 90.899725522845984
leaf_count=1308 1400 1101 341 2748 179 471 10881 143 105 249 554 147 126 5846 107 100 175 251 100 15667 106 162 101 317 132 18771 177 273 162 1838
internal_value=0.000789727 0.00133832 0.000438894 0.0109372 0.0218449 0.0445428 0.000179324 -0.00360354 0.00189263 0.00172615 0.00621335 0.0312235 -0.000160432 -0.000506094 0.0435221 0.0140558 0.0351293 0.0202301 -0.004072 -0.00306693 0.0292389 -0.00373866 0.018021 0.00129456 0.0578595 -0.000886022 -0.00250621 0.010465 -0.00409465 0.00618
internal_weight=3132.17 3069.78 2806.78 262.998 128.633 32.8643 2789.4 869.532 1919.87 1914.72 566.74 34.5383 1347.98 1335.84 11.4286 95.7683 26.1653 21.2301 862.491 808.773 16.474 792.299 28.2763 20.3693 11.3053 1324.41 1036.66 113.098 923.562 104.353
internal_count=64038 62730 57406 5324 2576 650 57065 17829 39236 39131 11582 701 27549 27300 233 1926 526 426 17686 16585 338 16247 580 418 232 27067 21221 2288 18933 2111
is_linear=0
shrinkage=0.05


Tree=2
num_leaves=31
num_cat=0
split_feature=5 9 11 9 10 9 4 11 8 10 10 11 6 7 8 10 5 10 1 6 4 10 1 8 8 4 6 8 5 10
split_gain=17.1234 9.43728 10.5309 7.01785 7.75438 9.3627 7.48399 6.05214 12.5889 7.23536 6.59094 7.19028 6.99044 10.5275 7.24368 6.04267 6.25961 13.4156 5.67325 8.89714 6.86271 8.49934 8.28843 6.48525 6.28519 8.70983 14.5556 7.66465 9.80011 12.7843
threshold=-0.20678447589292168 -0.061220954478295946 0.50965116331194216 -0.014734396609340649 4.0676393191671254 1.1413455606123957 0.44256303441344297 0.20606770650239797 -2.3788188221888862 1.1316602906320041 0.67023807373976341 0.14708122565327217 -0.0019235394369069997 0.0016263240045463502 -0.41730543559575156 0.71706401625542593 -0.052900732675120091 0.56420222488671612 2.015771763279091 -0.016596078565344997 0.97202458558419325 3.1766838507284696 2.0181795486257337 0.56948516532458782 2.172281144522699 0.62148597495695479 0.0078858316946362524 0.89904490750752708 3.4694469519536148e-17 1.0950094694071506
decision_type=8 8 10 8 10 10 8 10 10 10 8 8 8 10 10 8 10 10 2 8 8 10 2 8 10 10 10 8 10 10
left_child=-1 7 3 6 5 18 -3 8 -2 15 11 -10 -12 14 -14 16 17 -9 19 -5 21 24 23 -22 27 -26 -27 28 -20 -30
right_child=1 2 -4 4 -6 -7 -8 9 10 -11 12 -13 13 -15 -16 -17 -18 -19 20 -21 22 -23 -24 -25 25 26 -28 -29 29 -31
leaf_value=-0.025500180229048781 0.067493004688176053 0.039708087288775742 0.03849224013388957 0.064047233354739511 -0.025579978542741483 0.060383291627770445 -0.013181009947264403 -0.02264843899939583 0.085407573923081515 0.04686408455294961 -0.027557883511142734 0.0053194413702545903 0.023573289527716829 0.079031492324428937 0.00093047457128013337 -0.016323205228224648 -0.027991404525980052 0.07032769228236227 -0.0022923946689520458 0.0029928564100203882 -0.025961381062797093 0.067351969734126702 -0.0017376256397135985 -0.001770227637240469 0.0084584142731764077 0.11045764240197808 0.006774809531607715 -0.014485700199254235 0.0016298393514212817 0.051752608681876783
leaf_weight=60.940597593784332 10.807621210813521 7.0328118540346622 18.039836540818214 5.9954056143760681 27.667800661176443 6.6274376586079589 136.69580184295774 6.636231359094384 6.1431467533111546 7.0201600529253474 11.878491465002297 5.1536328196525583 57.631285734474659 5.6835845150053492 91.242977675050497 48.033959951251745 6.0545834675431243 9.3407570980489236 114.03205628320575 1259.851325891912 67.286067992448807 5.4125383645296088 929.94620622321963 47.096400614827871 53.108335543423891 6.1280365139245969 7.5621141605079174 64.063636876642704 28.518112681806087 22.96720365062356
leaf_count=1308 216 144 341 123 572 133 2827 133 117 138 236 100 1159 109 1836 971 122 187 2334 25685 1379 110 19084 960 1080 125 154 1306 583 466
internal_value=0.000744971 0.00126533 0.000413208 0.000166992 0.000751413 0.00102963 -0.0105931 0.0102734 0.0150992 -0.00152995 0.0119133 0.0488711 0.00940476 0.0122455 0.00969582 -0.00637876 0.0153025 0.031709 0.000879028 0.00328203 -0.00138067 0.00526043 -0.00329983 -0.0160008 0.00412651 0.0176251 0.0531857 0.000198969 0.00588268 0.0239892
internal_weight=3134.6 3073.66 2808.03 2789.99 2646.26 2618.59 143.729 265.626 188.541 77.0857 177.733 11.2968 166.436 154.558 148.874 70.0655 22.0316 15.977 2611.97 1265.85 1346.12 301.792 1044.33 114.382 296.379 66.7985 13.6902 229.581 165.517 51.4853
internal_count=64038 62730 57406 57065 54094 53522 2971 5324 3773 1551 3557 217 3340 3104 2995 1413 442 320 53389 25808 27581 6158 21423 2339 6048 1359 279 4689 3383 1049
is_linear=0
shrinkage=0.05


Tree=3
num_leaves=31
num_cat=0
split_feature=5 9 0 10 11 11 10 10 10 10 9 0 8 9 10 13 10 4 6 7 11 7 10 10 4 6 11 9 6 10
split_gain=15.7981 8.39053 10.142 9.8995 14.3955 9.16543 7.22998 7.22691 13.4218 7.51914 6.39203 7.90826 10.9361 10.4736 10.8613 7.96689 8.53824 6.65299 6.4931 6.07643 5.81401 5.72384 5.66134 7.81001 6.95252 7.96571 6.81095 6.7321 9.34888 8.56877
threshold=-0.20678447589292168 -0.061220954478295946 0.22133582493051804 0.67768839993887875 0.28415720872507827 0.50965116331194216 0.78825197174346961 0.89317063240894889 0.92411379109097258 1.1053663386427248 -0.014734396609340649 0.15241968746743514 0.20758985514012712 0.4424453990941361 3.8254275691465085 0.44656761192868394 0.88595848692407875 0.44256303441344297 -0.016596078565344997 -0.0010264980796233496 0.048963746749858851 -0.0011301210191755997 0.72232428724789377 0.87620868530371643 0.97202458558419325 -0.0037743269416442996 0.13620848167324665 0.54608434319478238 0.0032512626560687002 1.9406008905693903
decision_type=8 8 8 10 10 10 10 10 10 10 8 10 10 10 10 8 8 8 8 10 10 10 10 10 8 10 10 10 10 10
left_child=-1 2 3 4 -2 10 -4 -5 -9 -10 17 12 18 -13 15 16 -15 -3 -12 -11 21 -14 26 -24 25 -25 -17 28 -27 -30
right_child=1 5 6 7 -6 -7 -8 8 9 19 11 13 20 14 -16 22 -18 -19 -20 -21 -22 -23 23 24 -26 27 -28 -29 29 -31
leaf_value=-0.024804492937517301 0.059799338698272302 0.036371124860579793 0.0054866264075851597 -0.00094821116835177698 -0.01597926732702943 0.035309811003666473 -0.02439965383691578 0.10210754934276789 -0.0086076220442144295 0.0058210721503018275 0.051594558065088385 -0.0048978205649882903 0.005883965463362055 0.019352723905748562 -0.039538999024784333 0.083803046400570902 0.09055277370957876 -0.012675108711364156 0.00040558801758097695 0.059557452342063846 0.014235476480613156 -0.025339952122905785 -0.032992040671811683 0.075289748768682718 -0.0051312486291357484 -0.021913880170956735 0.0031684341611736572 -0.002003479635821715 0.050057321875010878 -0.011106371026878873
leaf_weight=59.553072810173035 27.007830061018467 7.2872444242238998 110.73110141977668 53.994325079023838 8.1609706953167898 18.665490578860044 24.761685844510794 5.1643507555127135 16.965982977300882 9.3741460144519806 6.2275873757898808 888.21046167984605 75.062027733772993 14.549051988869907 11.504460476338862 5.1229129955172521 5.9255437776446334 135.08605575561523 1182.9653470590711 11.989138826727867 273.06893625482917 18.245136089622974 12.690494641661642 5.4660863988101474 60.897900227457285 8.1013266853988153 5.3575928620994091 39.380910638719797 28.187459912151098 7.1861109770834437
leaf_count=1308 489 144 2233 1075 166 341 515 103 337 184 125 18335 1527 289 247 101 115 2827 24150 222 5474 370 262 110 1233 163 106 788 558 141
internal_value=0.000702444 0.00119606 0.00964649 0.0194739 0.0422148 0.000389426 2.48251e-05 0.0112701 0.0264382 0.0162428 0.000155848 0.000710716 0.00300064 -0.00254958 0.00765609 0.0104713 0.0399587 -0.0101647 0.000673655 0.0359781 0.0105536 -0.00022151 0.00696911 0.00466381 0.00786628 0.0168281 0.042583 0.0129713 0.0265359 0.037632
internal_weight=3136.89 3077.34 268.15 132.657 35.1688 2809.19 135.493 97.4879 43.4936 38.3293 2790.52 2648.15 1555.57 1092.58 204.37 192.865 20.4746 142.373 1189.19 21.3633 366.376 93.3072 172.391 161.91 149.22 88.3219 10.4805 82.8558 43.4749 35.3736
internal_count=64038 62730 5324 2576 655 57406 2748 1921 846 743 57065 54094 31646 22448 4113 3866 404 2971 24275 406 7371 1897 3462 3255 2993 1760 207 1650 862 699
is_linear=0
shrinkage=0.05


Tree=4
num_leaves=31
num_cat=0
split_feature=5 9 0 10 11 11 10 10 7 10 10 0 10 9 9 0 9 7 12 7 4 9 11 4 12 11 9 6 1 10
split_gain=14.568 7.47028 8.88611 8.35102 12.0246 8.00248 6.64323 6.31738 7.87489 12.0597 7.04453 6.5136 6.11498 7.83157 6.11197 6.89011 10.9346 10.1248 9.7951 8.72263 8.95549 7.91547 11.2672 5.97563 5.85114 5.73471 8.23032 7.55678 7.09303 5.51374
threshold=-0.20678447589292168 -0.061220954478295946 0.22133582493051804 0.67768839993887875 0.28415720872507827 0.50965116331194216 0.78825197174346961 0.87620868530371643 -0.0023607352762762992 0.92183119686652859 1.1053663386427248 0.11663758567085601 4.0676393191671254 1.1413455606123957 -0.014734396609340649 0.15241968746743514 0.4424453990941361 -0.0011301210191755997 -1.9869406753786902 -0.0018492895936687997 0.47579677969575923 0.13608499978913188 0.14708122565327217 0.44256303441344297 -0.77654712943739923 0.048352204463376007 0.034243649158650712 6.4960117856966145e-05 1.1134542046248754 1.1376007472747303
decision_type=8 8 8 10 10 10 10 10 10 10 10 10 10 10 8 10 10 8 10 10 10 8 10 8 8 10 10 8 2 10
left_child=-1 2 3 4 -2 12 -4 11 -9 -10 -11 -5 13 14 23 17 -17 19 -18 21 -21 22 -16 -3 -13 26 28 29 -19 -27
right_child=1 5 6 7 -6 -7 -8 8 9 10 -12 24 -14 -15 15 16 18 25 -20 20 -22 -23 -24 -25 -26 27 -28 -29 -30 -31
leaf_value=-0.02411364988016361 0.053825058041531149 0.033421731877548204 0.0051860904702881704 -0.022576565210187752 -0.015405212098161501 0.03248914971546147 -0.023707796022629044 -0.005259104765328996 0.10662496032569156 -0.0051792379914837689 0.046766349166748614 0.061474379442742137 -0.023370250825577036 0.052886646358104451 0.0064114435970608731 -0.0046688416404967936 0.0061167719907044595 0.015800892102033968 0.061743280995836924 0.09124452649640033 0.011843849337812566 -0.010928122442560044 0.086027192601429756 -0.012371585043168831 0.0032192280688775493 -0.033039458648891733 -0.013372136886285295 0.0076217799061822078 -2.5756533422298264e-05 0.01235495555181061
leaf_weight=58.230408266186714 28.46509788185358 7.5273104049265385 111.27619332075119 21.517061024904251 8.0448431782424432 19.255735166370869 24.223964057862759 15.757133319973944 5.3247697278857258 11.548060446977617 15.010120324790476 5.2495844624936581 27.374962583184242 7.0829147435724726 12.665084239095455 875.87354787811637 183.30934303626418 78.056059747934341 8.270875081419943 8.3318034783005697 6.1893005035817614 19.109339781105515 6.845855336636304 132.93705654889345 24.091320183128122 20.292810369282964 105.4767809920013 520.80568353459239 760.88250155001879 9.9786824360489828
leaf_count=1308 489 144 2233 431 166 341 515 309 100 230 269 104 585 133 252 18156 3661 1585 150 167 124 382 139 2814 478 411 2158 10493 15511 200
internal_value=0.000662248 0.00113054 0.00906637 0.0181451 0.0385704 0.000366663 2.06022e-05 0.0105741 0.0236575 0.0379485 0.0241793 -0.00168137 0.000145044 0.000377973 0.000243052 0.000788602 -0.0023021 0.00291898 0.00851827 0.0243659 0.0574017 0.0119446 0.0343464 -0.00991758 0.0136421 0.00215688 -0.000208269 0.00621018 0.00144678 -0.0180757
internal_weight=3139 3080.77 270.508 135.008 36.5099 2810.27 135.5 98.498 47.6401 31.883 26.5582 50.858 2791.01 2763.63 2756.55 2616.09 1067.45 1548.63 191.58 53.1414 14.5211 38.6203 19.5109 140.464 29.3409 1495.49 944.415 551.077 838.939 30.2715
internal_count=64038 62730 5324 2576 655 57406 2748 1921 908 599 499 1013 57065 56480 56347 53389 21967 31422 3811 1064 291 773 391 2958 582 30358 19254 11104 17096 611
is_linear=0
shrinkage=0.05


Tree=5
num_leaves=31
num_cat=0
split_feature=5 10 8 6 5 4 4 13 12 6 6 9 9 6 6 8 8 10 8 10 6 6 5 10 8 8 6 7 9 6
split_gain=8.79288 9.09396 8.22637 7.02969 7.6147 7.02686 6.8404 6.27453 7.16122 6.51781 6.68575 5.36065 8.22091 5.11564 7.84981 4.93652 6.99383 6.15825 4.92087 4.87475 4.82986 4.84531 4.67086 8.0318 10.3239 4.46188 5.80621 9.00161 6.66506 6.0292
threshold=-0.18580784025316807 0.72613145876895757 -2.5603409416369187 0.0076834805151901513 -0.048846248133898394 0.85973769955512591 1.4463338632787874 -7.7715611723760948e-16 -3.3311358753425542 -0.0011937051972690498 0.0011495802816182002 0.14964673785189539 0.063497932330607368 0.005715116062934701 0.0043770408545389513 -0.62173447719643404 -1.8266367902775456 0.67023807373976341 -2.5261532732209377 0.89063299779439875 -0.04127853619795064 -0.024335537642324996 0.29331013910645048 1.581439631664433 -0.15755803769247317 -0.52808698165099643 0.0085308302037160524 -0.0078822361578564492 0.53645769082092165 0.015913142717161554
decision_type=8 8 8 10 8 8 10 8 8 8 10 10 10 8 8 8 10 10 10 10 8 8 10 10 10 8 10 8 10 10
left_child=-1 3 5 4 -2 19 20 -6 -9 11 -11 12 -10 14 15 16 -12 -18 -13 -3 -4 -22 25 24 -24 -23 27 -27 29 -28
right_child=1 2 6 -5 7 -7 -8 8 9 10 13 18 -14 -15 -16 -17 17 -19 -20 -21 21 22 23 -25 -26 26 28 -29 -30 -31
leaf_value=-0.018617140373653671 0.065101108159976773 0.050641866243867607 0.044639733265215233 0.057770208979637097 -0.044182425650339287 -0.016810077089489374 -0.014172108773102016 0.068452963826498459 0.022762653077336423 -0.025568776706700481 -0.010777725242376883 0.088688554082942697 -0.04378640882059065 -0.035437046904913935 0.063398113810779158 -0.03192862829366467 0.0089380976154596389 0.08475130480024344 0.022778082584955145 -0.00499212026682435 -0.036196275547123978 -0.0031790383149477327 0.057606478683719403 0.067312568388484317 -0.034076245943277725 0.055677026908876284 -0.016701069341062948 0.0019784960579096811 0.025214746380241061 0.011795990680121533
leaf_weight=65.024649418890476 5.9311849549412727 6.7727200649678734 6.1546082757413387 8.134455379098652 5.6897989995777607 119.72262191399932 83.028359245508909 4.9475451335310936 27.106102913618088 22.001648470759392 11.904103204607964 4.9483843967318535 5.599220559000968 5.756064496934413 6.8815574385225728 7.192693602293736 5.6522505097091198 5.091421365737915 6.6208577305078489 9.4053929559886438 9.0656569041311723 704.42958794161677 4.9819626584649095 7.076077200472354 8.0027826875448227 7.8377133198082447 106.79966115579009 1832.0270466282964 13.466084562242029 22.465208414942026
leaf_count=1465 115 139 122 160 109 2450 1705 99 534 437 240 100 115 115 136 145 108 104 135 186 185 14420 100 141 159 158 2167 37220 273 457
internal_value=-0.000422142 -3.73477e-05 -0.000616579 0.0127282 0.00980461 -0.0126307 -3.45725e-05 0.00705757 0.00962169 0.00694529 -0.00319763 0.021717 0.0113693 0.00838957 0.0152593 0.00415788 0.0156186 0.0448659 0.0509692 0.0182982 0.000396612 0.00029636 0.000418569 0.0244555 0.00110041 0.000239114 0.00145361 0.00220725 -0.00826117 -0.0117485
internal_weight=3139.72 3074.69 2941.24 133.457 125.323 135.901 2805.33 119.392 113.702 108.754 64.4797 44.2746 32.7053 42.4781 36.722 29.8405 22.6478 10.7437 11.5692 16.1781 2722.31 2716.15 2707.09 20.0608 12.9847 2687.03 1982.6 1839.86 142.731 129.265
internal_count=63999 62534 59882 2652 2492 2775 57107 2377 2268 2169 1285 884 649 848 733 597 452 212 235 325 55402 55280 55095 400 259 54695 40275 37378 2897 2624
is_linear=0
shrinkage=0.05


Tree=6
num_leaves=31
num_cat=0
split_feature=10 10 8 1 1 9 10 7 11 9 8 5 11 1 9 10 11 9 8 0 13 0 13 7 11 5 0 13 8 8
split_gain=8.66904 6.90628 7.81746 8.86521 8.72661 12.1586 7.21944 6.67792 6.40852 9.31037 8.47052 6.36658 6.33798 6.07256 5.87347 14.2518 6.34371 6.03116 5.76242 5.40115 5.1551 5.14491 6.49027 5.85201 6.74837 5.89579 5.43447 8.18703 7.01846 7.23263
threshold=4.0676393191671254 0.72613145876895757 -0.52808698165099643 1.3532294953946746 1.5791600204212803 0.10059518017462916 3.4597761925872201 -0.017994636414757396 0.043854385630195857 0.44828696248966632 4.6419158728701087 -0.13337124065152559 0.50965116331194216 1.3532294953946746 -0.061220954478295946 1.0892897666787864 0.063665789062342909 -0.045197036137168294 -1.1242139343555406 0.15241968746743514 3.3306690738754701e-16 0.17085969998678008 0.17552014421309534 -0.0054898314842376991 0.096906467363729168 0.39079965726818894 0.11663758567085601 -0.13374046146458204 0.84260254082499031 -0.2562583962029375
decision_type=10 8 8 2 2 10 10 8 8 10 8 8 10 2 10 8 10 10 10 8 10 8 10 8 8 10 10 8 10 8
left_child=1 20 3 -3 5 -4 7 -6 9 10 -9 -5 14 -7 15 18 -17 -16 -13 -20 -1 22 23 24 -10 26 27 -25 29 -29
right_child=-2 2 4 11 6 13 -8 8 21 -11 -12 12 -14 -15 17 16 -18 -19 19 -21 -22 -23 -24 25 -26 -27 -28 28 -30 -31
leaf_value=0.0088417679852240624 -0.026728434156675748 -0.021394278007273285 0.0052623518520272562 -0.026264402810633098 0.056351614060683355 0.014708819148402158 0.039929107426073467 0.0018363249759082276 0.073975532155260398 0.067973497704684499 0.067142573961307656 -0.023281222083152201 0.029091978790581466 0.075333700667373216 -0.039946304452836826 0.064371417429726061 0.017684619513199214 -0.0039663432178004823 -0.014392197723558462 0.052235750368137074 0.058843923071425233 -0.0041490757142086795 0.050754386250411281 0.048184369904913114 0.00037172863149019883 0.050680030727756509 0.003939875775129934 -0.034331856943580451 -0.021353143838810984 0.0050735406013633719
leaf_weight=132.89168034493923 30.967908766120672 71.876700852066278 499.83826424926519 28.595518589019775 5.0384237989783287 7.3958307318389442 10.787198245525358 58.693243153393269 5.9130196198821041 7.0301910601556292 5.4241047017276278 33.937772132456303 15.807954002171753 9.3557612486183626 11.855407603085039 8.506445147097109 50.303304482251406 662.98909689486027 6.5048145242035362 5.7131984867155561 5.3626629188656798 966.65114375948906 6.7581286504864684 6.4308989159762859 6.5790519416332254 5.7951418422162524 306.05246117711067 13.568999815732239 69.950684193521738 82.107061270624399
leaf_count=2623 672 1481 10098 636 101 143 218 1215 116 135 112 691 286 179 253 152 982 13724 129 115 101 19792 134 125 131 114 6217 275 1397 1652
internal_value=-0.000404769 -0.000142458 -0.000651053 -0.00455341 0.00103551 0.00666663 -0.000833082 -0.0011175 -0.00130541 0.0133502 0.00736101 -0.00308477 -0.00225167 0.0485678 -0.00288705 0.0081157 0.0244376 -0.00459843 -0.0126809 0.0167633 0.0107813 -0.00201483 0.00208544 0.00142285 0.0352115 0.000550589 -5.70266e-05 -0.00716663 -0.00931578 -0.000515024
internal_weight=3138.68 3107.71 2969.46 896.09 2073.37 516.59 1556.78 1545.99 1540.95 71.1475 64.1173 824.214 795.618 16.7516 779.81 104.966 58.8097 674.845 46.1558 12.218 138.254 1469.81 503.155 496.397 12.4921 483.905 478.11 172.058 165.627 95.6761
internal_count=63999 63327 60603 18449 42154 10420 31734 31516 31415 1462 1327 16968 16332 322 16046 2069 1134 13977 935 244 2724 29953 10161 10027 247 9780 9666 3449 3324 1927
is_linear=0
shrinkage=0.05


Tree=7
num_leaves=31
num_cat=0
split_feature=10 6 8 10 6 10 7 5 5 7 11 10 7 10 11 8 4 11 9 6 10 11 7 4 9 9 9 8 11 9
split_gain=8.02686 7.45522 7.38373 8.21965 6.33339 10.184 10.2905 10.7835 6.32875 5.73036 7.546 5.33135 5.3208 5.35868 6.34944 6.52882 5.17388 5.17172 8.31873 9.34797 7.11147 8.50425 5.16769 5.05731 4.94775 4.92195 7.76222 5.38501 4.82474 4.80528
threshold=4.0676393191671254 -0.0047455074583610994 -0.65800618850336812 3.4597761925872201 0.0085308302037160524 2.2276235207878208 -0.0041638665342207488 -0.073430062042777147 -0.13337124065152559 -0.0090885514548147486 0.21656198769144189 0.79878469180310796 -0.0012017727474109498 0.77679942162932425 0.16003558091983763 -2.4911179005068917 -0.017435390227705946 0.22560111142061573 -0.26535659982400533 0.0040657854283530004 0.61413385729170955 0.44452906946643039 0.0037082189393632505 0.83928659698897412 0.024010038870714755 -0.18245659678664231 -0.061220954478295946 -2.1914127640732759 0.081912397957414659 0.52772666343085273
decision_type=10 8 8 10 10 10 8 8 8 10 8 8 10 8 10 10 8 8 10 8 8 8 10 10 10 10 10 10 8 10
left_child=1 9 8 4 5 6 7 -4 -3 10 -1 -6 -11 14 -14 24 -13 18 19 -10 21 -19 25 -5 -16 -22 27 -27 -2 -18
right_child=28 2 3 23 11 -7 -8 -9 17 12 -12 16 13 -15 15 -17 29 20 -20 -21 22 -23 -24 -25 -26 26 -28 -29 -30 -31
leaf_value=0.085206936618902218 0.019673761467329354 -0.030543832771678239 0.099920305286816918 0.079390152244524934 0.040494740053767915 -0.041703603654350739 0.001401184520387327 0.017490722283840906 -0.0091262555699540993 -0.018737816633276921 0.015449592505757087 0.029158639090898799 -0.010258903361760954 0.0039395652768136067 -0.011569513244269979 0.075628973950564449 -0.015010939685097174 -0.0062273221014290158 -0.0015323130856998483 0.076187952918135113 -0.032794361251502466 0.071232631083298414 -0.043625549833808369 0.010899434675136448 0.055331404945472208 -0.0026611481495692631 -0.0095024354659580101 0.043991130240046125 -0.034759952921949985 0.015881731947554729
leaf_weight=5.7945692427456406 4.8484266102314022 22.811604041606188 4.9137034006416798 5.2880646735429746 5.3524225614964953 13.533357586711643 1917.9332910552621 20.608065698295835 5.6982647106051427 16.168337315320969 11.714112292975186 7.9327767081558704 7.0367356650531319 58.220635857433081 6.0587680637836492 9.3389462605118716 140.61151002347469 8.5772172249853575 459.14563259109855 7.3553272597491741 19.963186964392662 6.0376941710710534 10.95691819116473 5.4969041422009468 5.0815682709217072 12.928476698696615 287.19386447966099 11.859935082495211 25.38035573810339 13.825404632836579
leaf_count=115 107 514 102 100 104 272 38948 404 108 330 233 160 138 1190 120 184 2901 169 9431 140 397 115 223 111 99 250 5968 227 565 274
internal_value=-0.000388544 -0.000139114 -0.000628706 0.000941732 0.000720725 0.0015199 0.00182088 0.0333609 -0.00456249 0.0121117 0.0385361 -0.00860403 0.0075716 0.0125331 0.0307159 0.0447949 -0.0102225 -0.00384818 -0.000413324 0.0389459 -0.00838485 0.0257728 -0.00984069 0.0444817 0.0189468 -0.00872551 -0.00718539 0.0196595 -0.0260293 -0.0122454
internal_weight=3137.67 3107.44 2988.02 2135.5 2124.71 1956.99 1943.46 25.5218 852.528 119.414 17.5087 167.722 101.905 85.7367 27.516 20.4793 162.37 829.717 472.199 13.0536 357.517 14.6149 342.902 10.785 11.1403 331.945 311.982 24.7884 30.2288 154.437
internal_count=63999 63327 60918 43376 43165 39726 39454 506 17542 2409 348 3439 2061 1731 541 403 3335 17028 9679 248 7349 284 7065 211 219 6842 6445 477 672 3175
is_linear=0
shrinkage=0.05


Tree=8
num_leaves=31
num_cat=0
split_feature=5 11 6 11 4 8 8 12 13 6 12 13 11 8 0 6 11 5 0 7 12 5 1 8 6 7 7 11 0 11
split_gain=7.61902 5.54283 8.59725 6.64107 6.17511 6.37559 4.90511 6.23998 8.89133 6.89039 5.29348 5.07944 4.80249 8.55239 7.30562 7.73441 8.38283 7.8849 7.23822 7.36536 6.10536 6.70309 6.90471 5.82556 5.0453 8.44393 7.45648 5.05247 4.79839 4.74823
threshold=-0.18580784025316807 0.47407495987737597 0.0043332206186387006 0.34243630053888546 inf -2.2808107157961044 2.2986467088698621 -4.3905243528596998 -0.023380667731140548 0.0014386706374304003 -2.0402194161214058 0.17552014421309534 0.043854385630195857 2.6147899246601738 0.14397142039515856 0.0066631358548878009 0.039845802616311952 -0.044597003866072994 0.14397142039515856 -1.9832610113072618e-05 -2.4237689001271905 0.053073927756858257 1.3532294953946746 2.6741423319370865 0.0064273135483836506 -1.0000000180025095e-35 -0.0006126693665500499 0.075348886252011957 0.15241968746743514 0.10920856204826672
decision_type=8 10 8 10 8 8 10 8 10 10 8 10 10 10 8 8 10 10 8 8 8 10 2 10 8 10 10 8 10 8
left_child=-1 3 4 6 -3 -6 7 8 -2 -10 -9 -12 13 -8 -15 16 17 -16 24 23 -21 22 -22 -20 25 26 -14 -26 -17 -24
right_child=1 2 -4 -5 5 -7 12 10 9 -11 11 -13 18 14 15 28 -18 -19 19 20 21 -23 29 -25 27 -27 -28 -29 -30 -31
leaf_value=-0.01755964545917503 -0.026099274397127049 -0.0078248337152440339 -0.014720054555522211 -0.018191642402107085 0.080737731399636234 0.019086356930485132 0.058210106155616816 -0.013530643989164036 0.0065833559099681086 0.07701779559394889 -0.00049621884015292009 0.047778977059542427 0.05287797730346773 -0.030647584200966634 -0.023531465716580352 0.020465477493858575 0.097590790257821081 0.064105976540330054 0.011190852452993269 0.058342679979196399 0.034572151376669885 0.049787088140204126 -0.0030260920669852249 -0.033040557151171317 -0.009885566114976237 0.07175390167522025 -0.028449004291918274 0.045102383558460163 -0.02408172488306011 -0.052809667928699316
leaf_weight=63.184994105249643 5.6096781529486206 5.5200528018176556 11.718321599066256 50.68705116584897 9.3420651480555517 7.6090531609952512 11.26471373811364 79.016108058393002 5.8855187185108653 8.4683150090277177 2617.8145943023264 5.4602527171373358 5.199764508754015 9.058004964143036 5.1379388123750704 14.340334195643662 5.3180013373494139 5.1284344494342804 10.159691441804169 4.9502429291605949 12.021456133574246 6.8257934115827075 95.528546202927828 27.851135235279799 16.31234068796039 10.031479109078644 6.1540927700698393 5.6154903694987288 10.450055710971354 5.0424150452017775
leaf_count=1465 111 101 215 1042 174 136 228 1600 115 166 53407 105 101 185 105 290 105 100 204 100 242 138 1938 559 326 197 122 111 210 101
internal_value=-0.000372894 -1.95712e-05 0.0200003 -0.000244774 0.0381063 0.0530635 5.96022e-05 -0.000574051 0.0272772 0.0481375 -0.000779806 -0.000395736 0.00653494 0.0188935 0.00993407 0.0190385 0.0466395 0.0202467 0.00288807 -0.00195612 0.00393096 0.00167544 -0.00124128 -0.0212182 0.0210488 0.0383287 0.00879659 0.00419628 0.0016872 -0.00552214
internal_weight=3136.71 3073.52 34.1895 3039.33 22.4712 16.9511 2988.64 2722.25 19.9635 14.3538 2702.29 2623.27 266.39 60.6975 49.4328 40.3748 15.5844 10.2664 205.692 162.379 124.368 119.418 112.592 38.0108 43.3132 21.3853 11.3539 21.9278 24.7904 100.571
internal_count=63999 62534 626 61908 411 310 60866 55504 392 281 55112 53512 5362 1223 995 810 310 205 4139 3282 2519 2419 2281 763 857 420 223 437 500 2039
is_linear=0
shrinkage=0.05


Tree=9
num_leaves=31
num_cat=0
split_feature=10 5 10 8 4 12 13 9 10 8 10 10 4 12 11 11 4 8 10 11 11 9 5 7 8 9 7 8 11 8
split_gain=7.41266 5.81002 6.33752 6.91736 6.42288 5.40235 11.1706 5.44536 5.3685 7.02195 5.46098 6.12135 5.44726 5.11445 4.55788 4.51218 4.48845 4.46106 4.38925 4.30261 4.17285 6.87666 3.87858 7.91943 3.87826 3.68109 4.70001 5.87544 3.69285 5.20797
threshold=4.0676393191671254 -0.18580784025316807 0.72613145876895757 -2.5603409416369187 0.85973769955512591 -3.6502561815153745 -7.7715611723760948e-16 0.41741590804686518 3.4597761925872201 -0.15755803769247317 3.3185020504870111 3.1766838507284696 1.4463338632787874 -2.3802733281892352 0.50965116331194216 0.081912397957414659 0.50679216353483758 -1.4461270274377789 0.96094713440629109 0.50965116331194216 0.23517368027980681 -0.098559003154971084 0.39079965726818894 -0.00025096322400594995 -2.7081830124899282 0.060038763325063103 -0.0023607352762762992 -1.55324427647061 0.10991147763092347 -0.079640939813935677
decision_type=10 8 8 8 8 10 10 10 10 10 10 10 10 10 10 8 8 10 8 10 10 10 10 10 8 10 10 10 10 8
left_child=1 -1 5 4 18 6 7 16 10 -10 11 12 14 -7 22 -2 17 -3 -4 20 21 -6 -5 -24 -23 -14 -27 -28 29 -29
right_child=15 2 3 8 19 13 -8 -9 9 -11 -12 -13 25 -15 -16 -17 -18 -19 -20 -21 -22 24 23 -25 -26 26 27 28 -30 -31
leaf_value=-0.015554883435712387 0.018302850088934963 0.0061626383358786884 0.041138805592152924 0.00016133901593743337 0.040342177190473692 -0.05285870967997524 0.083427309494219712 0.055118650971249572 -0.015018067201828821 0.057511551680943157 -0.052730823774797153 0.054817594509153036 -0.033177365272883251 0.014337875792659242 0.033500582738777727 -0.034076706790372085 0.0048307417003942907 0.072027281583500372 -0.011166180791560629 0.023998453778423839 -0.032839471965363069 -0.0099186707706760985 -0.010975748918083025 0.071808400071346298 -0.038874931698108572 0.03623388659074385 0.029106741070665604 0.039854159451367999 -0.036213675241254115 -0.018587912655638163
leaf_weight=59.803601011633873 4.9384142272174385 5.0855440385639668 9.0486633256077784 2658.8006656840444 5.8926548324525347 6.2194757387042028 5.4864209853112689 6.4651899598538867 5.2892685793340215 9.0415215343236888 4.8901923000812522 5.1118404977023593 17.925223756581545 5.1985463947057724 10.369429368525742 24.555153738707304 103.88770392909646 5.1990394555032236 7.204309254884719 6.4749470129609099 32.909662753343582 56.214501410722733 5.9560075290501118 5.6101259179413301 14.558275405317543 5.6254231892526141 7.3392218723893157 4.8663408756256104 18.234314911067486 17.59514502435923
leaf_count=1406 107 101 181 54145 112 123 97 117 105 166 100 103 371 99 180 565 2016 99 144 115 704 1194 114 107 309 118 154 103 380 364
internal_value=-0.000357929 -0.000121051 0.000181919 -0.000313962 -0.0114838 0.0106696 0.0136512 0.0104778 0.000218263 0.030742 5.99072e-05 0.000153529 5.20027e-05 -0.0222646 0.000415495 -0.0253063 0.00794998 0.0394584 0.017954 -0.0156066 -0.0179469 -0.0115541 0.000287021 0.0291785 -0.0158751 -0.01356 -0.00700689 -0.0120709 -0.019497 -0.00592628
internal_weight=3135.8 3106.3 3046.5 2908.96 132.303 137.542 126.124 120.637 2776.65 14.3308 2762.32 2757.43 2752.32 11.418 2680.74 29.4936 114.172 10.2846 16.253 116.05 109.575 76.6654 2670.37 11.5661 70.7728 71.5857 53.6604 48.035 40.6958 22.4615
internal_count=63999 63327 61921 59269 2759 2652 2430 2333 56510 271 56239 56139 56036 222 54546 672 2216 200 325 2434 2319 1615 54366 221 1503 1490 1119 1001 847 467
is_linear=0
shrinkage=0.05


Tree=10
num_leaves=31
num_cat=0
split_feature=5 7 1 8 7 8 13 7 5 6 8 13 9 10 8 10 10 8 11 5 7 10 5 9 8 6 7 11 5 9
split_gain=5.53572 5.85713 8.32317 4.53728 7.16736 10.7559 6.75931 6.23394 7.2879 9.76116 5.53492 6.80761 6.18469 9.25662 15.6264 8.73858 19.3622 8.26258 7.60539 7.12698 8.84164 9.23094 7.47665 5.6022 5.23677 9.55896 7.56973 6.7315 6.22436 8.14533
threshold=-0.10699203757026764 -0.0046881532166063991 2.015771763279091 1.2264575785861733 -1.0000000180025095e-35 1.2604388400507121 0.061568605829245455 -0.00090242459361074983 0.0075173263148488505 0.006550419995291751 0.97765557601119035 -0.40793515045717926 -0.088072820416323042 1.1316602906320041 -0.73481202699964088 0.9512669812439144 0.91085366972004211 -0.099300736932589437 0.15352544930530207 -0.050299251924995042 -0.00032341641345229994 1.4226324436022832 -0.06825804786200014 -0.033843222045382843 0.92648413997129186 0.0086911248008271023 0.0083810991703854015 0.50965116331194216 0.015624307973651603 -0.0021145047318619995
decision_type=8 10 2 10 8 10 10 10 8 8 10 8 8 10 8 10 10 10 10 8 10 8 10 10 10 8 10 10 10 10
left_child=1 2 -1 10 7 -6 -7 8 9 -5 11 -2 13 15 -15 16 17 18 -13 20 -14 22 -22 -12 26 -26 27 28 -21 -30
right_child=3 -3 -4 4 5 6 -8 -9 -10 -11 23 12 19 14 -16 -17 -18 -19 -20 24 21 -23 -24 -25 25 -27 -28 -29 29 -31
leaf_value=0.062593991430711093 0.040057877684169629 -0.01558946673839736 -0.019912035018651391 0.068712721256849629 0.071540014914306505 0.0054190754917757787 0.053250559813470426 -0.016762831159619296 -0.0061470108227203524 -0.0058469615092780185 -0.048065007660057474 0.026266268446082021 -0.0091028562961880059 0.095635646344812586 -0.00015953917583786141 -0.032385527097565724 0.091996301245689027 -0.022334603556251463 0.00017803672252126533 -0.0027069899575166241 0.031879550437064363 -0.015535199277132511 0.10160424015229295 -0.0088834669995165507 -0.020217124497422148 0.061067889620539731 -0.029958387847549364 0.027776512666674514 -0.036241689126798225 0.012979580316819256
leaf_weight=6.0769265145063383 10.227884158492087 98.902441881597042 6.1504490226507187 9.0475504919886571 6.4370664320886126 373.72294127196074 7.5350052304565898 66.645102709531784 39.626347508281469 8.5266205370426196 10.583657573908566 43.463734362274408 14.889635965228079 7.7332711890339851 9.4705055505037326 14.734268881380556 6.5561306290328494 24.48816541582346 78.199755400419235 2028.9022930040956 9.456590488553049 5.3769988082349292 6.4789861701428881 66.101532336324453 6.148005146533249 8.7850377932190877 24.128648735582829 19.072007585316896 9.1145261451601964 107.9877508059144
leaf_count=132 204 2212 141 178 131 7520 146 1345 787 173 213 801 302 144 183 301 128 471 1530 41693 194 110 132 1340 125 178 493 314 189 2184
internal_value=-0.000593557 -0.0115534 0.0210929 -0.000190717 0.00410147 0.00744653 0.00636439 -0.00637017 0.00573847 0.0325379 -0.00106481 -0.00064831 -0.000819997 0.00797552 0.0429014 0.00438708 0.00793515 0.0041643 0.00949794 -0.00154491 0.0204599 0.0411134 0.0602278 -0.0142911 -0.00190633 0.0276025 -0.00210762 -0.00179724 -0.00206006 0.0091485
internal_weight=3134.57 111.13 12.2274 3023.44 511.541 387.695 381.258 123.846 57.2005 17.5742 2511.9 2435.21 2424.99 184.646 17.2038 167.442 152.708 146.152 121.663 2240.34 36.2022 21.3126 15.9356 76.6852 2204.14 14.933 2189.21 2165.08 2146 117.102
internal_count=63994 2485 273 61509 10280 7797 7666 2483 1138 351 51229 49676 49472 3558 327 3231 2930 2802 2331 45914 738 436 326 1553 45176 303 44873 44380 44066 2373
is_linear=0
shrinkage=0.05


Tree=11
num_leaves=31
num_cat=0
split_feature=5 7 1 12 6 8 0 8 7 8 12 7 12 7 5 4 8 8 9 10 8 10 10 5 5 6 8 7 6 5
split_gain=5.05736 5.30262 7.08148 4.66728 9.04619 7.87788 7.84012 4.81883 6.15173 7.49372 6.32318 8.51541 6.27017 5.61083 6.62989 9.41965 6.6904 5.58712 5.48275 10.3697 12.4234 7.63643 16.4987 6.37155 7.71195 11.3652 6.12291 6.82073 6.4169 5.92316
threshold=-0.10699203757026764 -0.0046881532166063991 2.015771763279091 -1.7748899282441666 0.00014963451473955003 1.2604388400507121 0.17085969998678008 1.2264575785861733 -1.0000000180025095e-35 1.2604388400507121 -2.7889386814749204 4.2239245414122746e-05 -4.491401714918708 -0.00081043310640349989 0.0075173263148488505 0.50679216353483758 2.5120206084994412 0.97765557601119035 -0.088072820416323042 1.1316602906320041 -0.45538099491575829 0.9512669812439144 0.91085366972004211 -0.050299251924995042 -0.074950017432079685 0.0044698063530173504 0.92648413997129186 0.0083810991703854015 0.0086911248008271023 0.015624307973651603
decision_type=8 10 2 10 8 8 8 10 8 10 10 8 10 10 8 10 10 10 8 10 8 10 10 8 10 8 10 10 8 10
left_child=1 2 -1 7 -5 6 -6 17 13 -10 12 -12 -11 14 15 -9 -16 18 19 21 -21 22 -2 24 -20 -26 27 29 -28 -25
right_child=3 -3 -4 4 5 -7 -8 8 9 10 11 -13 -14 -15 16 -17 -18 -19 23 20 -22 -23 -24 26 25 -27 28 -29 -30 -31
leaf_value=0.056127717257649305 0.0032010861532672159 -0.015026143794777231 -0.019270758392068699 -0.04342241731088109 0.082498197944221863 -0.0069570482558072013 0.020080101151806584 -0.0042775285077867259 0.059726966992421852 0.0057399028275949273 0.010822228823968565 0.088996145917888736 -0.044890166867457275 -0.016891543891831992 -0.022714064156621031 0.065124707785134739 0.019334637558617463 -0.014845700837441328 -0.005709102321357162 0.082244414177811712 -0.0023906433619621413 -0.031536685715194683 0.081466488184520292 -0.0024946496326819271 0.074025343723232648 -0.0020059602048749731 -0.01068122005179532 -0.029060854104516864 0.055977961490429155 0.0089841060015385232
leaf_weight=6.4284563250839692 147.72563836351037 97.515774816274643 6.0402180105447769 5.2338009849190712 8.4966187141835707 10.878090690821411 12.333565857261418 10.284262005239727 6.6564513370394698 355.34940427541733 10.215692985802887 5.2861071750521651 6.2221598587930194 58.618630543351173 24.922808364033699 9.3195660263299924 15.247294936329125 73.93426339328289 16.997957166284323 9.5896327979862672 7.9142927974462536 14.205175198614596 7.0552353821694842 2029.2840168103576 11.032308995723723 8.8642460741102713 5.9500005431473237 23.294624827802181 9.1813256740570051 118.97262231633067
leaf_count=132 2821 2212 141 100 168 211 242 200 127 7116 204 103 120 1205 499 182 305 1518 343 167 154 299 127 41727 216 179 123 489 176 2388
internal_value=-0.000568508 -0.0111004 0.0196023 -0.000185339 0.0174779 0.0275302 0.0455404 -0.000403856 0.00406358 0.00713764 0.00620929 0.0374795 0.00486863 -0.00589998 0.00487914 0.028716 -0.00675371 -0.00130691 -0.000891581 0.00734322 0.0439772 0.0035486 0.00676859 -0.00158223 0.019023 0.0401521 -0.00192989 -0.00215074 0.029766 -0.00185894
internal_weight=3133.05 109.984 12.4687 3023.07 36.9421 31.7083 20.8302 2986.12 502.122 383.73 377.073 15.5018 361.572 118.393 59.7739 19.6038 40.1701 2484 2410.07 186.49 17.5039 168.986 154.781 2223.58 36.8945 19.8966 2186.68 2171.55 15.1313 2148.26
internal_count=63994 2485 273 61509 721 621 410 60788 10061 7670 7543 307 7236 2391 1186 382 804 50727 49209 3568 321 3247 2948 45641 738 395 44903 44604 299 44115
is_linear=0
shrinkage=0.05


Tree=12
num_leaves=31
num_cat=0
split_feature=5 6 12 11 6 10 10 8 8 9 0 10 6 8 1 11 8 11 9 5 5 10 0 9 7 12 9 8 6 5
split_gain=4.69198 4.56783 4.16985 10.7849 10.3089 6.83169 6.04277 3.99201 5.31387 5.16611 9.0065 12.0095 7.54768 6.00086 7.95354 6.68726 11.6075 6.20695 5.91334 9.52574 7.89926 6.62326 7.5831 5.08888 4.963 4.92685 9.75426 6.35847 5.16231 4.9194
threshold=-0.18021195819514682 0.0024193996485004504 -1.7748899282441666 0.060247919121393358 0.00027230233572575008 0.83593767773358574 0.91085366972004211 1.2264575785861733 0.97765557601119035 -0.088072820416323042 0.22133582493051804 1.3578542318655897 0.004026564342470851 0.14719984355548046 1.3532294953946746 0.21109666354270126 -2.0345471523760481 0.12285135235833541 -0.22543779059943206 -0.017571441112570096 0.00055842982007875007 0.83593767773358574 0.14397142039515856 -0.033843222045382843 -0.0019041579398572498 -3.0180782796298442 0.47668588916329252 0.92648413997129186 0.0086911248008271023 1.0000000180025095e-35
decision_type=8 10 10 10 10 10 10 10 10 8 8 10 8 10 2 10 10 10 10 10 10 10 10 10 8 10 10 10 8 10
left_child=1 -1 7 -4 -5 -6 -7 8 9 10 11 18 -12 14 -14 16 -16 -18 20 21 -2 24 -23 -10 -20 27 -27 -11 -29 -9
right_child=2 -3 3 4 5 6 -8 29 23 25 12 -13 13 -15 15 -17 17 -19 19 -21 -22 22 -24 -25 -26 26 -28 28 -30 -31
leaf_value=0.0049887599469225496 -0.0089444949731777978 -0.023607280468092476 -0.028018203990424012 -0.026885902098854015 0.085138066972728799 -0.011008138310844845 0.055887752419212545 0.0059024918051736467 -0.047623507420083082 -0.0014619569684981618 -0.027592205911665446 0.079460152500184622 -0.04407628858521348 -0.031726738911246284 0.098089240432752328 -0.012713571783094527 0.04937205011327421 -0.000118891808734253 0.062166611211859651 -0.010826584323701774 0.051732559599661249 0.025537825374885373 0.10053914924641659 -0.0093019254090755815 0.0083416657211678735 -0.027512077291528866 0.042260789725981719 -0.0078903275462918476 0.052159442464541031 -0.0064770286414168477
leaf_weight=20.952552739530802 39.652055140584707 41.874044757336378 10.054337061941622 5.7730983607471016 7.9643360115587738 5.9500336274504644 7.8027903884649277 418.1548870690167 10.006215769797562 2189.3998757153749 25.76437071710825 7.1474315151572219 5.7257152535021296 9.5356466956436616 5.2918609157204548 12.496810369193552 9.7736878059804528 18.008155029267073 5.6383488774299622 14.197381764650343 6.2029497213661662 6.3701534830033761 7.1561102531850338 64.542814176529646 17.812268815934662 37.678967483341694 5.7771440967917433 5.5812907218933088 9.9762475118041021 99.308555394411087
leaf_count=507 742 1017 197 114 152 112 146 8345 213 45048 515 120 114 197 97 256 187 352 104 265 117 123 131 1339 305 774 111 116 183 1995
internal_value=-0.000544363 -0.0140706 -0.000267441 0.0162934 0.0325001 0.0482867 0.0269459 -0.000472564 -0.00129583 -0.000893931 0.00700574 0.0169107 -0.00491012 0.00469652 0.0114674 0.0184462 0.0302198 0.0172921 0.0123032 0.0239875 -0.00073652 0.0373544 0.0652175 -0.0144456 0.0212831 -0.0015642 -0.0182363 -0.00123562 0.0306165 0.00352669
internal_weight=3131.57 62.8266 3068.74 37.5446 27.4903 21.7172 13.7528 3031.2 2513.74 2439.19 190.773 104.177 86.5962 60.8319 51.2962 45.5705 33.0737 27.7818 97.0293 51.1743 45.855 36.9769 13.5263 74.549 23.4506 2248.41 43.4561 2204.96 15.5575 517.463
internal_count=63994 1524 62470 721 524 410 258 61749 51409 49857 3625 1907 1718 1203 1006 892 636 539 1787 928 859 663 254 1552 409 46232 885 45347 299 10340
is_linear=0
shrinkage=0.05


Tree=13
num_leaves=31
num_cat=0
split_feature=12 11 13 11 13 13 12 7 8 12 10 11 0 11 4 11 11 11 0 9 10 11 1 11 11 4 4 4 9 10
split_gain=3.80992 9.53831 9.97847 8.39614 4.56971 4.76609 10.8468 4.42405 5.6946 6.58842 4.0556 3.77304 3.55245 7.07439 5.38482 5.57257 4.72613 9.10503 11.5361 8.97967 7.48033 5.74952 5.02025 6.12554 4.60101 7.36397 4.23598 5.36955 9.44769 6.78516
threshold=-1.7748899282441666 0.060247919121393358 0.083967971434596958 0.07832226519268036 0.11018297398208936 -0.40793515045717926 -2.8750404153220162 5.8391796105914573e-05 3.1078240434223434 -4.120770479889253 0.84216431667183322 0.084032454929128655 0.15241968746743514 0.046933113370673206 0.34588882357432066 0.039845802616311952 0.24622393680618179 0.22884232818689387 0.14397142039515856 -0.0081772488499261484 0.63715185898045801 0.29097187805809804 2.0129626803746752 0.32169355310425479 0.044657410542285107 0.79756337052898274 0.77894241585361113 0.67534671904607546 0.24430222186075604 1.0304721362757716
decision_type=10 10 8 10 10 10 10 10 10 10 10 10 10 8 8 10 8 10 8 10 8 8 2 8 10 8 10 10 10 10
left_child=4 -2 3 -3 5 6 12 8 9 -7 -6 -12 16 14 15 -14 17 26 -19 -20 -18 -22 23 -23 25 -16 27 -1 29 -29
right_child=1 2 -4 -5 10 7 -8 -9 -10 -11 11 -13 13 -15 24 -17 20 18 19 -21 21 22 -24 -25 -26 -27 -28 28 -30 -31
leaf_value=0.0035198306624845809 -0.02730905279736151 0.093014398621938568 -0.027832125881655997 0.025578401318946672 0.04008516183695722 0.020509432266642737 0.071476481024644156 -0.036382462305097167 0.043720198937227811 -0.016812261032917417 -0.024386359837535454 0.029450549846161037 0.023057861140515959 -0.0038167480989832179 0.054336419666877127 -0.04555813336839426 0.048577924115273424 -0.0075492172019810972 0.029367538884128758 0.12282906359289643 -0.024779588601458142 0.049706754212092891 -0.0073067730568476654 0.00037038525927442407 0.055715587484036891 0.0020887553005399999 -0.005123632703463759 0.042424893786719167 0.085678236909102215 -0.017625499158989175
leaf_weight=640.95260180160403 9.8060447014868242 6.5056825950741795 5.918064862489703 15.887957680970429 12.88320115208626 14.303213287144898 5.2215537317097178 15.189927149564026 5.1756796911358824 68.246418729424477 7.0214632563292962 6.0659040547907352 5.2583081088960153 1053.7876331433654 8.8558259606361371 6.7669700458645821 7.3794447891414157 7.7319792695343521 5.4764433838427076 4.8425344415008995 26.838441628962755 6.3467307277023783 258.79961253330112 722.18144696578383 8.3048971220850927 28.280807908624411 141.82008788362145 8.9219691641628796 5.4165058210492125 9.95008686929941
leaf_count=12834 197 123 107 294 243 278 99 303 101 1409 138 116 99 21939 171 130 139 156 111 100 554 131 5335 14716 174 580 2929 178 109 201
internal_value=-0.000521109 0.0151899 0.0299098 0.0451696 -0.000714791 -0.000891698 -0.000524309 -0.0114695 -0.00715579 -0.0103456 0.0201706 0.000566675 -0.000651411 -0.00288513 0.0141983 -0.0155543 0.000692761 0.00350727 0.0386275 0.0732276 -0.00158054 -0.00194551 -0.00132482 0.00080019 0.0220718 0.014548 0.00272176 0.00439429 0.0274703 0.010764
internal_weight=3130.14 38.1177 28.3117 22.3936 3092.02 3066.05 2963.13 102.915 87.7253 82.5496 25.9706 13.0874 2957.91 1111.25 57.4668 12.0253 1846.66 825.112 18.051 10.319 1021.55 1014.17 987.328 728.528 45.4415 37.1366 807.061 665.241 24.2886 18.8721
internal_count=63994 721 524 417 63273 62776 60685 2091 1788 1687 497 254 60586 23093 1154 229 37493 16618 367 211 20875 20736 20182 14847 925 751 16251 13322 488 379
is_linear=0
shrinkage=0.05


Tree=14
num_leaves=31
num_cat=0
split_feature=5 7 1 12 1 8 7 4 4 10 8 12 9 9 10 7 13 7 0 5 9 10 7 8 1 9 8 5 7 7
split_gain=4.29283 4.78837 6.04314 3.48348 3.36509 4.08808 3.66698 4.46413 4.68755 6.89228 4.08729 3.27983 9.58278 8.98435 11.2664 6.34087 4.04076 4.76221 6.73219 7.24444 6.75796 14.4293 6.79965 7.71506 10.8519 9.12708 6.15211 5.97969 5.96328 10.0952
threshold=-0.10699203757026764 -0.0046881532166063991 2.015771763279091 -5.7588842619706968 2.0845942944372839 -0.13912197000673238 0.0022923296805058501 1.6103474827078712 0.45661466137158413 1.6967912983624658 0.43715146632256141 -2.0261792508973206 0.47668588916329252 0.13608499978913188 0.84216431667183322 -3.6964095422553215e-05 0.095308499938496063 0.00016992948029770003 0.31236782018306414 0.0092047709899926514 -0.018798507775943798 1.1258764434475694 0.00061043375287375007 -0.12051276261303955 2.015771763279091 0.22222771720906456 0.41489405310177324 0.054680255366393905 0.009749815489715501 0.0029185230653543501
decision_type=8 10 2 8 2 10 10 10 10 8 10 10 10 10 8 10 8 10 8 8 10 10 10 10 2 10 10 10 8 10
left_child=1 2 -1 -2 6 -6 7 8 9 10 -3 16 13 14 -13 -16 -5 -18 20 -20 21 26 23 24 -22 -26 28 -21 29 -19
right_child=3 4 -4 11 5 -7 -8 -9 -10 -11 -12 12 -14 -15 15 -17 17 18 19 27 22 -23 -24 -25 25 -27 -28 -29 -30 -31
leaf_value=0.050981151270578319 0.037738704923316511 0.016851963309645092 -0.0183581494960844 -0.010724305046566395 -0.021723447189096235 0.039894920505052577 -0.037952848810448948 0.022936458029990059 -0.026949151429791214 0.056632946931773911 -0.035428905125441959 0.082876318084025458 0.061385343395735897 -0.013594292747131715 0.04023707454032522 -0.03070648652583597 -0.0008475513699905511 0.0029152835774623777 -0.0032448880102485624 0.087293020900153506 -5.6572001809208531e-05 0.07353261455453701 -0.004003438827370919 0.0015189917795262835 0.019573625458251285 0.1094321576042212 -0.043445337912314669 0.016257119756693968 -0.03397164538489101 0.066915563871982525
leaf_weight=6.7372293733060342 6.054728377610445 6.4910020269453552 5.8888533264398575 92.799620136618614 4.9091946110129356 5.9593802839517576 17.39363607019186 7.9702352695167056 39.237884525209665 4.5836455933749667 8.8158651888370496 6.6159612424671677 8.2698866650462133 30.555344056338072 5.8994771651923665 6.7572726495563957 2542.880074582994 18.771954860538251 8.0720868073403818 7.1382244154810923 9.4942482635378855 10.238826729357241 194.94961699098349 35.898664355278015 4.8443230837583524 6.7821745201945305 5.269181426614522 5.0643657855689526 5.289981402456756 9.1721291542053205
leaf_count=132 111 148 141 1898 119 138 415 189 897 105 201 121 137 604 112 132 51921 358 162 144 195 178 3995 719 101 138 102 100 105 176
internal_value=-0.000498783 -0.0102943 0.018641 -0.000148616 -0.0141255 0.0120627 -0.0174942 -0.0121908 -0.0169258 0.00284734 -0.0132588 -0.000224707 0.0115402 0.00326751 0.0300006 0.00236124 -0.000455886 -0.000123152 0.00561561 0.0335027 0.00373539 0.0207775 0.000438676 0.0156263 0.0396043 0.0719915 0.00674886 0.0578114 0.014707 0.0239222
internal_weight=3128.81 107.987 12.6261 3020.82 95.3608 10.8686 84.4923 67.0986 59.1284 19.8905 15.3069 3014.76 58.0979 49.8281 19.2727 12.6567 2956.67 2863.87 320.986 20.2747 300.711 48.7421 251.969 57.0194 21.1207 11.6265 38.5032 12.2026 33.2341 27.9441
internal_count=63994 2485 273 61509 2212 257 1955 1540 1351 454 349 61398 1106 969 365 244 60292 58394 6473 406 6067 919 5148 1153 434 239 741 244 639 534
is_linear=0
shrinkage=0.05


Tree=15
num_leaves=31
num_cat=0
split_feature=4 5 8 6 0 5 11 11 6 11 11 11 6 9 8 8 11 11 6 0 9 9 6 6 6 6 1 8 8 7
split_gain=4.48548 6.99902 6.69891 5.66725 8.12947 9.10435 7.62241 8.1773 9.02385 5.68353 7.80849 6.70299 6.40532 4.70041 4.12599 5.18787 6.95806 10.2277 8.95268 9.07276 6.47737 6.32285 6.85817 5.53312 16.1336 5.47294 5.02771 9.76892 5.24104 4.79324
threshold=1.1991375303119365 0.29331013910645048 -0.75191188511143658 0.0021372754279996007 0.13299514961195907 0.17945344258610632 0.12285135235833541 0.15688089025575713 -0.0062979704786820497 0.094495793196446007 0.070130939583079768 0.075348886252011957 0.013551413984467402 0.33599424925293597 -0.52808698165099643 -1.6886371042036965 0.13029242055540871 0.16537862939041573 0.0021372754279996007 0.14397142039515856 -0.12465417739451529 0.016383815467364306 0.0038500103933418006 0.014169781388374802 0.020713849762144906 0.0086911248008271023 1.1134542046248754 -1.0000000180025095e-35 2.4267171445868874 0.00049395422604515016
decision_type=10 10 8 8 10 10 8 10 8 8 10 10 10 8 8 10 10 10 8 8 10 10 10 10 10 10 2 8 8 10
left_child=1 14 -3 4 -2 6 -6 -8 -9 10 12 -12 -5 -4 15 16 20 18 -18 -20 -1 -21 -23 -17 -25 -19 27 -16 -29 -22
right_child=3 2 13 9 5 -7 7 8 -10 -11 11 -13 -14 -15 26 23 17 25 19 21 29 22 -24 24 -26 -27 -28 28 -30 -31
leaf_value=0.041074067353081049 -0.023572438541222623 0.074642627989826613 0.03484842230596305 -0.033379158580433131 0.073753994355327798 -0.042685951816311865 -0.035501826736898064 0.074537250698903712 0.0019875426270545746 -0.020391047703319481 0.064764301157492279 0.0052189864344720609 0.031965178256032324 -0.021312015404774627 0.079153084002237667 -0.0066929992157834951 -0.010497350530414656 0.0044237396393333175 0.10339014149764109 0.072603710774009816 -0.0064558262475577144 0.039732098264812041 -0.020245837743561493 0.068420015795788366 -0.036736703713415995 -0.029311888454666663 0.0011572437448701001 -0.013715671752676377 0.016123218186205306 -0.046363090637357128
leaf_weight=6.8806070499122134 15.454813200980423 5.8713972009718418 9.1109639555215818 18.155380431562666 7.515349410474303 5.0139017775654784 5.8183435834944275 7.4697736017405987 10.056261990219356 86.846921015530825 6.3895570747554329 18.155216161161661 4.7266617305576792 6.3034391328692463 5.3075281865894794 487.69665091112256 10.658197578042744 201.96907545253634 5.1231175251305094 6.7720148190856007 146.19810514897108 12.447132151573898 7.7235414274036875 8.6684534810483438 6.2972647361457339 12.783077057451008 1913.4478983320296 19.190367847681046 63.118015073239803 7.9325494281947604
leaf_count=118 325 109 175 381 159 106 122 160 210 1853 136 388 99 118 108 10050 220 4133 104 132 3100 260 164 181 135 261 38922 383 1259 167
internal_value=0.000151556 0.000626918 0.0291941 -0.00738729 0.00674398 0.0198047 0.0299578 0.0158583 0.032909 -0.0127892 0.0011311 0.02072 -0.0198812 0.0118826 0.000418831 -0.0023503 0.00176211 0.0068605 0.0292026 0.0423983 -0.00639081 0.0308007 0.016766 -0.00577405 0.0241722 0.00241563 0.00169354 0.0134058 0.00916622 -0.00850971
internal_weight=3129.1 2943.5 21.2858 185.602 51.3284 35.8736 30.8597 23.3444 17.526 134.274 47.4268 24.5448 22.882 15.4144 2922.21 921.15 418.487 257.476 42.724 32.0658 161.011 26.9427 20.1707 502.662 14.9657 214.752 2001.06 87.6159 82.3084 154.131
internal_count=64038 60099 402 3939 1082 757 651 492 370 2857 1004 524 480 293 59697 19025 8659 5274 880 660 3385 556 424 10366 316 4394 40672 1750 1642 3267
is_linear=0
shrinkage=0.05


Tree=16
num_leaves=31
num_cat=0
split_feature=7 8 9 9 10 6 10 7 9 9 6 10 10 11 10 8 6 10 11 8 6 1 6 8 9 6 0 10 11 10
split_gain=4.3853 4.72143 3.75731 8.17874 5.48297 3.65984 6.49334 5.80586 7.54999 11.4618 5.26805 10.3012 9.99787 4.27433 3.99751 5.76617 5.23938 4.90272 5.45829 5.93134 7.14511 4.71781 7.61726 13.2846 5.30078 5.61096 4.63293 4.126 9.66825 4.06084
threshold=0.0042381893593896004 -2.7502903446792337 -0.016305500046120747 -0.18245659678664231 0.73426864217288046 0.0057700056838296508 4.3431735969301686 -0.0083944588237098976 0.014532865246246951 0.23853387550746283 0.0055641440560355009 1.0481346225074148 0.91085366972004211 0.10920856204826672 1.1203666761597546 -2.3788188221888862 0.0064273135483836506 1.0845517829396598 0.18550622253841234 -1.3335379012194046 0.009051330458480852 2.1221156160891277 0.0072166728691100508 -0.34659569588865874 0.26692161027695932 0.0078229285562746529 0.24336672297449843 1.2091199808721005 0.15562635217105433 0.72232428724789377
decision_type=10 8 10 10 10 10 10 8 10 10 10 8 10 8 10 10 10 8 8 10 10 2 10 10 10 8 8 10 10 10
left_child=5 -2 3 -3 -4 6 7 8 -1 -10 -9 12 -12 -13 16 -16 -7 18 21 20 26 24 -23 -24 29 -26 -20 28 -17 -18
right_child=1 2 4 -5 -6 14 -8 10 9 -11 11 13 -14 -15 15 27 17 -19 19 -21 -22 22 23 -25 25 -27 -28 -29 -30 -31
leaf_value=0.0013150213860577736 -0.046788016062098675 -0.023427547791234724 0.041609367929396221 0.043790155990706091 -0.017411987976632123 -0.028660564321431714 -0.041249035447638957 0.00085033663927003679 0.08858613220894436 0.0021467427167046449 0.0087625057920296054 0.018367792945615084 0.10646819328207016 -0.042462901001653799 -0.045460494784012762 0.0050096542764146131 0.016620198383260676 -0.035860066035460499 -0.00024998315970884371 0.068271471802211964 -0.036677097103041893 -0.034002065192677372 -0.016994245210683066 0.09033627121467773 0.042644824403514692 -0.017124597157895955 0.065393196060184039 -0.0013912766176820447 0.079356045612355486 -0.028330893613245079
leaf_weight=20.22378883138299 8.3178462870419008 8.4137748107314128 4.2355587854981414 9.7922870926558954 55.440176486968994 31.190295320004225 8.9771001674234849 2501.3618707805872 8.1256140917539579 7.2629124708473674 4.877013277262451 7.0237708315253231 5.6531101129949093 4.9040202051401147 6.9941171593964091 25.101529084146026 5.7247809804975978 11.913729827851055 5.7060218490660235 4.9524018578231326 6.2020976506173602 5.3340602777898338 5.6013974919915208 5.9404870644211742 7.341901231557129 8.4411487095057947 5.0817738920450219 293.19492695853114 5.2953799925744525 41.061330784112215
leaf_count=382 170 157 85 181 1202 646 209 51088 158 142 100 140 116 103 150 513 103 251 115 99 126 109 116 121 152 177 106 6060 106 855
internal_value=0.000140093 -0.0109811 -0.00715691 0.0127261 -0.0132229 0.000455076 0.00120078 0.00134967 0.0213972 0.0477894 0.00106679 0.0251752 0.0612159 -0.00664228 -0.00357641 -0.000544188 -0.0105139 -0.0055184 -0.00195304 0.0201219 0.00608668 -0.00805001 0.0154113 0.0382476 -0.0143779 0.0106787 0.0306723 0.000426634 0.0179614 -0.0228306
internal_weight=3129.69 86.1996 77.8818 18.2061 59.6757 3043.49 2568.41 2559.43 35.6123 15.3885 2523.82 22.4579 10.5301 11.9278 475.077 330.586 144.491 113.301 101.387 21.9423 16.9899 79.4451 16.8759 11.5419 62.5692 15.783 10.7878 323.592 30.3969 46.7861
internal_count=64038 1795 1625 338 1287 62243 52438 52229 682 300 51547 459 216 243 9805 6829 2976 2330 2079 446 347 1633 346 237 1287 329 221 6679 619 958
is_linear=0
shrinkage=0.05


Tree=17
num_leaves=31
num_cat=0
split_feature=7 9 6 7 11 7 9 5 10 6 5 7 13 8 8 0 7 11 11 9 8 11 0 11 11 11 9 8 11 0
split_gain=4.0943 6.30524 11.3218 4.2138 9.28189 6.56615 9.90141 7.23154 6.23082 7.01296 4.4251 4.21497 5.43263 5.43842 11.1731 8.96979 6.19755 6.61174 7.43782 9.7316 7.03941 11.8474 6.50009 10.324 5.87244 10.89 11.15 12.0723 10.3755 9.20903
threshold=0.0012305176407695502 -0.039105815538376297 0.0039388348646749007 0.00029262522670250006 0.044657410542285107 0.00051458470504850016 0.37505544837500965 0.029498906584228702 0.82292341217249787 0.0023056391921998007 0.04191690579746226 -0.00084271809615694981 0.12542438755251872 -0.52808698165099643 -0.13912197000673238 0.092411521718304371 -0.0048579204535052984 0.079828721466054867 0.088341223498340407 0.058340834372133853 -0.23615682076365205 0.12621514156877953 0.15241968746743514 0.11755695173222822 0.089988052145468761 0.092197848970943713 -0.025925997036843496 0.04176512789842151 0.13357233190212767 0.17085969998678008
decision_type=10 8 8 10 8 10 10 8 8 8 8 10 10 8 8 8 8 8 10 10 8 8 10 10 10 10 10 10 10 8
left_child=3 2 -2 11 -5 6 8 -8 -6 -10 -11 12 13 -1 15 -15 -17 -18 19 -19 22 -22 23 -20 -16 -26 28 -28 -27 -30
right_child=1 -3 -4 4 5 -7 7 -9 9 10 -12 -13 -14 14 24 16 17 18 20 -21 21 -23 -24 -25 25 26 27 -29 29 -31
leaf_value=-0.0029862272693704714 -0.0017040651470321137 -0.0099924166450256514 0.068011551721247218 0.069296055159031339 0.049975021227598192 -0.00096068728097992639 0.023086085151939172 0.10554535497797329 0.047210091516270702 0.0045638717524900839 -0.046639574096897632 -0.00302825337917957 0.052388277900648553 -0.029535225041276061 0.00046256202926849054 0.067448811830499986 -0.016254832086598756 0.028041762078199851 -0.021788204975965852 0.10092531625284894 0.10631325418201942 0.00065626057082930221 -0.024851441862821261 0.043562332940347587 0.060727824739888817 -0.033884819186598775 -0.024824345593522645 0.021878107692423564 0.067368153322060378 -0.012006591284313065
leaf_weight=551.05675139650702 27.196175098419189 188.70907190814614 7.4104951918125144 6.1347915306687346 6.8059611320495632 91.689625900238752 5.2728224061429501 5.3633027188479883 5.0014255642890921 8.7272201105952245 8.1693266555666977 738.28544638678432 5.207231603562831 8.6294169463217241 1210.4430032670498 7.468349389731884 10.969984415918587 15.465759824961426 9.6815748512744921 6.5069518871605387 5.0301672779023621 5.6146438233554372 12.57068971917033 16.082961387932301 10.12471006810665 26.437529947608709 16.101269975304604 98.407665681093931 5.8142107352614376 9.8360196352005005
leaf_count=11422 504 4003 130 118 135 1874 107 104 102 180 166 15161 94 178 24612 141 225 311 195 132 103 114 262 321 200 533 326 1969 111 205
internal_value=0.000129658 -0.00639455 0.0132245 0.000630865 0.00918528 0.0063709 0.0234586 0.0646665 0.00818918 -0.00479799 -0.0201925 0.000207228 0.00138309 0.00125201 0.00283521 0.0191457 0.0238452 0.0198701 0.0254554 0.0496253 0.0146126 0.0505841 0.00462414 0.0190055 0.0016743 0.0104719 0.0072226 0.0153112 -0.0147842 0.0174819
internal_weight=3130.21 223.316 34.6067 2906.9 137.164 131.03 39.3401 10.6361 28.7039 21.898 16.8965 2769.73 2031.45 2026.24 1475.18 98.0205 89.3911 81.9227 70.9527 21.9727 48.98 10.6448 38.3352 25.7645 1377.16 166.721 156.597 114.509 42.0878 15.6502
internal_count=64038 4637 634 59401 2786 2668 794 211 583 448 346 56615 41454 41360 29938 1982 1804 1663 1438 443 995 217 778 516 27956 3344 3144 2295 849 316
is_linear=0
shrinkage=0.05


Tree=18
num_leaves=31
num_cat=0
split_feature=4 10 5 8 4 9 9 7 8 5 10 11 6 11 8 10 11 9 4 8 4 11 4 1 9 9 1 8 9 9
split_gain=3.94927 6.34284 5.8708 8.48263 10.211 4.27889 6.12096 4.98954 4.4124 5.9466 7.63889 9.27555 5.06167 4.76419 4.40656 9.18311 5.63141 5.27759 4.26504 4.68486 3.79948 11.0322 4.75225 4.12933 8.4688 8.53775 9.1166 7.85081 5.3428 15.6287
threshold=1.054073676067506 5.3873293680525629 0.22965928763599422 1.8047827098489491 0.319203236162445 0.29206850605165086 0.3830572242271566 0.00095642310818700013 0.86864874838004902 -0.010959463458415747 1.0746785583041829 0.085050988572264827 0.0021372754279996007 0.34243630053888546 0.04176512789842151 0.88346387181626718 0.12285135235833541 0.33599424925293597 1.2728924084310449 -0.91815157387139157 1.0052726907762151 0.09102794268004831 1.0310541001634921 1.5791600204212803 0.10467970852775056 0.17119532115003339 1.3532294953946746 -2.0584701945171067 -0.0042010013815086495 -1.0000000180025095e-35
decision_type=10 8 10 8 8 10 10 8 10 10 10 8 8 8 8 10 8 10 10 10 10 10 8 2 10 10 2 8 8 8
left_child=2 5 20 4 -4 8 14 -8 12 -10 -11 -12 13 18 15 -7 -17 -16 -2 -20 23 -22 -23 24 27 26 -26 -1 -29 -30
right_child=1 -3 3 -5 -6 6 7 -9 9 10 11 -13 -14 -15 17 16 -18 -19 19 -21 21 22 -24 -25 25 -27 -28 28 29 -31
leaf_value=-0.025531327879305329 -0.02429872339503511 -0.05230665133580667 0.091180159268562544 -0.024111194427425417 0.015530269705810533 -0.010036335940563832 0.0027794737850223511 -0.029852483925263681 -0.025042100069513757 -0.025078983962150383 0.081637089882139122 -0.0051301774004528988 -0.021314401614861977 -0.042884959360231761 -0.035185178949227479 0.10926032571996297 0.035062822026369948 0.027505671248013133 0.0065367643435642539 0.058911834985042349 -0.020793931538582458 0.025278082758081129 0.094670279029581569 -0.000744427816231129 0.015607617540177707 -0.0041044664629098079 0.082848740910988039 -0.0084883610517410384 0.088088103266942872 0.0046353440520779067
leaf_weight=23.982046749442816 7.0223159044981029 7.1796208210289469 6.5810393057763577 6.930619295686486 13.843717820942404 5.8576656430959728 48.695436406880617 15.42488122358918 9.0869546607136744 5.4371393546462086 7.4462368004024002 5.25302977859974 79.825871154665947 5.0861273333430281 5.7271870411932495 4.6345221959054443 5.705532133579255 8.1123894304037076 16.019230373203758 5.8210991397500029 7.8421848937869099 5.1342328377068043 4.7498358301818353 2216.3948439732194 10.229568067938091 12.306421250104902 9.93800365552306 77.984107546508312 5.6756369285285473 486.80520187690854
leaf_count=508 144 173 119 133 257 121 1024 341 200 114 156 109 1701 106 121 101 124 173 329 121 164 110 99 45380 204 243 188 1596 111 9768
internal_value=0.000118877 -0.00601204 0.000633258 0.0236864 0.0399053 -0.0045986 0.00365486 -0.00507052 -0.0101102 0.00797204 0.0245132 0.045746 -0.0144368 0.00173479 0.0222809 0.0399829 0.0683189 0.00156252 0.0095976 0.0204963 0.000412839 0.0234896 0.0586248 0.00026897 0.0038517 0.0287153 0.0487421 0.00249343 0.00367158 0.0055971
internal_weight=3130.73 242.335 2888.4 27.3554 20.4248 235.156 94.1576 64.1203 140.998 27.2234 18.1364 12.6993 113.775 33.9488 30.0373 16.1977 10.3401 13.8396 28.8626 21.8403 2861.04 17.7263 9.88407 2843.32 626.921 32.474 20.1676 594.447 570.465 492.481
internal_count=64038 5158 58880 509 376 4985 2005 1365 2980 579 379 265 2401 700 640 346 225 294 594 450 58371 373 209 57998 12618 635 392 11983 11475 9879
is_linear=0
shrinkage=0.05


Tree=19
num_leaves=31
num_cat=0
split_feature=7 8 12 12 13 8 11 8 12 12 13 1 6 13 1 6 11 6 4 7 7 6 6 8 11 8 7 8 11 8
split_gain=3.74547 4.57079 4.01662 7.88227 8.09335 6.88434 6.77737 5.98227 5.44755 5.15219 5.01229 5.69005 5.29494 4.56507 4.01064 3.91708 4.30861 8.95289 8.01679 8.1184 9.55391 8.74608 9.92951 6.9526 6.87077 8.07353 5.51783 4.9403 7.08059 4.96345
threshold=0.0042381893593896004 -2.7502903446792337 -2.0402194161214058 -4.1811791491323378 -0.023380667731140548 0.3938617078234064 0.052749209288149461 2.9649227768055568 -1.9646266837440136 -4.491401714918708 -0.41626556160897582 2.0845942944372839 0.00094866249984785014 0.0015488826692822003 2.0181795486257337 0.005881553382589751 0.056451247204972112 0.0052801047176156005 0.079134675208422517 -0.0014450970125406497 -1.0000000180025095e-35 0.0038500103933418006 0.0031525618695130006 1.7388125895470632 0.06826493274580156 -0.90205772078377722 -0.0013206128970809996 2.172281144522699 0.054387340134558308 0.5954535364448087
decision_type=10 8 10 10 10 8 8 10 10 8 10 2 8 10 2 10 8 10 8 8 8 8 10 10 8 8 8 10 8 10
left_child=2 -2 3 4 9 14 -4 10 -8 -1 -5 -12 -13 -10 -6 16 17 18 -11 -20 -21 22 23 -22 25 -18 -27 28 29 -23
right_child=1 -3 6 7 5 -7 8 -9 13 15 11 12 -14 -15 -16 -17 24 -19 19 20 21 27 -24 -25 -26 26 -28 -29 -30 -31
leaf_value=-0.044866428686020511 -0.046365361355828548 -0.0065239046264760478 -0.032123056286082662 0.024014420661794895 -0.020084087904475311 0.069155447084686211 0.064520246314185528 0.031645406819246984 0.025804929077512501 -0.034565116390653891 -0.028354549177873795 -0.015422738817406304 0.048472274295822911 -0.0066700112510686754 0.037493112220136203 -0.0038517209987387157 0.052599042552085196 0.057928957453291657 0.065162316811223364 -0.029756608850236288 -0.019348342156754472 -0.017871202114007619 0.099716951068311369 0.055385375239878937 0.0013645908621075082 0.027538809085194533 -0.017011635928453974 -0.006739959654890328 0.06678864319351209 0.022083828624413448
leaf_weight=6.2800770625472069 7.9428535364568233 76.85003750026226 7.2286378927528849 6.4927714057266703 6.0243751481175405 7.7613496296107796 5.9610341005027285 6.5063427165150634 29.131827007979155 10.933824993669985 61.665549494326115 9.4088717140257341 4.947295404970645 17.217275459319353 6.0738086067140102 443.17242019250989 4.7509089186787605 9.0187273137271387 6.3519597873091698 15.25621525198221 5.9966943450272172 11.484948959201573 5.5736989080905905 6.4696670584380627 2172.6640360988677 7.4579921998083591 102.10290919244289 40.158180456608534 6.2731871530413619 24.048662409186363
leaf_count=125 170 1625 144 124 107 138 117 127 536 216 1293 200 106 318 113 9221 100 174 124 317 124 237 112 129 44412 146 2070 800 127 486
internal_value=0.000109301 -0.010256 0.000397806 0.000141477 0.000591666 0.0324011 0.013257 -0.0145133 0.019528 0.000372165 -0.018153 -0.0217543 0.0065962 0.0137415 0.00882214 0.000471096 0.00125995 0.00972476 0.00644486 0.0101319 0.00709924 0.0127218 0.0442399 0.0194362 0.000735966 -0.011212 -0.013979 0.00578479 0.0178156 0.00916982
internal_weight=3131.21 84.7929 3046.41 2986.87 2897.85 19.8595 59.5388 89.0208 52.3101 2877.99 82.5145 76.0217 14.3562 46.3491 12.0982 2871.71 2428.54 141.566 132.547 121.613 115.261 100.005 18.0401 12.4664 2286.98 114.312 109.561 81.965 41.8068 35.5336
internal_count=64038 1795 62243 61128 59278 358 1115 1850 971 58920 1723 1599 306 854 220 58795 49574 2846 2672 2456 2332 2015 365 253 46728 2316 2216 1650 850 723
is_linear=0
shrinkage=0.05


Tree=20
num_leaves=31
num_cat=0
split_feature=7 7 6 6 1 9 9 12 12 10 11 8 8 12 6 10 8 9 12 6 9 7 8 8 6 7 7 6 1 10
split_gain=7.85625 6.70933 9.94294 6.41113 6.09766 4.26397 4.66264 4.20968 4.99889 5.30146 7.55808 5.2304 4.28773 4.144 4.20974 4.12889 5.83917 3.93222 3.81273 3.90596 5.4462 3.64236 3.34402 3.09935 2.90791 2.79984 6.47507 4.98273 4.19522 4.51481
threshold=-0.010565899568852198 -0.012630375216614748 -0.0057018827727706991 -0.015125373058044699 1.1134542046248754 0.034243649158650712 0.056578028942909905 -4.3905243528596998 -2.3410606732101171 0.76776407787421941 0.13357233190212767 -0.90205772078377722 3.0320441947513568 -2.1695985093559202 0.00080377819941690009 0.90795140459339885 -0.54476601903421373 -0.0064520446175650491 -2.6929368505313636 0.0014978453799477502 0.27583218125892556 -0.020688343656100897 -0.079640939813935677 1.841069279183563 0.00055789198841450012 0.0090649729626171016 0.007742823263632701 -0.010470333364402498 2.008749056018051 0.98362798491953629
decision_type=8 10 10 10 2 10 8 8 8 10 10 8 10 8 10 10 8 8 10 8 8 10 8 8 10 10 10 10 2 10
left_child=1 2 3 -1 5 17 -7 15 9 -9 12 -12 18 14 -10 16 -6 -2 19 20 24 -4 -19 -24 -11 26 -15 28 -27 -30
right_child=4 -3 21 -5 7 6 -8 8 13 10 11 -13 -14 25 -16 -17 -18 22 -20 -21 -22 -23 23 -25 -26 27 -28 -29 29 -31
leaf_value=0.013054398166510384 -0.011226857345493987 0.061568779714431567 0.013483213234193707 0.078205987067589522 8.4048657027870457e-05 -0.045068139891436328 0.0086545804738429807 -0.042006317717642253 -0.0011932768282140397 -0.042821061188153403 -0.010074389749798893 0.059829245181201363 0.026892912383377161 -0.00097102996193475829 0.05892100784935736 -0.007522044769307918 0.062603046169404361 0.049387264441331069 -0.044750292207023749 -0.034407720370070782 0.047615176785033901 -0.033649731098632306 -0.016171374780938202 0.019300864045991507 0.0091467539419894071 -0.031748102357749421 0.047153075678861053 -0.030844539473953131 -0.010768005208618783 0.055601598697602062
leaf_weight=9.0668069310486299 12.077410720288752 8.2936089038848859 6.7754013985395423 6.4707102775573722 6.5827352441847324 6.5350749492645264 10.573534063994886 13.976589515805243 5.8264762200415117 5.1289901100099193 4.6984742172062397 6.2163553535938245 5.0077288709580889 2822.0922393538058 5.8228164128959179 8.7682815082371217 8.632620148360731 8.3213711306452733 12.725719872862099 10.980540409684176 4.9909669682383475 10.376533463597299 6.8163850642740762 63.744668211787932 5.6650758497416973 4.7877998836338511 7.0070635862648478 20.711909241974354 4.7689494490623456 5.537877082824707
leaf_count=170 256 161 133 119 123 134 211 291 122 111 100 127 95 57769 121 160 155 169 272 234 108 205 134 1245 120 103 148 460 100 118
internal_value=-0.000342639 0.0214046 0.0112145 0.0401872 -0.0006322 0.0110343 -0.0118662 -0.00105672 -0.00122657 -0.0144877 -0.0075469 0.029738 -0.0166922 -0.000906671 0.0288544 0.0198063 0.035555 0.0153417 -0.0222191 -0.0115066 0.00442407 -0.0150312 0.0194095 0.0158742 -0.0155467 -0.00102769 -0.000851837 -0.0149216 0.00692691 0.0248925
internal_weight=3118.98 40.9831 32.6895 15.5375 3078 108.068 17.1086 2969.93 2945.95 69.3904 55.4139 10.9148 44.499 2876.56 11.6493 23.9836 15.2154 90.9598 39.4913 26.7656 15.785 17.1519 78.8824 70.5611 10.7941 2864.91 2829.1 35.8065 15.0946 10.3068
internal_count=63774 788 627 289 62986 2149 345 60837 60399 1458 1167 227 940 58941 243 438 278 1804 845 573 339 338 1548 1379 231 58698 57917 781 321 218
is_linear=0
shrinkage=0.05


Tree=21
num_leaves=31
num_cat=0
split_feature=7 6 11 10 10 13 12 11 10 12 12 8 12 12 9 10 10 8 8 11 4 6 6 9 6 10 7 11 11 7
split_gain=6.93044 5.72589 5.48077 7.07988 4.74902 4.62697 6.42798 4.70905 6.68341 4.50485 7.50974 4.96783 3.99368 7.88853 3.74296 2.848 3.40477 9.26886 10.6625 7.11596 6.35374 7.47497 11.8936 9.61507 4.96758 4.77967 5.44621 4.15325 6.55801 5.51356
threshold=-0.010565899568852198 0.0091621460954879521 0.21656198769144189 0.93037728339321057 0.91608956710087719 -0.40793515045717926 -3.035156205542445 0.57180581546636444 0.77961529896663284 -4.3905243528596998 -2.2588428527355986 3.0320441947513568 -3.0180782796298442 -3.1913198974897408 0.080886590041103712 0.71706401625542593 0.86450346012596291 -0.099300736932589437 0.04176512789842151 0.081912397957414659 0.20774612622552616 0.0026005127499746507 0.004026564342470851 0.26692161027695932 0.0015998529219397003 0.78825197174346961 2.8145977318022774e-05 0.08782609893473696 0.098656250985531518 7.9737250246493652e-05
decision_type=8 10 8 8 8 8 8 10 10 8 8 10 10 10 10 8 8 10 10 8 8 8 8 10 8 10 10 8 8 10
left_child=1 2 3 -1 -4 6 -2 9 -9 14 11 12 13 -11 -7 -12 17 27 -19 20 -20 24 -23 -24 25 -22 -27 -17 -29 -30
right_child=5 -3 4 -5 -6 7 -8 8 -10 10 15 -13 -14 -15 -16 16 -18 18 19 -21 21 22 23 -25 -26 26 -28 28 29 -31
leaf_value=0.0082594803379967014 -0.0078629574412468258 -0.017043336815191483 0.037914933078053797 0.079453264513958829 -0.012608577470128385 0.05157031404571253 0.059542865950175106 -0.0010080380548030809 0.063785127295468438 -0.019795002926804608 0.0073764154553868869 0.031710254006474328 -0.033148963890714728 0.050375964771951602 0.0071311204050734716 -0.037810320548910384 -0.00043997027528393847 0.072678469875407589 -0.02904202728176862 -0.019229734872900889 0.046477112250340055 0.095754938323715122 -0.017633587168901382 0.070355056033604993 -0.042847155210569358 -0.021078189615240148 0.034226362610564373 0.031600512305658295 -0.021135077588744555 0.001990286201930615
leaf_weight=5.6878235042095158 6.6712846010923386 8.3850157298147661 8.7888334356248397 9.0456940494477749 9.8793163076043111 7.1382980160415199 7.5278976373374444 9.5447946600615996 6.8264422677457324 22.841544333845381 106.08035597577691 4.7175274007022372 33.517581287771463 4.8567905351519576 14.093090455979107 16.796918984502554 2609.4817699752748 5.5817020870745173 8.4520333074033243 28.345324616879225 7.0507375150919058 6.730360940098759 8.5511238649487513 4.8748629949986926 5.0626145340502253 12.614496864378454 6.8791738487780085 8.303909767419098 87.198997668921947 36.590354081243277
leaf_count=102 133 170 164 165 187 121 131 163 116 489 2056 87 735 105 254 350 53560 115 175 581 142 134 176 100 104 256 132 172 1827 772
internal_value=-0.000328281 0.0198973 0.0291708 0.0519692 0.0111775 -0.000603011 0.0278732 -0.000735056 0.0260093 -0.000878809 -0.00103992 -0.0177294 -0.0215394 -0.00749081 0.0220722 -0.000667987 -0.000967145 -0.00662751 0.00565228 0.00142783 0.011152 0.017715 0.041508 0.0143143 0.00254177 0.0111985 -0.00156162 -0.014392 -0.0114141 -0.0142996
internal_weight=3118.12 41.7867 33.4017 14.7335 18.6681 3076.33 14.1992 3062.13 16.3712 3045.76 3024.53 65.9334 61.2159 27.6983 21.2314 2958.59 2852.51 243.033 94.1424 88.5607 60.2154 51.7634 20.1563 13.426 31.607 26.5444 19.4937 148.89 132.093 123.789
internal_count=63774 788 618 267 351 62986 264 62722 279 62443 62068 1416 1329 594 375 60652 58596 5036 1915 1800 1219 1044 410 276 634 530 388 3121 2771 2599
is_linear=0
shrinkage=0.05


Tree=22
num_leaves=31
num_cat=0
split_feature=7 1 7 8 13 12 11 8 12 12 8 10 10 12 12 9 9 9 9 1 10 7 7 13 0 8 7 8 8 11
split_gain=6.1257 5.44384 5.25913 6.09996 4.19351 5.39953 4.2871 6.54585 4.14629 6.55769 4.51648 4.01036 6.90787 3.81553 7.18949 3.80253 4.40414 3.47445 3.14023 3.00949 2.85427 3.09952 3.4227 2.98996 2.91137 5.81733 11.6693 5.51955 4.74987 3.92234
threshold=-0.010565899568852198 1.1134542046248754 -0.012630375216614748 -2.5980534516824925 -0.40793515045717926 -3.035156205542445 0.57180581546636444 -2.3485150606716916 -4.3905243528596998 -2.2588428527355986 3.0320441947513568 1.9113954961801822 1.0105359059168515 -3.0180782796298442 -3.3639204718286364 0.034243649158650712 0.056578028942909905 -0.0064520446175650491 0.061761386139254658 2.0845942944372839 0.71706401625542593 0.0042381893593896004 0.0059683662836696504 -0.15585211091587028 0.17085969998678008 -2.2509001598725837 -7.0132042879244642e-05 -2.5261532732209377 -1.5991160638839779 0.13620848167324665
decision_type=8 2 10 8 8 8 10 8 8 8 10 10 10 10 10 10 8 8 10 2 8 10 10 8 8 10 10 10 8 8
left_child=2 15 3 -1 5 -3 8 -8 18 10 13 12 -5 14 -10 17 -17 -2 -6 -15 24 23 -23 -22 25 -11 -27 -26 -28 -29
right_child=1 4 -4 11 6 -7 7 -9 9 20 -12 -13 -14 19 -16 16 -18 -19 -20 -21 21 22 -24 -25 27 26 28 29 -30 -31
leaf_value=0.058148289316809647 -0.010759044009535803 -0.0075238471682591082 0.052512537131634618 -0.012441723350936009 0.048545168541542269 0.053634047638339261 0.06107496219594493 -0.0023171880565109122 -0.025300987803017729 -0.011159264628739129 0.029271841767844309 -0.036262975993831735 0.044730869880526714 -0.040596935531454235 0.02886225287011597 -0.044627679702332168 0.0081821065107667412 0.018138417377061098 0.0075932828989278365 -0.0039940989881573092 0.037743008518320562 -0.027916727411561627 -0.0043792599513969707 -0.001165939321184706 0.024493265691643822 -0.0074436431827922941 0.093468212701088793 0.0069200382024371303 0.037678780000634585 -0.022511666412017396
leaf_weight=5.3934482410550117 11.951153341680763 6.6245912872254848 8.9807272180914861 13.524302896112209 6.8468714952468899 7.9283445812761766 6.9837537296116352 9.7680266946554202 18.312646001577381 13.13997772336006 4.8513724692165843 5.9725717827677718 8.6705176867544633 25.310250408947468 9.207082733511923 6.2730927839875221 10.651371836662294 80.232892747968435 14.799438901245592 7.2169517129659644 4.9466577880084515 22.196035910397768 50.780602790415287 2663.0872594900429 16.805619012564421 13.107523228973152 5.4602254927158356 20.890906542539597 12.663616988807918 24.70974887534976
leaf_count=102 256 133 161 254 111 131 117 162 396 251 87 116 155 574 198 134 211 1548 264 161 88 472 1109 54778 333 238 103 407 235 489
internal_value=-0.000315286 -0.000575999 0.018528 0.00943393 -0.00097954 0.0257946 -0.00111157 0.0241108 -0.00125557 -0.00141759 -0.0171334 0.000106184 0.00989304 -0.0208826 -0.00717997 0.0103925 -0.011392 0.014392 0.0205466 -0.0324757 -0.00105945 -0.00137187 -0.0115382 -0.0010938 0.00696063 0.016752 0.0284951 -1.07779e-06 0.0544866 -0.0090282
internal_weight=3117.29 3074.75 42.5416 33.5608 2965.64 14.5529 2951.08 16.7518 2934.33 2912.69 64.8983 28.1674 22.1948 60.0469 27.5197 109.109 16.9245 92.184 21.6463 32.5272 2847.79 2741.01 72.9766 2668.03 106.778 44.3713 31.2314 62.4063 18.1238 45.6007
internal_count=63774 62986 788 627 60837 264 60573 279 60294 59919 1416 525 409 1329 594 2149 345 1804 375 735 58503 56447 1581 54866 2056 827 576 1229 338 896
is_linear=0
shrinkage=0.05


Tree=23
num_leaves=31
num_cat=0
split_feature=7 6 1 11 10 10 13 11 10 9 9 9 7 6 7 1 10 4 4 11 1 6 5 7 7 10 0 4 4 4
split_gain=5.42094 4.87191 4.86856 4.6031 5.29383 4.06702 3.6976 3.78543 5.60372 3.39443 4.15751 3.07484 2.8069 4.29318 4.07873 3.61433 3.08115 5.39834 4.7715 4.05856 2.88707 6.93959 6.26646 7.6987 11.7253 9.00053 9.02019 9.73336 6.81989 9.79363
threshold=-0.010565899568852198 0.0091621460954879521 1.1134542046248754 0.21656198769144189 0.93037728339321057 0.91608956710087719 -0.40793515045717926 0.57180581546636444 0.77961529896663284 0.034243649158650712 0.056578028942909905 -0.0064520446175650491 0.0090649729626171016 -0.010470333364402498 0.007742823263632701 2.008749056018051 0.61413385729170955 1.6305177186706499 0.46230192923876479 0.11972178169453947 2.015771763279091 -0.016596078565344997 1.0000000180025095e-35 -0.00016552215765819998 -1.9832610113072618e-05 2.1441677560213188 0.11663758567085601 1.263511281298155 0.79756337052898274 0.5860267072123263
decision_type=8 10 2 8 8 8 8 10 10 10 8 8 10 10 10 2 8 10 10 10 2 8 10 8 8 10 10 10 10 10
left_child=1 3 9 4 -1 -5 -4 12 -9 11 -11 -2 14 15 16 -14 17 18 19 -8 21 -18 23 25 -25 26 -23 28 29 -28
right_child=2 -3 6 5 -6 -7 7 8 -10 10 -12 -13 13 -15 -16 -17 20 -19 -20 -21 -22 22 -24 24 -26 -27 27 -29 -30 -31
leaf_value=0.0075144359645412653 -0.010323372738384125 -0.016982096467024789 0.023925055704387622 0.032960330459071617 0.067839335453729083 -0.013038622004124957 0.050188810460081147 -0.0023785583844281154 0.055444085398216686 -0.044186441034231874 0.0077149884515891852 0.016948550022274741 -0.031081967951755031 -0.030231769430001429 0.036336583408207293 0.02224603044019817 0.053461607570818248 0.059402020242626752 -0.023528222090919468 0.0050616977808727245 -0.0028665804867522588 -0.0078060871438445662 -0.01201498342679602 -0.043128762720602815 0.000390057185208045 -0.035484204417653306 0.02036246638150542 0.095347422663933881 -0.021856897486203692 0.084796428531117352
leaf_weight=5.7537419013679001 11.835756238549946 8.3701876364648324 14.884330127388237 9.2728519104421157 9.8844648860394955 9.973896745592354 6.7655761353671577 9.7818170599639434 7.3297910168766967 6.0252434723079205 10.729397948831322 81.537510402500629 4.6563382893800727 20.219391759485006 7.28618474677205 10.002776723355053 6.1159037873148918 5.3317342251539221 10.158666409552096 18.90344799682498 1461.7926187776029 26.635515421628952 99.331375200301409 15.689004085958002 1149.907006662339 8.7128162607550603 60.159681838005781 4.7330159097909918 8.1185832433402521 6.5382371470332137
leaf_count=102 256 170 264 164 165 187 122 163 116 134 211 1548 103 463 148 210 125 99 192 353 30363 533 2009 329 23427 183 1227 104 173 131
internal_value=-0.000302204 0.0172751 -0.000549606 0.0254947 0.0456441 0.00912312 -0.000933274 -0.00105878 0.0223899 0.00977319 -0.0109496 0.0134916 -0.00119567 -0.0152952 -0.00102587 0.00530686 -0.0011201 0.0124623 0.00547689 0.0169558 -0.00131641 0.000318592 8.30419e-05 0.00102152 -0.000195709 0.0133698 0.0173785 0.025811 0.021412 0.0266788
internal_weight=3116.44 43.2551 3073.18 34.885 15.6382 19.2467 2963.05 2948.17 17.1116 110.128 16.7546 93.3733 2931.06 34.8785 2896.18 14.6591 2888.89 41.1594 35.8277 25.669 2847.73 1385.94 1379.83 1280.49 1165.6 114.898 106.185 79.5495 74.8165 66.6979
internal_count=63774 788 62986 618 267 351 60837 60573 279 2149 345 1804 60294 776 59518 313 59370 766 667 475 58604 28241 28116 26107 23756 2351 2168 1635 1531 1358
is_linear=0
shrinkage=0.05


Tree=24
num_leaves=31
num_cat=0
split_feature=7 1 6 9 9 11 13 12 12 12 6 9 1 9 9 6 12 12 12 12 9 9 9 1 7 7 6 4 7 9
split_gain=4.80609 4.35719 4.29307 4.01334 9.2972 3.3823 3.27098 4.47768 3.57997 4.9936 3.40538 4.22637 4.07406 3.03326 3.92396 3.03293 3.00439 3.25511 2.92581 2.88337 2.72536 2.70593 2.6034 2.51748 2.4149 4.96466 4.30847 2.77641 2.52479 3.69867
threshold=-0.010565899568852198 1.1134542046248754 0.0091621460954879521 0.014532865246246951 0.20938586650757371 0.22560111142061573 -0.40793515045717926 -3.035156205542445 -4.3905243528596998 -2.2588428527355986 0.0016453055699779502 0.37505544837500965 2.015771763279091 0.034243649158650712 0.056578028942909905 0.0039388348646749007 -2.1695985093559202 -2.068875716335056 -3.1043764680225441 -2.6739564271824192 -0.0064520446175650491 0.08276706461796797 0.080886590041103712 2.0466716752276675 0.0090649729626171016 0.007742823263632701 -0.010470333364402498 1.0402688427552131 0.0042381893593896004 0.30521343359668612
decision_type=8 2 10 10 10 8 8 10 8 8 10 10 2 10 8 8 8 8 10 10 8 8 10 2 10 10 10 8 10 10
left_child=2 13 3 5 -5 -1 7 -3 22 10 11 12 18 20 -15 -12 -11 -18 -10 -13 -2 -16 -8 -24 25 28 27 -26 -19 -30
right_child=1 6 -4 4 -6 -7 8 -9 9 16 15 19 -14 14 21 -17 17 24 -20 -21 -22 -23 23 -25 26 -27 -28 -29 29 -31
leaf_value=0.032211012774446844 -0.0099014531216675746 -0.0082285616408577233 -0.01638633161026436 0.08675462134867 0.0088925627949929861 -0.0091873649776213588 0.042283887148776012 0.046414372717699361 -0.024903659966516889 0.03341650117916295 -0.052525058869524355 0.047998540028672793 -0.029497804249754497 -0.043739623948419695 0.033120713015523655 -0.011563667332128649 -0.033304359419549193 -0.00060739409478371975 0.021166577370875402 -0.005098026718157055 0.015854460270698829 -0.016952230928750804 -0.011296913186970136 0.031348235067246676 0.036282926761983157 0.039840532116370078 -0.029444640326214688 -0.0089798349326535819 -0.0019141235092901905 -0.034307532385349775
leaf_weight=8.7455791532993334 11.725960981100796 6.7223132215440264 8.2440559603273851 6.7700212970376006 8.8400865383446199 11.320120621472595 7.7989662326872375 8.4764786176383478 5.409297313541173 6.3828308582305908 9.6076452843844873 4.9656849503517133 21.718086272478104 5.7884695380926132 5.2276979722082615 8.5325385108590144 7.7411541603505611 2763.4899365305901 9.4962806701660138 5.2708521150052547 82.773115810006857 5.5757274664938468 8.3600530661642534 5.9052435345947734 5.0552964620292187 7.540802937000989 19.585886674001813 10.272418312728403 24.569767192006111 13.739722136408089
leaf_count=148 256 133 170 113 157 200 121 131 116 131 214 104 485 134 100 188 163 56722 211 117 1548 111 152 102 106 148 460 215 509 309
internal_value=-0.000290133 -0.00052495 0.0161329 0.0236475 0.0426609 0.008856 -0.000889728 0.0222462 -0.00100911 -0.00116055 -0.0148642 -0.00774364 -0.0156823 0.00919659 -0.0105209 -0.0332582 -0.000848925 -0.000925612 0.00444749 0.0206588 0.0126585 0.0072777 0.0190556 0.00635642 -0.000837487 -0.000675071 -0.0139064 0.00594846 -0.000784115 -0.013532
internal_weight=3115.65 3071.73 43.9199 35.6758 15.6101 20.0657 2960.64 15.1988 2945.44 2923.38 65.0004 46.8602 36.6237 111.091 16.5919 18.1402 2858.38 2851.99 14.9056 10.2365 94.4991 10.8034 22.0643 14.2653 2844.25 2809.34 34.9136 15.3277 2801.8 38.3095
internal_count=63774 62986 788 618 270 348 60837 264 60573 60198 1435 1033 812 2149 345 402 58763 58632 327 221 1804 211 375 254 58469 57688 781 321 57540 818
is_linear=0
shrinkage=0.05


Tree=25
num_leaves=31
num_cat=0
split_feature=1 8 11 1 11 8 11 11 8 10 6 10 11 8 11 7 0 10 10 7 10 6 0 7 7 11 10 0 7 7
split_gain=5.15043 6.05378 12.855 5.52559 5.0984 6.05804 5.24796 4.75792 4.71791 4.41585 5.02889 6.42615 5.23827 4.26621 3.06065 6.44785 7.93934 7.11346 23.7535 7.00344 6.34598 7.72978 6.11212 5.66459 7.84064 6.54512 6.13227 6.89379 4.63736 3.66101
threshold=1.5791600204212803 -0.68009706580734697 0.14920153430995139 1.3532294953946746 0.050185975910063053 2.5120206084994412 0.13110286543060817 0.061221541402661908 -0.50830448910059578 4.0676393191671254 0.022418181564661604 3.4597761925872201 0.10189234096235061 3.1078240434223434 0.052079713415986002 -2.1684043449710085e-18 0.17085969998678008 1.0950094694071506 0.99449880488350406 1.0842021724855046e-18 0.92183119686652859 0.0077607004337866504 0.19957318172316749 0.0012305176407695502 0.0003104509163285001 0.037193395620840904 0.78238128193469569 0.27581852858361272 -0.0016337808539169999 0.00053880766822560005
decision_type=2 8 10 2 8 10 10 10 8 10 10 10 10 8 8 10 8 10 8 8 8 8 10 10 8 10 10 10 8 8
left_child=1 -1 4 -4 -3 6 8 13 -6 10 11 14 -13 -7 15 16 28 18 23 -19 -18 -22 -23 24 25 -17 -27 -28 -2 -21
right_child=9 2 3 -5 5 7 -8 -9 -10 -11 -12 12 -14 -15 -16 17 20 19 -20 29 21 22 -24 -25 -26 26 27 -29 -30 -31
leaf_value=-0.0068784004176644462 0.020943424107292455 -0.037943610762002714 0.026502072895205089 0.095477137184500196 0.049838490976792861 0.041724191407691957 -0.034871000127343114 0.052364734257997474 0.0046551547087047658 -0.020398193064906617 -0.030759166661794859 -0.0073534906300267849 0.053754460645620332 -0.0091694729323363224 -0.0010003065286922608 -0.027710682900849267 -0.03280948539669272 0.032692142574998785 0.11657589759787837 -0.046709501579568574 0.058025828555670657 0.018906575108723539 -0.029929937438824602 -0.034007885172190867 0.07695749196575187 -0.020228766916556659 0.053995067969590388 -0.0098767333019221474 -0.029348144002779658 -0.0023711699959762349
leaf_weight=101.61210786923766 5.4119178429245949 6.7359895743429652 6.2987662814557535 5.3867539316415787 5.8482994362711906 6.8637236617505568 8.3104652166366559 11.87261103838682 476.62959511578083 28.168892048299313 13.644769351929424 5.447054933756589 9.8462981358170492 10.292273022234442 2272.1291198022664 7.9636741988360873 7.528580952435731 8.775633417069912 6.4890069328248492 8.1241776086390001 9.0233160145580769 23.722150798887014 8.7773973159491998 5.342928532510995 5.3839272968471041 6.1387682519853142 15.429088950157167 5.8173608742654315 29.953897144645452 10.904824022203686
leaf_count=2145 104 135 123 101 119 130 161 229 9425 675 283 97 197 200 46823 159 155 178 126 161 183 480 181 110 101 124 300 116 619 220
internal_value=0.000313053 0.00431492 0.00642806 0.058298 0.00527694 0.00583701 0.00452427 0.0280315 0.00520284 -0.00071364 -0.000488771 -0.000320338 0.0319896 0.0111919 -0.000523106 0.00605669 -0.00359373 0.0161932 0.0270119 -0.00425969 0.00942631 0.0170842 0.00571693 0.0143983 0.0207477 0.0121865 0.0237887 0.0365067 -0.0216522 -0.0213008
internal_weight=3133.87 639.851 538.238 11.6855 526.553 519.817 490.788 29.0286 482.478 2494.02 2465.85 2452.21 15.2934 17.156 2436.92 164.787 84.4173 80.3694 52.5648 27.8046 49.0514 41.5229 32.4995 46.0757 40.7328 35.3489 27.3852 21.2464 35.3658 19.029
internal_count=64160 12768 10623 224 10399 10264 9705 559 9544 51392 50717 50434 294 330 50140 3317 1722 1595 1036 559 999 844 661 910 800 699 540 416 723 381
is_linear=0
shrinkage=0.05


Tree=26
num_leaves=31
num_cat=0
split_feature=5 1 11 9 10 11 0 11 5 10 11 11 9 10 1 12 7 7 4 4 11 7 0 13 1 9 5 4 11 10
split_gain=5.54478 4.00596 4.95618 4.60155 6.51819 6.16947 6.01956 7.38658 7.72607 4.64613 5.42153 4.27394 3.96376 3.83317 9.90068 9.99374 4.36866 10.8931 8.27274 8.98454 7.46902 8.58654 7.0623 5.37902 6.41585 8.26614 5.17873 4.0567 7.77932 8.7833
threshold=-0.20678447589292168 1.5791600204212803 0.050185975910063053 0.3665996809735062 4.0676393191671254 0.24265855543886952 0.15899152610897746 0.27355534048905344 0.0065416527179294011 0.74147522148231326 0.22259766270358558 0.057590923154115202 1.1413455606123957 0.86683598740736034 2.0205873339723759 -3.0544309745213662 -0.00052442948978779992 -0.00019663967136144997 0.68595552820551375 0.85473025864001451 0.059256858304620012 0.00095642310818700013 0.19957318172316749 0.13773318460816361 2.4361309550470653 0.46472561609753166 -0.0050701864869865994 0.6092543845941133 0.12285135235833541 1.1683843487378034
decision_type=8 2 8 10 10 10 10 10 8 8 10 8 10 8 2 10 8 8 10 8 8 10 10 8 2 10 8 8 8 8
left_child=-1 2 -2 -3 5 9 -7 -8 -9 -5 12 -4 13 14 15 -11 18 -18 22 -20 21 26 -15 -22 27 -26 -19 28 -25 -30
right_child=1 3 11 4 -6 6 7 8 -10 10 -12 -13 -14 16 -16 -17 17 20 19 -21 23 -23 -24 24 25 -27 -28 -29 29 -31
leaf_value=-0.01602628662782607 -0.038138404747182296 -0.0012864346031501617 0.039398265960255176 0.040576834056296779 -0.029651484439036976 -0.047648191710447346 -0.052676414392362883 -0.030927075918686993 0.03396948879339666 0.072344009428484929 0.051490477948865354 0.0040526098863170558 0.048548975780234142 0.020105098343390949 -0.024240518298246222 -0.018350810060177844 0.056264824368835953 -0.027126884091290326 0.077345668802496367 0.00047553815767184711 0.044203157383929194 0.071374686446684807 -0.035600980087947591 -0.0041960056914181676 0.084852455902675331 -0.0047554051823596377 0.026198452889053377 -0.0064947500114736411 0.09088485623531059 0.010432755835789136
leaf_weight=51.195411045104265 6.8778036348521701 2064.9743337854743 8.6708651557564718 10.679078586399553 13.301956508308647 9.578495364636181 5.526090674102309 6.8691456131637096 13.799596928060057 6.3955566957592946 6.7158722542226306 626.80756101384759 5.3990148305892935 7.5354853495955494 29.773023884743452 5.7847050726413727 12.382478080689905 5.8274765461683273 4.9893346950411797 15.962335400283338 7.6953737214207649 8.8520643599331361 23.226540543138981 25.724701438099146 5.0867130979895574 5.2093708217144012 20.817973550409082 104.96603434160352 5.5664972215890858 8.6866088658571243
leaf_count=1310 143 42448 170 200 334 192 116 142 269 132 138 12455 95 148 607 115 253 115 97 325 141 174 466 518 103 106 391 2175 111 171
internal_value=0.000293747 0.000564693 0.00407798 -0.000359715 0.00472503 0.00598457 -0.0137301 -0.00132744 0.0124015 0.0081395 0.00704537 0.00453489 0.00608214 0.00532912 -0.00870462 0.0292708 0.00757178 0.0107663 -0.00545101 0.018781 0.00792714 0.0287099 -0.0219552 0.00339935 0.00137667 0.0395148 0.014536 -0.00133247 0.0122216 0.041853
internal_weight=3134.88 3083.68 642.356 2441.33 376.352 363.05 35.7733 26.1948 20.6687 327.276 316.597 635.478 309.881 304.482 41.9533 12.1803 262.529 210.815 51.7137 20.9517 198.433 35.4975 30.762 162.935 155.24 10.2961 26.6455 144.944 39.9778 14.2531
internal_count=64160 62850 12768 50082 7634 7300 719 527 411 6581 6381 12625 6243 6148 854 247 5294 4258 1036 422 4005 680 614 3325 3184 209 506 2975 800 282
is_linear=0
shrinkage=0.05


Tree=27
num_leaves=31
num_cat=0
split_feature=5 8 4 4 9 9 9 9 13 5 5 4 8 9 11 11 5 9 9 11 0 8 4 5 9 11 0 7 11 11
split_gain=5.0759 3.83671 5.12686 4.9357 4.70731 8.9526 8.62892 17.5265 5.78205 5.85342 9.40349 6.28633 5.80891 6.97181 6.84483 5.37043 4.24832 4.33894 8.73292 4.16795 3.88011 3.86791 3.8305 4.33921 4.13065 3.67095 3.65484 7.12817 3.49725 5.62035
threshold=-0.20678447589292168 2.2986467088698621 -0.11553842636069554 -0.61602533182728547 0.030753134044714654 0.088810740904014876 0.0020041669357278506 0.010865863362145302 -7.7715611723760948e-16 -0.050299251924995042 -0.03308326013794264 0.36069872538820097 3.7873017335079866 0.10700661801721011 0.046933113370673206 0.049550453551172109 -0.012156768780371998 -0.045197036137168294 -0.088072820416323042 0.053320366236511006 0.16237055745309439 3.6626019002273282 0.13444703066795752 0.46159412481222589 1.1413455606123957 0.039845802616311952 0.11663758567085601 -7.5894152073985301e-19 0.06826493274580156 0.081325326814566418
decision_type=8 10 8 10 10 10 10 8 10 8 8 10 10 10 8 8 10 10 10 10 8 8 8 10 10 10 10 8 10 10
left_child=-1 2 3 -2 6 21 15 -8 9 11 -11 -7 13 -12 20 -3 17 18 -17 -9 -15 -6 26 24 -24 -22 -4 -28 -16 -30
right_child=1 4 22 -5 5 8 7 19 -10 10 12 -13 -14 14 28 16 -18 -19 -20 -21 25 -23 23 -25 -26 -27 27 -29 29 -31
leaf_value=-0.015456520533270363 0.013599855471871031 -0.032762349317695935 0.045098082872243705 -0.033667287956582824 -0.034390505281316555 0.011450245194722493 0.11369074732966862 0.044655675042916454 -0.025748530998252209 0.0778159691456205 0.072878137791330441 -0.047157340860906727 -0.0084130987169027324 0.0025298416998756771 -0.0032837571489641275 0.0011490256494809082 -0.024169095136038331 0.0052667060219876993 0.068826516910434371 -0.0099026280951805684 0.027363548666036481 0.0073536645482626941 6.0373943738047074e-06 -0.035431152522419941 0.036451903058144934 0.077248876806336006 0.047283625094831382 -0.01188305678399091 0.047163295355774792 0.00016944055734949067
leaf_weight=50.447892878204584 7.5101773031055954 7.5191596224904051 8.6764818057417852 20.872329451143742 21.608812186866999 9.3470776006579417 6.2992212921380997 6.143933396786454 12.826050192117689 5.3578119240701199 5.1651937365531913 8.9626220706850273 31.474251851439476 5.4172634780406979 42.393619637936354 9.2298463582992571 6.9572546519339076 28.367091432213783 9.8572732545435411 8.1364315114915353 7.4648527167737466 7.4665177315473583 2735.1531812306494 8.6150714084506017 7.7964645251631728 7.2886211685836315 7.4945967122912407 15.869615677744152 11.00039377436042 15.090384840965269
leaf_count=1310 146 155 172 418 422 192 119 116 245 107 99 185 619 108 847 175 136 554 192 157 142 145 55960 174 139 136 152 318 219 301
internal_value=0.000275446 0.000532675 -1.70788e-05 -0.0211601 0.00618757 0.00187367 0.0161665 0.0442163 0.0064643 0.00923791 0.0129483 -0.0172382 0.0101744 0.0164101 0.0131202 0.0068456 0.0123191 0.0176686 0.0361001 0.0135703 0.0387198 -0.0236706 0.000198502 -1.64733e-06 0.00010963 0.0520083 0.0173868 0.00709599 0.00558027 0.019983
internal_weight=3135.81 3085.36 2811.99 28.3825 273.374 190.863 82.5102 20.5796 161.788 148.962 130.652 18.3097 125.295 93.8203 88.6551 61.9306 54.4115 47.4542 19.0871 14.2804 20.1707 29.0753 2783.61 2751.56 2742.95 14.7535 32.0407 23.3642 68.4844 26.0908
internal_count=64160 62850 57479 564 5371 3767 1604 392 3200 2955 2578 377 2471 1852 1753 1212 1057 921 367 273 386 567 56915 56273 56099 278 642 470 1367 520
is_linear=0
shrinkage=0.05


Tree=28
num_leaves=31
num_cat=0
